276 64
34 -0.04668146 0.43326372 0.017112209 0.073527604 0.4674978 0.75713176 0.61979645 0.6087334 -0.16643657 0.6410723 0.25738057 0.43017673 0.12868868 -0.47689494 -0.22630809 0.26030347 0.0026986077 0.12193562 0.2532015 -0.67410606 0.06972745 -0.4577637 0.08142508 0.19545971 -0.114660665 -0.10926389 -0.091736235 -0.13147789 0.3430874 -0.11618837 -0.50011945 -0.17549218 0.30143216 0.143346 0.09635004 0.2705085 0.27737442 -0.23766683 -0.25655773 -0.30854768 -0.20941973 -0.2943373 0.38139558 0.49888828 -0.18447837 0.21368738 0.14231987 -0.19598076 0.1356463 0.19036786 0.20087877 0.06951507 -0.21658158 -0.28893057 0.16132413 -0.1656717 -0.9124369 0.09953822 0.36351225 0.7747222 -0.26245302 0.4966976 -0.4338593 0.17158945
120 0.065678746 0.37724134 0.012836267 -0.2618748 0.057197228 0.71424896 0.40398335 0.60356617 0.25516856 -0.08495619 0.20373075 -0.16793244 0.18462978 0.001523865 0.2986053 0.04076103 -0.14143708 0.12776306 0.29409736 -0.17196687 0.56659657 -0.14943895 0.16732551 -0.07437845 -0.3079781 -0.040786568 -0.1577271 -0.3192403 -0.19041917 -0.13627446 -0.19359918 0.046215136 -0.05991617 -0.21827649 -0.28881022 0.29002485 -0.041691564 0.23697066 -0.5293245 -0.2227653 0.16091762 -0.4147732 0.5452396 0.32802057 0.16026255 0.23175378 -0.41025013 -0.32545152 0.24942818 0.09524749 -0.36383903 0.3808618 -0.5257761 0.28783622 0.017496483 -0.06941544 -0.9457917 0.5138864 0.15024048 0.5154227 -0.6655134 0.82016724 -0.2813276 0.05760613
184 0.017601665 -0.26131862 -0.10343806 0.30893204 0.3636917 0.78518456 0.38706484 0.091196164 0.2241441 0.1465235 0.13335492 0.0702009 0.70071334 0.52530456 -0.34651303 0.7800255 0.13314246 0.655762 0.19216861 -0.5221125 -0.65828806 -0.41384375 -0.32950002 0.029000133 -0.44359243 0.44636315 0.20152147 -0.11131816 -0.36251858 0.11365563 -0.2084727 -0.49049923 0.24017756 0.1098003 0.8373614 0.25750116 0.048612397 0.5730097 -0.36843967 -0.56158334 -0.5448667 -0.4105539 -0.3259253 0.30948475 -0.19341746 -0.27010664 -0.0663791 -0.25761724 0.3216702 0.5488199 0.32717416 1.4463383 -0.2509377 0.66502535 0.24907911 0.20996949 -0.06777617 -0.06951245 0.52908623 0.42336142 -0.7048926 -0.16849458 -0.58146423 -0.16092044
247 0.25173843 0.21106607 -0.57731074 0.1228942 0.020869179 1.1364001 -0.2078719 0.9968704 0.28723744 -0.24599954 -0.3002303 -0.5200362 0.3037309 -0.53358483 0.1606205 0.29500863 0.59610105 -0.2711821 0.59180886 -0.5189313 -0.2646632 0.42449832 -0.04471556 -0.13131072 -0.55616546 -0.07841701 -0.012700402 0.26662242 -0.047061533 0.16029672 -0.007507379 0.3172891 0.32466015 0.41604102 -0.30154103 -0.70129174 0.8781544 0.18770179 -0.13744181 -0.17221664 -0.123648494 0.10557934 0.40788093 0.27219114 -0.52223176 -0.55140644 -0.02710046 0.0335274 0.12772803 0.27941108 0.73698086 0.40373567 0.04587374 0.2603233 0.053383376 0.20983937 -0.4586647 0.20520142 0.5244905 0.73612094 -0.7469839 -0.085489996 -0.13343248 -0.11322105
110 -0.19406225 0.24292727 -0.4772395 -0.41112518 0.23567773 1.1150377 -0.25157315 1.1292498 -0.17722334 -0.10637765 0.23756993 -0.23244376 0.5986987 -0.69273686 0.38878983 0.73136836 0.6574243 0.077872604 0.53703517 -0.8487253 -0.5701011 0.16227306 0.38736835 0.13656585 -0.2705346 -3.1872685e-05 0.2870526 0.13673212 0.18851702 0.54608554 0.13877177 0.4166921 0.14754331 0.5626996 -0.041155163 -0.21287633 0.5747263 -0.07135181 -0.2550698 -0.03915277 -0.3825862 0.4332533 0.004692739 -0.0027244422 -0.11691677 -0.11289179 -0.2066737 0.4611842 0.0045660147 0.3224241 0.39106983 0.4199773 -0.14842097 0.335152 0.2665627 -0.40245923 -0.411823 -0.09900605 0.8643508 0.2340534 -0.19648975 -0.054771204 -0.1833176 -0.08361844
185 0.10248284 -0.17159554 -0.10364431 0.27553973 0.71638685 0.7381762 0.7117064 0.102891594 0.21120289 0.061362907 0.1081659 0.26559237 0.6233941 0.3663684 -0.19607969 0.6700848 -0.0040214593 0.5242341 -0.030934786 -0.6631462 -0.5066892 -0.34798706 -0.40696374 -0.061833024 -0.44753805 0.70996326 0.04285831 -0.38427213 -0.19627443 0.07216926 -0.22376955 -0.26076233 0.117575854 -0.06580469 0.4349486 0.11747187 0.17950565 0.75774884 -0.35294813 -0.3984603 -0.33945364 -0.5124842 -0.28733736 0.40527117 -0.23370834 0.00095701823 0.1806824 -0.32152864 0.57384175 0.32203814 0.3337894 1.5026764 0.06970932 0.47408623 0.10310955 0.078760035 -0.08569198 -0.20334503 0.54748935 0.23472711 -0.55851066 0.20453613 -0.34099886 0.09505307
115 -0.42992106 -0.17336206 0.48863158 0.0011852741 0.8069953 0.8971301 1.0435759 0.2121157 0.50266135 -0.131615 0.42994338 0.042623658 0.40301162 0.092358276 -0.7430102 0.41596422 -0.12149217 0.16173661 0.4683981 -0.7733779 -0.25030133 -0.37548846 0.098077476 0.18014345 -0.17236051 0.5256194 -0.24491365 0.1669653 0.3036416 -0.5626322 -0.23164101 0.03551416 0.10613427 0.4049805 0.23180354 0.33770764 0.023111427 0.2748541 -0.08140843 -0.30446348 -0.09325993 -0.3909307 0.08420602 0.7245085 -0.0017714659 0.26114103 0.5435134 -0.21340753 0.20701218 0.29988867 0.3950074 0.9570238 -0.23716593 0.34413055 0.092738956 -0.20462388 -0.28328693 0.06354851 0.22505036 1.0210819 -0.5286908 -0.1016454 0.04700279 -0.42618904
75 -0.042346973 0.41766062 0.42397988 0.24649273 0.8963798 0.49772695 1.0076838 1.0796531 0.2713907 0.42560133 0.81212306 0.19621287 0.62388855 -0.46658057 -0.17305644 0.31811985 -0.11441044 -0.1450222 0.4447933 -0.46544316 -0.44088334 -0.4870996 0.5282847 0.022376824 -0.2611859 0.24741265 0.01493796 0.2053027 0.5593148 -0.2134862 -0.48430273 -0.074561074 -0.13146478 0.40515664 0.64574194 -0.03853749 0.2621986 -0.1958367 -0.5381829 -0.030410992 0.08813183 -0.047142647 0.45259324 0.48001134 -0.1652154 0.25445163 -0.026216792 -0.17799386 -0.05583744 0.06764626 -0.35483697 0.81722677 -0.20093194 -0.13602586 -0.052044276 -0.026325028 -0.46869275 0.18057348 0.246008 0.81118727 -0.3337216 -0.4399368 -0.0068439445 0.46936512
164 -0.26012522 0.20814411 -0.4324857 -0.57996154 0.33450383 0.7891917 -0.043401722 1.5427622 -0.36409876 -0.33130717 0.416792 -0.00034171587 0.60558754 -0.3693632 0.2346441 0.81846875 0.4730562 -0.20018506 0.3565941 -0.77462643 -0.36313465 -0.3218942 0.27243295 0.11225237 -0.07835893 -0.10146176 -0.09680388 -0.115429886 -0.1840563 0.6466527 0.19216011 0.36270475 0.3617905 0.48268685 0.27148718 -0.40136954 0.42406985 -0.14333934 -0.34337422 -0.44403344 -0.24754404 -0.05349872 -0.054867785 0.0028441367 -0.13099268 0.17772277 -0.10926828 0.2434569 -0.12151992 0.097804666 0.35130626 0.41378406 0.15946682 0.6302347 0.040944807 -0.45415562 -0.79969114 -0.18661688 0.75295997 0.33458373 -0.23677243 -0.42369094 0.00916855 0.30193713
7 -0.39326984 -0.10827491 0.2422158 0.018093124 0.6832673 0.63119733 0.5024304 -0.118882865 0.03750091 -0.03844795 0.39977488 0.04363745 0.5293699 0.03886804 -0.56198484 0.5296694 -0.32201195 0.3684058 0.28336713 -0.51264185 -0.46332926 -0.24125108 -0.13308734 0.2362506 -0.41757447 0.5934011 -0.24033573 -0.0074874726 -0.20635909 -0.17376694 -0.27652913 0.11822365 0.23375265 -0.23411454 0.3248948 0.20988174 0.11709942 0.47107166 -0.23212159 -0.14441387 -0.081653915 -0.7619002 -0.086463265 0.46097842 -0.06434156 0.0138830105 0.5325375 -0.3354303 0.14229849 -0.04598205 0.44041407 1.3004735 -0.15601696 0.36599192 0.22246112 -0.26686797 -0.34342885 -0.30765587 0.68904394 0.91408265 -0.65076333 0.16496935 0.05310264 -0.015509038
123 0.59336424 0.0033284929 -0.32895654 -0.32121137 -0.09987024 0.4775908 -0.20827352 0.52843565 0.05415405 -0.2862221 0.2213028 -0.51056856 0.47138876 0.06452362 -0.56692225 -0.1631133 0.070470266 0.47492263 0.038353223 -0.2455382 0.27984855 0.40330455 0.5280109 -0.042583514 -0.15988076 0.29625896 -0.36367866 0.34390077 -0.25670907 0.26499873 -0.24337415 0.3687217 0.0013918296 0.25257757 -0.20492992 -0.53320026 0.23242503 -0.038507786 -0.05512555 -0.30054173 -0.11779984 -0.16690144 -0.085335955 -0.049050916 -0.13176033 0.09159229 -0.19086778 -0.58708405 0.55591536 0.52008253 -0.08108207 0.27890465 -0.31321436 0.29471004 0.058199644 -0.07357285 -0.5240344 1.064591 0.5223431 0.618727 -1.1262848 0.21078546 -0.27612647 0.020843897
62 0.399807 -0.19636543 0.30558586 -0.4169331 0.15307182 0.12060325 -0.3650903 0.11570951 0.37285656 0.09192429 -0.20730469 -0.43299812 1.0742569 0.22496931 0.16689323 0.19065942 -0.021549629 -0.04637367 -0.107326135 -0.35718945 -0.424438 -0.63753736 -0.34923285 0.086265385 -0.08054415 0.27475116 0.4911502 -0.2961723 0.37904832 0.4381135 -0.414565 0.62991065 0.4167029 0.6649235 -0.10571256 0.8669793 0.24552867 0.23372401 -0.5927001 -0.47909954 0.18342012 -0.101794764 -0.5338477 0.7152416 0.009233308 -0.16860731 0.023282345 -0.50454193 0.71759915 0.20090097 0.21384686 0.62927115 -0.4340198 0.6309258 0.23217756 -0.11187737 -0.8080939 0.6279256 0.86264384 -0.07193868 -0.58504003 0.030842572 -0.46096575 -0.09139124
145 0.31724918 0.21589787 -0.021039188 -0.34101865 -0.20259705 0.44390678 -0.034566186 0.70170623 0.56361604 0.007744086 0.6065295 -0.3837629 0.32993233 0.44330302 -0.4176656 -0.26967594 0.12153883 0.3199418 -0.007191258 -0.12522598 0.7578365 -0.27971944 0.7230491 -0.18580022 -0.34591454 0.013948067 -0.3501971 0.13524158 -0.3129154 -0.030968431 -0.28840712 0.42930776 0.1382264 0.19430746 -0.44339767 0.062709294 0.22355556 0.2787344 -0.5654892 -0.48040903 0.10451665 0.1352856 0.12158869 0.40620762 -0.5383974 0.24488296 -0.44294176 -0.579391 -0.117624834 0.37196025 -0.12850575 0.43685883 -0.65122527 0.110108435 0.056789894 -0.022859136 -0.7316035 0.55429196 0.3287109 0.40176737 -0.64266586 0.33692062 -0.22232565 -0.57328415
225 -0.13571265 0.06676091 -0.5713166 -0.058201134 0.050045677 0.9191089 -0.29208994 0.8510193 0.08041366 0.14084722 0.16148055 -0.0724372 0.5352793 -0.7318923 0.40161148 0.394868 0.5657274 -0.33058023 0.7191887 -0.65633166 -0.28091872 0.6699016 -0.0544244 -0.15426226 -0.28029785 0.06610764 -0.05293961 -0.029621147 0.2784695 0.36142468 0.05611812 0.08483367 -0.061271545 0.4119319 -0.32937935 -0.26359022 0.62365884 0.007290109 -0.22403988 0.18487355 -0.2709208 0.08676714 0.2787586 -0.06312642 -0.3711252 -0.39260283 -0.23985256 -0.18470952 -0.042334292 0.29118413 0.40726578 0.31344566 0.0066222576 0.50880533 0.01172105 -0.15269399 -0.628015 0.13176282 0.67684704 0.36609188 -0.5793299 0.2381234 -0.14862913 -0.2631533
220 -0.31168923 0.5106249 0.07201094 -0.27082616 0.8357329 0.4457631 0.7639092 1.2227479 -0.059759546 0.16559622 0.5884859 0.1744104 0.33411467 -0.56200856 -0.13698667 0.31925485 -0.03885687 -0.22420888 0.39010084 -0.7988576 -0.040332016 -0.70582104 0.0071427794 0.04984926 -0.0073968554 -0.11811924 0.3987904 -0.027922567 0.56560445 -0.014351279 -0.42468834 -0.32550827 -0.07067667 0.42250594 0.19273622 0.13191889 0.40466544 0.023348138 -0.4048229 0.036790248 -0.30688882 0.14124565 0.46077964 0.29211456 -0.37927788 0.2122173 -0.2374487 -0.33088583 0.15644245 0.07319392 -0.16809611 0.31535903 -0.2816935 -0.07729395 -0.0074114115 -0.31139907 -0.4668381 0.037655436 0.18680166 0.6602158 -0.1474109 0.034546353 0.15220307 0.49572515
20 0.38510543 0.066107854 -0.16542654 -0.20287825 -0.40272692 0.6483986 0.09960014 0.49263677 0.04404828 -0.10480329 0.547503 -0.66401476 0.5005658 0.33737108 -0.32158872 -0.2207414 -0.17976801 0.0057473434 -0.040619336 0.021680998 0.45119455 0.048256483 0.6608071 -0.060166974 -0.07113842 0.4043917 -0.3512225 0.34296352 -0.5232889 0.10970697 -0.36790958 0.3065768 -0.0022152944 0.33031532 -0.4851222 -0.0810466 0.41942918 -0.06578043 -0.14721313 -0.24515603 -0.098621264 -0.014030487 -0.05115799 0.0059351246 -0.39522892 -0.15961596 -0.45864627 -0.46940562 0.27989402 0.2530593 -0.1574661 0.62453806 -0.5851818 0.0356429 -0.20796321 -0.124127015 -0.3076824 0.92104155 0.5668947 0.6811528 -0.75060254 0.30421337 -0.23111176 -0.14649415
94 0.4293954 0.16844629 0.028690478 -0.5174344 0.06269327 0.13568659 -0.04212845 0.81136996 0.29259247 -0.5239835 0.41920468 -0.66998994 0.6550913 0.39921203 0.2821705 -0.21935917 -0.04920424 0.031933896 0.25203696 0.22216415 0.18284383 -0.768698 0.032538168 -0.21373089 -0.5521421 0.82338125 0.13649419 0.0657305 0.032355428 -0.0012305052 -0.6642781 0.12084195 0.35111493 0.031581253 0.0655084 0.4990335 0.37989318 0.33019128 -0.95653474 -0.35748094 0.23720782 0.64718395 -0.1414509 0.7081852 0.2611609 -0.18986501 0.21070994 -0.124899186 0.32298192 0.26662755 -0.11501063 0.9292984 0.38341695 0.16122833 -0.109545834 -0.0025832455 -0.5068433 0.20902067 0.89195085 -0.076098055 -0.77216756 0.22732303 -0.61362183 -0.23071286
19 0.6996632 0.24267586 -0.49659276 -0.02535439 0.055467833 0.30467004 0.17332552 0.44605497 -0.15916304 0.15693118 0.32190543 -0.3957899 0.8533786 0.06465015 -0.1431745 -0.17059815 -0.44576377 0.16724454 -0.10951536 -0.0649972 0.6365478 0.2174966 0.4296683 -0.301749 -0.25963745 0.6806144 -0.24512544 0.24602893 -0.3399733 -0.06556839 -0.56270474 0.44100416 0.059631396 0.533436 -0.110769294 -0.016102865 0.4987703 -0.020215046 -0.056239717 -0.26752555 0.0897626 -0.1107576 0.09820661 0.23022698 -0.48339328 -0.044987388 -0.49246156 -0.38740107 0.13319626 0.2687385 -0.06224486 0.07753883 -0.31660113 0.21720926 0.12884676 -0.05209581 -0.5812981 0.6256438 0.7717688 0.41889605 -0.64830226 0.35461193 -0.34242114 -0.25556672
158 -0.299646 0.11201357 -0.36460894 -0.7105552 0.2530299 0.33827195 0.13404474 1.1289827 0.5841896 -0.20360425 0.2081115 0.08621132 0.4366306 -0.6584443 0.013198745 0.30369806 0.4535563 -0.5112106 0.5075639 -0.4266287 -0.56424934 -0.44053042 0.2955945 0.015711347 -0.6563104 -0.04754424 0.09729273 0.12503606 -0.028061226 0.47766548 0.08320717 -0.3325246 -0.06754563 0.49009696 -0.3218218 0.0109309 0.06465914 -0.31393787 -0.43096057 -0.18111089 -0.61861944 -0.17292513 0.5133134 0.1783871 -0.5463414 -0.029961534 -0.03802882 0.57452726 0.089143805 0.3699072 0.39791724 0.48931655 -0.5661355 0.79325074 -0.3297965 0.030712556 -0.688208 0.12764138 0.5236895 0.52698123 -0.2069028 0.21727388 -0.76400834 0.32925835
107 0.36316004 0.085546136 -0.6263279 -0.4949478 0.36433402 0.55735075 -0.12126067 0.9929163 0.22880144 0.06671015 0.12658146 -0.017444873 0.65307534 -0.9682912 0.03237799 0.620294 0.9151358 -0.27426097 0.4347824 -0.5166097 -0.51620096 0.09770998 0.34984893 -0.10504016 -0.3359953 -0.07224482 0.13728976 0.06844003 0.1849239 0.4234976 0.1559584 -0.26221415 0.39472827 0.39584133 -0.4072534 0.05091519 0.21733497 -0.29881504 -0.15386866 0.08979363 -0.23762691 -0.0889636 0.30630168 0.29835293 -0.3131935 -0.02720037 -0.036071397 0.18886998 -0.11088479 0.37737748 0.33008784 0.3458551 -0.34134683 0.8074564 -0.011832222 -0.11856831 -0.06733473 -0.05017328 0.62386 0.5476145 -0.41607782 0.49016666 -0.376346 0.0968502
96 0.29484797 0.12327472 0.11173288 -0.30517945 -0.07157311 0.40614712 -0.20372674 0.36285096 0.25814947 -0.4549705 0.6225637 -0.4791025 0.9637234 0.2845016 0.3055842 0.057723973 -0.22236921 0.5042809 0.2905405 0.23005788 0.46408352 -0.39913982 -0.27203625 -0.20699814 -0.55434304 0.4749362 -0.10549059 -0.06477201 -0.06100536 0.36465248 -0.5113972 0.06935804 0.20781301 0.08010447 0.12405129 0.4251701 0.6897165 0.5581662 -0.64645386 -0.38046783 -0.14452927 0.24492256 -0.23730516 1.0003325 0.013291831 0.20982714 -0.02920559 0.18954194 0.43443188 0.089059755 -0.20558974 0.38666075 0.04745843 -0.09248529 0.13253641 -0.3029186 -0.48538488 0.4974736 0.5230442 0.25010777 -0.37198877 0.48252323 -0.5278994 0.118134834
122 0.55225664 0.29209843 -0.016808255 -0.03229869 -0.31065896 0.46244952 -0.23327133 0.43030003 -0.16146578 -0.061469067 0.18822928 -0.42782003 0.7077528 0.047320742 -0.2742181 -0.059676085 -0.18881974 0.23788482 -0.09708275 -0.4785645 0.37968266 0.20270795 0.29855168 0.07108021 -0.29825312 0.6388007 0.12292389 0.12977025 0.16865288 0.12899528 -0.36266124 0.43914774 0.034046054 0.394466 -0.32942596 -0.4538393 0.07782804 0.088833086 -0.05235242 -0.47339866 -0.05966064 -0.26432085 -0.11712085 -0.2074644 0.05269946 0.18685193 -0.34096906 -0.39197776 -0.045334972 0.2380989 0.01813105 0.29543847 -0.36141786 0.30783764 0.31003845 0.10537925 -0.113597356 0.8914706 0.65124315 0.7477187 -1.0378605 0.4838043 -0.5630818 0.1346288
205 0.439623 -0.046127725 -0.33590266 -0.44693157 -0.023234837 0.4912717 0.041701052 0.38063148 0.50695276 -0.33625036 0.6699631 -0.6319405 0.86029845 0.20467496 0.123760656 0.002628353 0.04114263 0.11497209 0.15620083 0.26302323 0.54417086 -0.42419127 0.5414228 -0.16257995 -0.5690655 0.5076132 -0.40510562 0.25270337 -0.16863577 0.11771623 -0.61807305 0.50867003 0.36528912 0.32769525 -0.2341264 0.3918344 0.22146937 0.27910772 -0.80347323 -0.75637734 -0.03404496 0.22916292 0.041878685 0.7136375 -0.18782426 0.15685625 -0.37847972 -0.12312268 0.37057072 0.34453923 -0.45647478 0.5581107 -0.166932 -0.17361808 0.17083605 -0.030650176 -0.24588406 0.33861035 0.5481115 -0.07340337 -0.7080756 0.33464557 -0.34694678 -0.12645298
98 -0.047898207 0.10751604 -0.14302139 0.057115182 -0.020056214 0.45396882 0.08422804 0.111680076 0.16318351 -0.15548813 -0.04617265 0.23470165 1.0649587 0.26729202 0.23697722 -0.010439264 -0.2985432 0.5744437 0.2772936 -0.013865854 0.25407284 -0.29962274 0.08669506 0.036620025 -0.39228877 0.5759715 -0.14975297 -0.56600404 -0.38227338 -0.27405113 -0.15041003 -0.115567684 -0.10024992 0.008517309 -0.17763346 0.4143682 0.7855853 0.1955278 -0.46228564 -0.22671816 -0.31764343 0.5592389 0.07933382 0.96072865 -0.29098856 0.27194983 -0.41245136 -0.10236379 0.29816535 -0.17552114 -0.014078802 0.6580768 -0.29344827 0.104549095 0.025771435 -0.23383904 -0.5428464 0.12146757 0.532725 0.2677252 -0.32291347 0.63673407 -0.39878216 -0.2300214
156 -0.15906887 0.37000373 -0.19077268 -0.46738797 0.10281345 0.25505465 0.38979834 0.9707564 0.35969207 0.07239333 0.41686708 0.13160375 0.14595717 -0.9628761 0.034318328 0.14062466 0.065728605 -0.45364088 0.660444 -0.28742757 -0.0417288 -0.66056883 0.31478438 -0.18248439 -0.40593982 -0.16304761 0.39149386 -0.025061414 0.22090332 0.0984091 0.076149546 -0.24645315 -0.50600356 -0.13746445 -0.18640494 -0.047272027 0.583064 -0.6573845 -0.35403752 -0.05837886 -0.6746045 -0.23730858 0.39633182 0.16827837 -0.21315269 0.02767792 -0.2819839 0.4405148 0.35229203 0.33692878 0.06569639 0.31214282 -0.43758357 0.37129807 0.17551237 -0.017155318 -0.80917144 -0.007268863 0.58932924 0.79780746 -0.5804226 0.22144495 -0.38175344 -0.27819136
8 0.032990005 0.1976782 0.1514003 -0.29504552 0.71677643 0.5361627 0.51801294 0.02694337 0.48863876 0.24456893 0.34644002 0.15929578 0.6646026 0.13238245 -0.36812326 0.70163774 -0.37227774 0.77107984 0.1988729 -0.3841811 -0.33958277 -0.1687409 0.020424193 0.24697797 -0.13514993 0.5563569 -0.09077572 0.057091642 -0.10396617 -0.21969008 -0.16139999 -0.1340865 0.2681527 -0.33190417 0.5082914 0.26217282 0.48575974 0.38722008 -0.33331147 -0.008379003 -0.5052003 -0.6545509 0.03398308 0.34788275 0.26209503 0.32978216 0.38983604 -0.2252064 0.6325724 -0.117748834 0.3467254 0.69135416 0.020880947 0.08545476 0.22053345 -0.12002847 -0.32199198 -0.1583995 0.74758977 0.8269963 -0.46795732 0.28989583 0.33927628 -0.14920488
100 -0.068645224 0.43347287 0.32932726 -0.40443006 0.18322335 0.8943025 0.1031069 0.17314112 0.16734172 0.22963935 0.38017195 0.10594887 0.19974603 -0.17657341 -0.027453445 0.26197886 0.13562207 -0.005157792 0.074433185 -0.47975856 0.42697388 -0.19649652 0.16499212 0.18634143 -0.3466517 0.34790656 -0.13478494 -0.4838647 0.35101378 -0.35994354 0.090523526 0.08704282 0.17403561 0.33454898 0.10534008 0.5604623 0.2582061 0.16961251 0.076978244 0.26405844 -0.058934174 -0.07024386 0.64919364 0.38466424 -0.19068986 0.57423687 -0.039100993 -0.04133112 0.36041576 0.4219202 0.024738776 0.34431547 -0.19908082 -0.17727669 -0.056854896 -0.10564053 -0.71831393 0.26386812 0.18160054 0.62059927 -0.90318197 0.6870816 -0.39817595 -0.17493157
35 -0.11396383 0.60467386 0.19035251 -0.3339462 0.013783741 0.92915463 0.25921822 0.2691375 0.052522425 0.57106185 0.13072354 0.32410437 0.3510019 -0.7975371 -0.18699184 0.49854708 0.24798843 -0.032441303 0.15504831 -0.5158331 0.2030369 -0.29433095 0.05638563 0.18388315 -0.010442106 0.01817073 -0.08253813 0.11645769 0.0008252219 0.11762675 -0.04593714 -0.35320935 0.371779 0.3701109 -0.15142234 0.43812713 0.31773767 -0.2794694 -0.28812298 -0.004529779 -0.43317935 -0.28689775 0.3212374 0.25266093 0.066036396 -0.0024650518 0.26687515 -0.27392003 0.40496624 -0.17493482 -0.120059 0.56195253 -0.17536598 -0.22865033 -0.04010278 -0.047857635 -0.35010558 0.089432634 0.4162167 1.0164276 -0.50476956 0.503229 -0.24774209 0.32039255
117 -0.24836044 0.05075279 0.65492034 0.15721393 0.4880341 0.57308376 0.99753326 0.2615227 0.06181 0.38708213 0.25833482 0.2130749 0.4661556 -0.060080856 -0.47198346 0.57396054 -0.108060434 0.065920115 0.4892763 -0.36566818 -0.020606965 -0.13609044 0.43432683 0.12383698 -0.068453945 0.35517064 0.04634049 -0.29719633 0.307683 -0.3098827 -0.39396146 -0.20388745 0.46669364 0.07394141 0.40152296 0.47010452 0.49405834 0.30730495 -0.15052599 -0.29097453 -0.38682902 -0.36045668 0.5391488 0.30234766 0.012627461 0.40151253 0.40362883 -0.13426834 0.20612091 0.2757692 0.21783069 0.717401 -0.24010515 0.010517908 0.15654434 -0.34652212 -0.4945623 0.04621224 0.35156214 0.712795 -0.50290847 0.25226507 0.21807002 -0.30767223
48 -0.16056055 0.19554758 0.16944183 -0.21327257 0.3335949 0.6363236 0.16650388 0.7596827 0.20650423 0.15656583 0.22135687 0.088680066 0.3492373 -0.39150956 0.032550484 -0.042756718 0.08777667 -0.23405294 0.0918591 -0.18345642 0.039666027 -0.6390257 0.31676203 -0.108595654 -0.6604224 0.07665504 -0.03718453 -0.4522484 0.16324537 -0.347393 -0.6272198 -0.23091792 -0.3075552 0.025586072 -0.458413 -0.009087825 0.20390153 -0.2736317 -0.48978278 -0.3631035 -0.3961243 -0.016326774 0.33477765 0.17656486 -0.045670915 0.38977328 -0.0727758 0.22235748 0.24831304 0.1398255 0.17398576 0.18206328 -0.33097768 -0.053157035 -0.0019409638 -0.09626433 -0.9296734 0.37873912 0.21428865 0.70485127 -0.44511905 0.9827601 0.006215009 -0.030071216
38 0.36452612 0.22198302 0.30838782 -0.36689427 0.16506371 0.36489627 0.036984734 -0.21221545 -0.22765476 0.14299203 0.31574914 0.005856755 0.65077674 -0.010177256 -0.06893509 0.13000223 0.113142826 0.8990651 0.04189955 -0.52289337 0.12322252 0.26336536 -0.021185318 -0.11217141 -0.27251577 0.04638231 0.3467624 -0.06504448 0.33542478 -0.26276597 -0.6831452 0.20361511 0.42046922 0.47216898 -0.29072964 0.28862426 0.22970633 -0.10413033 -0.35949248 -0.048040193 -0.28181294 -0.16431043 0.24821334 0.08380539 0.39675823 0.1385611 -0.20327985 -0.60328203 0.21820064 -0.18623285 0.036705114 0.61308265 -0.34221774 0.19576992 0.06573407 0.2816513 -0.60680515 0.4443341 0.7360379 0.74740887 -0.46121976 0.35253966 -0.19624847 0.4564957
12 0.3113302 -0.14747496 0.30130744 -0.3860118 0.16949497 0.44020936 0.2331693 -0.09883597 -0.045655992 0.22120433 0.19230755 0.08657296 0.44072768 -0.2884308 -0.2883928 0.25148255 -0.2153837 0.6088263 0.13921282 -0.27907762 0.13036184 0.0733681 -0.44780537 0.0039682146 -0.3731764 0.2918821 -0.053885676 -0.11741717 0.32050627 -0.31019083 -0.41164985 0.09746294 0.60280746 0.6117902 -0.11373261 0.12249083 0.25685468 -0.02302752 -0.45147806 0.100277185 -0.5730166 -0.2592359 0.6004888 0.17022972 0.24627037 0.3561834 -0.3716564 -0.50281787 0.3978059 -0.09339553 0.2201259 0.55409694 0.031345792 0.16804825 -0.0340413 -0.2275724 -0.4919459 0.19587594 0.8484691 0.82879657 -0.48920405 0.3244332 -0.25378752 0.5274876
69 -0.21032281 -0.093128644 0.86547065 -0.31441808 0.35687003 0.7611184 0.5292992 0.24907447 -0.030407598 0.18475227 0.2466233 0.20825908 0.2696352 -0.39022723 -0.22850403 0.34784135 -0.1043359 0.18074791 0.080435164 -0.4877931 0.40157902 -0.025659716 0.3185791 -0.011760965 -0.00090904464 0.065873176 0.10029321 -0.63438267 0.1323793 -0.3011896 -0.26858407 -0.06067187 0.39941797 0.33202636 0.23599067 0.274335 0.34754544 0.1528223 -0.27351883 0.020269668 -0.2800336 -0.25663674 0.51849806 0.59258616 -0.3039371 0.55522513 -0.13323937 -0.3222185 0.26935032 0.21878076 0.17185944 0.28707325 0.05946011 -0.1772172 0.13242716 -0.17880784 -0.59911215 0.21049477 0.21103314 0.92073137 -0.49066216 0.31962928 -0.36261755 -0.13193665
11 0.43227017 -0.09978149 0.045533422 -0.21072987 0.28872085 0.5491527 0.28780004 -0.17307015 0.10121026 0.3963534 0.08131239 0.18189496 0.59591204 -0.49894387 -0.30462945 0.4410846 -0.023465075 0.79251015 0.19555083 -0.34008408 0.2487334 -0.12447984 -0.040763117 0.2818758 -0.24209274 0.16337095 0.44126886 -0.17343792 0.23344181 -0.15626815 -0.17225759 0.124634214 0.43916437 0.503645 -0.18239635 0.38163453 0.19618876 -0.26097012 -0.4086786 -0.09299449 -0.59248435 -0.22485803 0.3855378 0.2887804 0.18038653 -0.24522497 -0.02981027 -0.4102642 0.40038097 -0.25715283 0.11834679 0.59199274 0.0028015242 -0.15142275 0.42540562 -0.011158322 -0.23559606 -0.0599822 0.6733814 0.9604531 -0.48827577 0.5212114 0.067751795 0.41733012
105 0.13383558 0.30837965 -0.1463069 -0.63322765 0.0657896 0.6027333 0.17231375 0.7260673 0.40928102 0.33298427 0.0051746382 0.07856826 0.40369752 -0.82515746 0.1715875 0.26781127 0.6942819 -0.30609483 0.75914186 -0.6187186 0.11472789 0.13412575 -0.0013154371 0.035088804 -0.33443505 0.1484891 0.18084835 0.022549292 0.28096473 -0.11515155 0.34432647 -0.25825143 0.014070397 0.30424187 -0.1319611 -0.27418083 0.34258756 -0.26488894 -0.19499299 -0.22332487 -0.44041646 -0.27858004 0.45688888 0.06944679 -0.033484984 -0.048903387 0.013826043 0.077022105 -0.1257414 0.15780525 0.13143179 0.2170973 -0.47056907 0.58180386 0.29679644 0.12618735 -0.20487131 -0.044060502 0.92135876 0.8514391 -0.413243 0.36956722 -0.2036737 0.08649023
16 0.07492602 0.15656886 -0.10328938 -0.3400656 0.023098517 0.41807482 0.3456306 0.16423456 -0.041482292 0.214852 0.17720042 -0.1685534 0.5803293 -0.22914198 0.18296392 0.21459278 -0.30378783 0.58898264 0.21043241 0.26215887 0.27431157 -0.0792166 0.0862281 -0.3543278 -0.20143414 0.62857616 -0.21816584 -0.37708548 -0.2834641 -0.065588385 -0.32228598 0.003278228 -0.02271121 0.21222955 -0.37687448 0.2590245 0.63124657 0.3536531 -0.11722291 -0.19627488 -0.24175532 0.5521901 0.16526087 0.48075274 -0.2087984 0.164476 -0.5362389 -0.13580592 0.32891458 -0.14485729 0.2901149 0.18225777 -0.19566415 0.48164645 -0.06463889 -0.047885567 -0.5703492 -0.029077541 0.39637643 0.683944 -0.58679986 0.75514424 -0.3490251 0.09595544
66 0.32450658 0.320476 0.09163187 -0.25674227 0.07147971 0.20898661 -0.06810585 0.23035918 -0.05721414 0.24737042 -0.20697406 -0.4084906 0.2719825 0.29982713 0.09434429 -0.024931313 -0.14828348 0.413326 -0.1156336 -0.5680591 0.32003564 0.18510032 0.19000258 0.015046039 -0.41295025 0.26469493 0.37995484 -0.019116662 0.33237076 -0.16012308 -0.33145112 0.336489 -0.027445635 0.5106259 -0.696358 0.028271493 0.39978397 0.05409448 -0.38996613 -0.31267062 -0.24165921 -0.25803497 0.07823063 0.2957545 0.45917827 0.3604558 -0.14460894 -0.43304998 0.25119594 0.0072354125 0.059073653 0.7586021 -0.19186677 0.35160345 0.41366592 -0.14841598 -0.56608444 0.905198 0.37726966 0.4716869 -0.45987353 0.39126325 -0.4481735 0.50430685
17 0.4115402 0.13956137 -0.11297003 -0.19696823 0.21772735 0.6338225 0.009957555 0.25976187 -0.1520178 0.19324654 0.17218235 0.14525944 0.378628 0.10040842 0.19386427 0.07857643 -0.38744038 0.30889884 -0.16150963 0.037118662 0.50662285 0.48317018 0.25268623 -0.31671995 -0.4811568 0.5491589 -0.089899786 -0.049662042 -0.27323237 -0.17161144 -0.5956497 0.01814297 -0.07270811 0.5835561 -0.16154693 0.26913318 0.37610534 -0.0020879253 -0.50111616 -0.23523399 -0.06717483 0.06727729 0.11210091 0.3513178 0.15910156 -0.13429196 -0.72036934 0.029109886 0.36200976 0.05539328 -0.24194233 0.18493706 -0.49649453 0.43939957 -0.010118693 -0.12587081 -0.59585404 0.117761426 0.52806395 0.6924447 -0.6120948 0.5913948 -0.2790861 -0.0005195996
43 0.49935433 0.3472315 -0.07353516 -0.29276738 -0.012225266 0.6807332 0.09901486 0.19293061 -0.1532597 0.08289981 -0.1567163 -0.16719691 0.010774399 0.13126026 0.4823201 -0.029947625 -0.13814205 0.21232451 0.21510266 -0.5222139 0.3081003 -0.04973686 0.20777147 -0.39934742 -0.24240917 0.23814899 0.2468456 -0.30137622 -0.16210556 0.17089011 -0.40828398 -0.1141089 0.0597845 0.342209 -0.27187765 0.23082069 0.12417988 0.020184796 -0.3533933 -0.26762322 -0.38502917 -0.075995006 0.33838075 0.31109604 0.312791 0.35408497 -0.2825105 -0.11952569 0.2624012 -0.053713966 0.0013135865 0.16533425 -0.5765238 0.38912216 0.068490155 -0.04233983 -0.3653051 0.8774194 0.563474 0.42665574 -0.84383607 0.74478996 -0.18264833 -0.077695385
215 0.072768345 0.20068285 -0.4651316 -0.24936381 0.13362646 0.60881793 -0.43573195 0.6738979 -0.042590782 0.33315864 -0.16647594 -0.24824008 0.45973885 -0.5334931 0.4119071 0.45317772 0.3608495 -0.48736104 0.6119047 -0.6263319 -0.30618918 0.31205928 0.036646303 -0.12660247 -0.28476536 0.30424464 0.09268856 -0.05533942 0.019225523 -0.19556323 0.27649584 0.07523541 -0.0008744128 0.17495342 -0.26750654 -0.2960023 0.6439544 -0.080999255 -0.34732425 0.27735755 -0.37488785 -0.06410138 0.47319943 0.10703148 -0.18393311 0.14925484 -0.39861816 0.026162658 0.038662747 0.16561522 0.21569277 0.03902363 -0.29729855 0.20507886 0.24302837 0.34378675 -0.5826636 0.03198098 0.85719836 0.7026364 -0.6535885 0.34084606 -0.2796273 0.06093801
46 -0.08299859 -0.10290341 0.07470749 -0.25766703 0.079821765 0.4498234 0.013467383 0.51801956 0.1345287 0.45406815 0.37693712 0.12491614 0.4653235 -0.38070005 0.37801003 -0.057950705 0.099333934 0.08873069 0.35022938 -0.1896525 0.25379744 -0.0095345285 0.10026838 -0.15157329 -0.34964046 0.55223244 -0.37351325 -0.3577829 -0.48595104 -0.2859966 -0.14393014 -0.19791985 0.015384699 0.116846055 -0.13323861 0.33248198 0.33062965 0.11923987 -0.091879986 -0.08328901 -0.18387428 0.3947929 0.38591617 0.47932535 0.094417244 0.3263344 -0.37937298 0.2114957 0.14658488 -0.09825954 0.5191064 0.16351344 -0.47534665 0.15927717 0.2152559 -0.31414694 -0.5938351 0.4965818 0.3111457 0.7565156 -0.95411503 0.48264796 -0.18351267 0.059941065
45 -0.049919862 0.041786447 -0.1978643 -0.2202799 -0.0091116335 0.31992686 -0.04123619 0.70749116 -0.03217639 0.24275056 -0.20556106 -0.09475901 0.25863174 -0.26360667 0.35185885 0.6945644 0.15879348 -0.04255478 0.55869347 -0.27224484 0.21441923 0.43017617 -0.016781254 -0.3552912 -0.25138748 0.6924579 -0.026548814 -0.4861985 -0.13902958 -0.006430421 -0.13963476 -0.12470124 0.020917058 0.31718785 -0.29138145 0.10452806 0.3810385 0.019537002 -0.12270449 -0.21233763 -0.12727796 0.19073837 0.26809368 0.2236923 0.27404183 0.3459911 -0.39830837 0.12686478 0.14979787 0.13825141 0.18974946 0.17189877 -0.5462272 0.06500202 -0.073615424 0.08590849 -0.6373037 0.7026393 0.577143 0.89272344 -0.65557885 0.55311984 -0.33684584 -0.22444743
168 -0.009341246 0.62753993 0.09649108 -0.43022975 0.78132516 0.62416106 0.20239705 1.4692205 -0.6021913 -0.04758819 0.7700818 -0.46630523 0.10527755 -0.06491711 0.21587667 0.8035833 0.18826166 -0.019116176 0.48334354 -0.87793875 -0.4876007 -0.796381 0.30182225 -0.28961518 0.29640368 0.31885633 -0.070773475 -0.14832366 -0.30488604 0.49173537 -0.21548459 0.45009777 0.3528482 0.70141876 0.67203224 -0.056220233 0.3734726 -0.49010083 -0.6881941 -0.40755567 -0.38741392 0.10559166 0.2566353 0.030204775 -0.4671628 -0.3920953 -0.088933006 -0.4492685 0.058197174 0.4018885 0.23707747 0.38324302 -0.024503816 0.4866074 0.35212243 -0.4992935 -0.38116387 -0.2399874 0.69103307 0.052420624 -0.06195565 0.09452033 0.13212712 0.29962277
229 -0.092775255 0.35857683 0.2522302 -0.44355905 0.56887174 0.6288879 0.27798262 1.6590242 -0.31404704 0.37943935 0.7769403 -0.12456644 0.02815597 -0.26937395 0.16264041 0.48239967 0.4446381 0.017048217 0.531981 -0.8508164 -0.3341757 -0.79564065 0.2889851 0.4364413 0.0868239 0.032600123 -0.16249824 0.030348059 -0.054603253 0.40997002 -0.2648189 0.34158415 0.01293669 0.4907066 0.69796884 0.18416438 0.51563686 -0.41924244 -0.5974818 -0.22481105 -0.35707265 0.07987627 0.050933614 0.14874321 -0.31739232 -0.08208352 -0.24347173 -0.25765407 -0.07010534 0.6739851 0.4998529 0.46350002 -0.17479663 0.07087308 0.0178402 -0.34779248 -0.25608018 -0.2556051 0.3548589 0.12440881 -0.49656776 -0.004677815 0.27638307 0.5888017
194 0.03079026 -0.34886524 0.042153843 0.3987503 0.438117 0.8872673 0.18706678 0.16936113 0.36225355 0.31282517 0.00523249 -0.042036444 0.75302505 0.41629675 -0.10667953 0.66386676 -0.09119292 0.65026414 0.22765747 -0.44556648 -0.63543624 -0.62205803 -0.4273475 -0.15898207 -0.24718964 0.2908098 0.14443746 -0.35571522 -0.10688197 0.06176638 -0.46335378 -0.21511272 0.037804425 0.17302546 0.72922844 0.08681716 0.2658242 0.5606902 -0.6111069 -0.41588607 -0.38252935 -0.4799382 -0.21321091 0.28247672 0.15249616 -0.13481793 0.30059776 -0.20528026 0.39165193 0.36862493 0.40486485 1.6355057 -0.15787908 0.5967729 0.46310613 0.021972116 0.09649152 -0.012781822 0.595946 0.121983014 -0.57106423 0.030784475 -0.6530304 -0.057345457
136 0.21483287 0.30195844 0.00083907635 -0.0131509155 0.4342186 0.5225713 0.787432 -0.024663191 0.31156644 0.07835027 0.47289303 0.09902078 0.90685356 0.35499445 -0.15229577 0.4791738 -0.07034801 0.56789416 -0.26218218 -0.44158635 -0.44312462 -0.32483307 -0.1476504 0.2191025 -0.19861169 0.93260956 -0.19538349 -0.5079442 -0.14357574 -0.22186738 -0.2031339 -0.1443813 0.2573583 -0.15452775 0.39880717 0.14716808 0.32219806 0.83001435 -0.34428236 -0.2940111 -0.69884026 -0.4687074 -0.092634924 0.54200643 0.14147364 0.10768159 0.11028329 0.10123702 0.08970176 -0.08642734 0.15325792 0.9153535 -0.11730585 0.16345856 0.048320208 -0.26078263 -0.25754333 -0.34121454 0.72633517 0.6469453 -0.29041433 0.51515734 -0.15862219 -0.4280903
64 0.8106442 0.1034953 0.53968424 -0.55852294 -0.2022718 0.04896098 -0.11329715 0.2857607 0.22744544 0.12214235 -0.17240115 -0.47821084 0.9443571 0.45580176 0.30218345 0.31644285 -0.15519759 0.37320802 -0.37637657 -0.1904487 0.021287885 -0.46482417 -0.263549 0.08415519 -0.4079168 0.071890295 0.1587847 -0.04234323 0.43979198 0.1882216 -0.017447487 0.24381272 0.11267278 0.33348754 -0.4923753 0.34753805 0.56646323 0.13369201 -0.6855717 -0.35498577 -0.1690365 -0.12590894 -0.48355418 0.6263267 0.2191812 0.09661455 -0.32123813 -0.41800842 0.1800637 0.17045777 0.3319876 0.5873532 -0.26439694 0.30222136 0.425646 0.034047402 -0.7545449 0.78258747 0.58507884 0.2678211 -0.85892344 0.31438243 -0.27550715 0.17463847
72 -0.34825554 0.36877704 0.54371166 0.30244756 0.75683963 0.7537599 1.0822624 0.4747313 -0.06021807 0.6924915 0.15188166 0.25071424 0.4927788 -0.3973381 -0.65687335 0.2263874 0.062041968 0.082524575 0.3918294 -0.31064254 -0.2264773 -0.33673465 0.5322948 0.16568701 -0.014144029 0.26235119 -0.09971526 -0.23405297 0.35848927 -0.2509597 -0.24007167 0.14620334 0.42367294 0.02494171 0.35518637 0.08209165 0.35930303 0.11004949 -0.5598708 -0.13552429 -0.43639782 -0.19354543 0.37778488 0.49039942 0.07016867 0.24906653 0.14633948 0.118902355 0.35180375 -0.08458644 0.04470208 0.48387322 -0.21006855 0.0056276927 0.033383783 0.09966819 -0.6268456 0.14604121 0.17869315 0.6093058 -0.5711342 0.21164979 -0.025947234 -0.05402643
213 -0.09042882 -0.12150902 -0.17974947 -0.22120139 0.18112187 0.66118187 -0.44463494 0.5326708 -0.16703105 0.17309144 -0.16661312 -0.07070222 0.6034766 -0.40369442 0.42610934 0.25108582 0.08608326 -0.20864365 0.92497826 -0.16007333 0.22294939 0.31296074 -0.06874979 -0.07065091 0.07365086 0.6824646 0.094262175 0.07258538 -0.060702022 0.015792262 -0.01436026 -0.20508197 0.14331603 0.44505468 -0.4462195 -0.5372542 0.35229456 -0.008645631 -0.13054675 -0.2513728 -0.15187092 0.04392279 0.24266465 0.17367187 0.20501779 0.3385717 -0.474638 -0.036763445 0.042202234 0.3141604 0.2353267 0.08209715 -0.51682043 0.08441843 0.2412469 0.11972972 -0.70893157 0.3584049 0.6038234 0.5412753 -0.84244645 0.53283805 -0.5146564 -0.17849985
134 0.22814766 -0.24078014 -0.1641935 -0.28130123 1.0548568 0.007859833 0.2850249 0.40914398 0.09396625 -0.4508481 0.24405256 0.012441833 1.0762494 0.64794403 -0.73338443 0.35908684 1.02527 -0.12451461 0.19211148 -0.25673687 0.14853083 -0.21417694 0.33261067 0.1978663 0.37805644 0.90768796 0.07487988 0.11203517 0.087632105 0.92962617 -0.2973494 -0.058204263 0.06204764 0.8503643 0.39441147 -0.63437486 0.14412175 0.29123327 -1.3210235 -0.029155448 -0.093567386 0.21842457 0.98786324 0.21616712 -0.37860706 -0.6239556 0.31221268 0.056446776 0.38875276 0.62338054 0.46821094 0.8729976 -0.8192549 0.5261856 -0.26079896 -0.81623274 -0.5459254 0.67032844 0.13535762 0.70423245 -1.2733159 0.21092907 -0.1441088 0.41997924
264 0.16856001 0.11326133 -0.008513207 0.2927741 0.52374476 1.018539 -0.24722132 0.9218155 0.45923835 -0.13933457 0.17041633 -0.11466212 -0.0007293742 0.6972295 -1.0199165 0.4480889 0.65706 -0.8867561 0.5430723 0.153034 -0.23270774 -0.032207735 -0.74297714 0.011706145 -0.15648918 -0.10962485 0.0012902038 0.2052365 -0.023302294 0.24779136 -0.2824429 0.5613307 0.010639975 0.06644407 0.5386282 0.022807585 1.2349774 0.14093944 -0.7871466 -0.26125515 -0.5411251 0.42721856 0.78312826 0.7477281 -1.0529615 -0.25677186 -0.07065958 -0.4252208 0.81409144 0.0034816696 0.29374495 0.7688354 0.4051356 0.6092601 0.14274858 -0.6079008 -0.17117861 0.5079861 1.3105457 1.1018013 -1.017043 -0.15936667 -0.14546451 -0.2658645
51 0.5342381 0.2585706 0.45764655 -0.122696124 0.9657099 1.0179765 0.10582576 -0.5166518 -0.09457923 -0.52159494 0.60144275 -0.23595388 0.4123275 -0.2504911 -0.28176737 1.1734192 0.3158777 -0.5389273 0.13421986 -0.104171224 -0.16524786 -0.651108 0.294832 0.34734112 -0.39539877 0.2721497 0.48327982 0.17120667 0.17726427 0.08770656 -0.07555682 -0.059866678 -0.39373806 0.6216054 0.37743375 -0.3372745 0.7568988 -0.06334186 -1.1746676 -0.46041864 0.46610758 0.037761707 0.0044069574 0.16755582 -0.96922994 0.17466225 0.07411992 -0.06557462 0.27120262 0.7416606 -0.22417718 0.7383713 -0.6130392 1.1037055 -0.3276819 0.13784227 -1.2541003 0.7565139 1.5003437 0.11384311 -0.2529379 0.06549783 -0.16408874 -0.15175463
274 0.39310917 0.6402529 0.43961573 0.059780307 0.9493883 0.7148284 -0.18094681 0.60688025 -0.54076415 -0.14594068 1.2910706 -0.76289475 0.6381303 0.8367256 -0.40057564 0.37577054 0.1980757 0.08263406 0.24669215 -1.0000342 -0.17489767 -0.15041041 0.09384503 -0.19864362 0.58982134 0.26516363 0.17439663 0.18173443 -0.24775188 0.50035435 -0.21625224 0.05358056 0.5487376 0.42253494 0.6190023 -0.5137305 0.9377975 -0.7922864 -0.72583413 -0.8456258 0.32236928 0.086772226 0.4151562 1.0707462 -0.120480806 -0.6298034 -0.47580543 -0.45683452 0.47174266 0.7463712 0.22545956 0.8138756 -0.15551814 0.96967715 0.20338923 -0.3610183 -0.3410724 -0.14138614 0.5832938 0.6261997 0.021694494 0.83414656 0.043026224 -0.35615665
52 0.39081866 0.2876671 0.37612945 -0.13590789 0.8384831 0.82259846 0.26903155 -0.48443308 -0.032775577 -0.4807842 0.72609556 -0.3132668 0.33409402 -0.31487656 -0.14930645 1.2954533 0.17370953 -0.4895078 0.033535283 -0.24782056 -0.11931157 -0.5543901 0.13318141 0.59974724 -0.4131187 0.12645362 0.6810701 0.20982128 0.12951228 0.06026416 -0.0992722 0.060519367 -0.48432443 0.64187545 0.5315632 -0.21246502 0.5158699 -0.17482086 -1.1562053 -0.53287476 0.5263869 0.26688242 -0.046088565 0.29999283 -1.0016366 0.110649586 0.050880834 0.027386121 0.32102478 0.7577461 -0.009449507 0.7480697 -0.45515943 1.0149623 -0.24308957 0.15264428 -1.0102915 0.91271436 1.491998 0.17435384 -0.58483326 0.15409093 -0.26098207 -0.12178745
133 0.22269763 -0.2322885 -0.18274169 -0.26534978 1.0395715 0.22532389 0.32715032 0.41510305 0.12071912 -0.49742398 0.43234888 -0.17956817 0.9053845 0.52181923 -0.74752927 0.34673485 0.6926845 0.055359215 0.14250816 -0.016749168 0.23880364 -0.249411 0.2834404 0.27370882 0.2155359 0.9082755 0.24760775 0.025897458 0.19647652 1.0703726 -0.2951117 -0.09753398 0.14139381 0.86993146 0.27529567 -0.89289784 0.34424153 0.1748596 -1.3557426 -0.04071325 -0.050225932 0.13432842 0.87037504 0.13843808 -0.52239645 -0.6819924 0.3041998 0.00061124266 0.40376577 0.545091 0.5987031 0.8950208 -0.8893638 0.46983084 0.09794197 -0.62171066 -0.5999015 0.5997361 -0.17747189 0.7551455 -1.2863503 0.046278477 -0.26367536 0.3432647
170 0.85167277 -0.5120051 0.13352272 -0.85588396 0.95192015 0.3308134 -0.16035208 0.40093866 -0.19673228 -0.63613737 0.7321926 0.11558962 0.46721283 0.057732265 -0.11251978 0.7943442 -0.26784337 -0.38561404 0.37220186 -0.7906184 0.43394244 -0.3174347 0.6367428 -0.5541918 0.10760735 -0.17633384 0.19906387 0.94428843 0.5329162 0.47782367 0.19453828 0.43294832 0.21674855 -0.098862894 0.67974854 -0.23911971 0.8094287 0.6468076 -0.6337778 -0.41918102 -0.22802202 0.48316583 0.72015625 0.32069594 -0.32009646 -0.011681545 -0.19689107 -0.36371806 0.22666587 0.2723035 0.1259112 1.3009157 -0.57138246 0.47471446 -0.26573622 0.06136909 0.049830113 -0.23809485 0.9039261 1.1336213 -0.6419816 -0.23384397 -1.2616506 -0.18128607
31 0.37767598 -0.27676952 0.20411547 0.052325126 1.2577242 0.8615524 0.54085624 0.96853304 0.3248075 -0.05017847 0.9583397 -0.36124837 0.5712331 0.35667524 -1.3359827 0.5004557 -0.29619625 -0.5033008 0.3431166 0.016335921 -0.018367782 -0.38492537 0.0010328416 -0.18846783 0.225326 -0.49088117 0.33199304 0.2328177 -0.87793446 0.70384705 0.112351775 0.117252864 0.22967781 0.81833565 -0.046215724 -0.10559441 0.58197975 0.43534824 0.1417976 0.18666533 -0.22731896 0.49372798 -0.13448346 0.15657099 0.16146404 -0.461424 -0.20623411 0.36886406 -0.030510593 0.62697595 -0.0064849914 1.2769252 -0.2712229 0.26878548 -0.1137451 0.052905485 -0.7876141 0.5350532 1.3009672 0.4086614 -0.5930895 0.74591464 -0.63412625 0.2373431
32 0.54405105 -0.25415117 0.338498 0.11177278 1.3558452 0.95818204 0.366464 0.7698204 0.42285773 -0.07983337 1.0010873 -0.31677222 0.5712344 0.39747795 -1.1905713 0.36951897 -0.21696113 -0.7861391 0.5282106 -0.110180765 0.037759207 -0.4094829 0.13158245 -0.13377953 0.24538715 -0.42450655 0.2982236 0.20382822 -0.6991305 0.8894221 0.36391813 0.13497709 0.4081734 1.0186943 -0.061640304 0.015040213 0.56682044 0.46605647 0.116706066 0.21697861 -0.4012207 0.38458854 -0.21870556 0.26403382 0.13438252 -0.35582516 -0.26347926 0.5652006 0.13604577 0.61094266 -0.06800167 1.3694388 -0.42658135 0.3510643 0.1289795 -0.17711729 -0.7969294 0.43826547 1.1112794 0.34504572 -0.5799688 0.7456685 -0.4881864 0.3544035
53 0.3211629 0.11726429 0.4245533 -0.19053818 0.91431886 0.709527 -0.0234259 -0.4404369 -0.048634328 -0.36695528 0.68009233 -0.19347887 0.24375099 -0.34451938 -0.013207695 1.0954587 0.2979015 -0.6191623 -0.06015761 -0.28880364 -0.0892902 -0.7281243 -0.0069468566 0.07291953 -0.43555337 0.085561894 0.51464707 0.14699847 0.067064665 0.28803426 -0.18659884 0.034485165 -0.28639325 0.8633002 0.4554895 -0.32664284 0.63933 -0.17289683 -1.0603715 -0.5140769 0.52366954 0.057142872 0.082285866 0.37094077 -0.91108763 0.2641339 0.14444114 -0.22571237 0.25317767 0.632233 0.0025016943 1.0078499 -0.47534296 1.0797246 -0.3332794 0.30183592 -1.0561543 1.0332369 1.4565016 0.03328272 -0.5979288 0.059099384 -0.09858861 -0.059941486
273 0.5356216 0.39084193 0.3490796 -0.0090105785 0.9021068 0.62798625 -0.15175724 0.737459 -0.6667139 -0.23111732 1.3211724 -0.8285446 0.8733124 0.82800275 -0.26139185 0.41645047 0.13412029 0.07673358 0.13599771 -1.1163229 -0.35316792 -0.10655708 0.14165774 -0.06130873 0.72696406 -0.060452435 0.04679876 0.1571586 -0.23936604 0.25382534 -0.16916506 0.060789406 0.3619172 0.5936912 0.63669246 -0.42734128 0.94080186 -0.5445866 -0.90631706 -0.76673204 0.15653703 0.25941613 0.44196013 0.8085752 -0.12174175 -0.38064072 -0.4025288 -0.47823447 0.5201281 0.62897944 0.37148163 0.8097975 0.04940493 0.9050911 0.24691495 -0.4231413 -0.4568982 -0.15725465 0.5661615 0.57058674 0.12327619 0.74805766 0.1616174 -0.34384543
171 0.49010816 -0.41051105 0.21033907 -0.7391995 0.73246646 0.31094483 -0.17665717 0.47598752 -0.12831703 -0.68534565 0.7316051 0.2819489 0.47369882 0.1138946 -0.23877007 0.8332572 -0.32846272 -0.31418124 0.24800596 -0.7024489 0.4937787 -0.07518408 0.7448659 -0.34875998 -0.0038806894 -0.089472875 0.19082989 0.8134219 0.76392514 0.5446007 0.18269159 0.39783755 0.232482 0.04594988 0.8322905 -0.053073168 0.92221344 0.6319902 -0.5040127 -0.58942354 -0.2743268 0.35215405 0.6593586 0.27060482 -0.29297984 -0.44263467 -0.16397676 -0.27746093 0.21415876 0.34631136 -0.03931366 1.2653227 -0.5895956 0.5106452 -0.3151194 0.05223409 0.02322607 -0.26572135 0.99938154 1.0331964 -0.5783729 -0.16737957 -1.247101 -0.2559062
173 0.688387 -0.388279 0.004853024 -0.80597925 0.52634066 0.34099045 0.107025616 0.4912697 -0.1451283 -0.45525998 0.7225061 0.22541913 0.5225092 0.20827137 -0.17890595 0.70450824 -0.3205422 -0.14626373 0.43245164 -0.7183068 0.43157107 -0.18160182 0.4915626 -0.40033916 0.2698658 -0.050351728 0.2599611 0.7518717 0.5877116 0.5219096 0.32188982 0.21001986 0.08653618 -0.023752 1.0889621 0.10706054 0.8523371 0.61145884 -0.30759567 -0.58681685 -0.2895563 0.12574175 0.6565732 0.3142918 -0.6744489 -0.49786937 -0.26117185 -0.16252097 0.45902875 0.4720673 0.2836791 1.1689564 -0.710805 0.5231833 -0.091168 0.3375384 -0.024600172 -0.07037028 1.0108545 0.72616285 -0.6611484 -0.29968503 -1.2296047 -0.23576598
263 0.4353614 0.13905625 -0.029963914 0.26840913 0.6107784 1.1906756 -0.304902 0.73119444 0.35609546 -0.20500629 0.101897076 -0.09467856 -0.110253744 0.50760585 -0.93353355 0.3734076 0.7535615 -0.92603517 0.73531795 0.23743328 -0.2973378 0.022791548 -0.54991657 -0.12814602 -0.16040407 -0.10578866 -0.11146723 0.25933135 -0.041664142 0.27826858 -0.487799 0.50475234 -0.03767146 0.20591554 0.38279143 0.06321462 1.0618423 0.0027119652 -0.70394665 -0.25245115 -0.4421301 0.26199153 0.6116499 0.94852996 -0.85386586 -0.23633565 -0.18024735 -0.34469292 0.7093998 0.22758977 0.38647658 0.77951366 0.439796 0.68969536 0.28875843 -0.65679944 -0.2442963 0.22366746 1.2361813 0.97000444 -1.141846 -0.4162947 -0.34698236 -0.45091063
29 0.65768695 -0.33628583 0.27357137 0.16058421 1.0460091 1.2033268 0.5435496 1.071485 0.21345438 0.029692732 1.0223501 -0.5649992 0.44739723 0.37480763 -1.1647599 0.24903777 -0.29906005 -0.29840747 0.08623792 0.043413743 0.04870703 -0.5851663 0.1425425 -0.11111294 -0.14943707 -0.3863517 0.40517265 0.52254254 -0.90659064 0.5061719 0.0066471766 0.22770178 0.28015304 1.0443819 -0.12703814 -0.16720855 0.34681794 0.43247825 0.13316484 0.16474207 -0.12880754 0.3821255 0.025873132 -0.2187212 -0.18243363 -0.24695043 -0.36261678 0.36190104 0.05141942 0.6222537 0.14205012 1.1736746 -0.06853078 0.3352826 -0.20150153 0.19257122 -0.6825783 0.29042557 1.1822904 0.439936 -0.65178597 0.6082608 -0.52511793 0.058783222
30 0.5071386 -0.26017007 0.0958977 0.22885184 1.1662759 0.88048345 0.53312117 0.98488814 0.34944648 0.11972974 1.0697675 -0.39891773 0.2959051 0.32188702 -1.1663704 0.28888726 -0.44675002 -0.33756295 0.45305878 -0.1429964 0.2589293 -0.52659994 0.0038610452 0.09391844 0.05611821 -0.35808882 0.29838607 0.5108491 -0.9087916 0.46203592 0.22247252 0.15042324 0.28958517 1.0979514 -0.19493528 -0.13439347 0.58673155 0.55567735 0.028697155 -0.0034283244 -0.17402811 0.3792838 -0.07254757 0.07852979 -0.054742992 -0.38785437 -0.27404827 0.60536766 0.07938593 0.5885889 0.036133826 1.3501934 -0.19637854 0.46791387 -0.064483896 -0.07811226 -0.7061521 0.51591384 1.1232888 0.33044538 -0.5933375 0.54275703 -0.57451797 0.20494859
172 0.6222368 -0.514512 -0.004104698 -0.88220894 0.7259619 0.3748479 -0.13454247 0.37757036 -0.2808123 -0.43633378 0.6210633 0.0867933 0.46038583 0.16191298 -0.3307788 0.84484714 -0.30848208 -0.26541525 0.41827694 -0.6451763 0.23781349 -0.27542698 0.6391369 -0.4302541 0.12474192 0.0014995486 0.13982353 0.77745366 0.62518036 0.49325323 0.3214027 0.37828243 0.27774134 -0.10659499 1.0018415 -0.07739157 0.6769345 0.49397337 -0.62282133 -0.42191318 -0.24408539 0.28202578 0.65863717 0.43703425 -0.48141626 -0.40697226 -0.54814166 -0.1802857 0.23446013 0.17967543 0.026794778 1.3241829 -0.68307227 0.39671078 -0.30667472 0.4298674 -0.08561543 -0.22630487 0.907638 0.8981602 -0.73707026 -0.22932395 -1.1687254 -0.19474629
132 0.31249973 -0.29651406 -0.11397935 -0.14981285 0.83379406 0.11874044 0.40171137 0.4901255 0.3677334 -0.5331529 0.3707681 -0.048144545 1.1077847 0.4692689 -0.6820525 0.31036398 0.5583495 0.30222392 0.25926447 -0.07855369 0.124836884 -0.25120094 0.27486482 0.04004491 0.3311738 0.7843815 0.23219892 0.2230683 0.31397235 0.88468254 -0.4006591 0.140799 0.0145427575 1.0624478 0.27007225 -1.030194 0.293442 0.1495781 -1.270262 -0.07545912 -0.11414239 0.18607292 0.9955676 -0.22331218 -0.52471375 -0.5627915 0.44422668 -0.24741773 0.23769747 0.83608896 0.45501766 0.95195967 -0.61482817 0.6670468 -0.014291019 -0.58638984 -0.63382596 0.6339792 -0.08672208 0.7342204 -1.2015128 0.2370044 -0.04461472 0.34179673
131 0.4098421 -0.35962677 -0.053667013 -0.17340761 0.80885875 0.3275649 0.27576312 0.6012833 0.40322885 -0.5769167 0.43106225 -0.33964846 1.1021137 0.2817436 -0.62794197 0.28307715 0.23268323 0.42350858 0.17549203 -0.2873361 0.29719457 -0.2673167 0.4857913 0.1616702 0.16832325 0.9588955 0.29182458 0.36993322 0.14527793 0.6885941 -0.087788835 0.15258335 -0.09020063 0.9969452 0.3244377 -1.1748796 0.18839465 0.1475336 -1.2837923 0.02650416 0.1398497 -0.059291728 0.9875934 -0.08444931 -0.54106086 -0.6428138 0.33032495 -0.12944382 0.35097793 0.7313584 0.50427824 0.7823227 -0.7544812 0.5195835 0.24066122 -0.49939567 -0.47228956 0.6839507 -0.1249804 0.65232813 -1.1865762 0.07860792 0.0489151 0.53770393
130 0.2550248 -0.33220658 -0.3711682 -0.12777488 0.87282866 0.52979237 0.3962158 0.5864046 0.1578383 -0.5455893 0.33419523 -0.34075713 1.18277 0.4740651 -0.79759806 0.1048491 0.29356134 0.4786843 0.1533241 -0.081834 0.1303733 -0.33966002 0.48453134 -0.055672277 0.1711265 0.97938716 0.3267382 0.20425554 0.36543187 0.53384024 -0.3595005 0.3467329 -0.053046346 0.83642817 0.089530855 -1.2179478 0.15340668 -0.19429764 -1.325233 -0.24687283 -0.045225333 -0.07374403 0.9999006 -0.3606294 -0.5993156 -0.6125582 0.22389317 -0.30433747 0.339255 0.7545129 0.49678674 0.6465924 -0.6129704 0.31343052 0.08361353 -0.14499716 -0.4736259 0.7496495 -0.0051745605 0.65923727 -1.1405826 -0.01620823 -0.10582748 0.33567673
174 0.60674816 -0.6165726 0.0763978 -0.8583293 0.46139205 0.6218662 0.005128128 0.48464903 -0.13324738 -0.23650268 0.61501116 0.4979553 0.5210681 0.22620343 -0.33463618 0.5699141 -0.30958802 -0.31983817 0.26670182 -0.646122 0.2253075 -0.23938115 0.58333915 -0.18388763 0.23503716 0.22307433 0.19969013 0.7199194 0.5378539 0.36436355 0.3399776 0.25734612 0.18888147 0.015879491 1.0575742 -0.16081485 0.80213094 0.48737085 -0.5381907 -0.6635346 -0.47996002 0.02263626 0.4389249 0.37693363 -0.6141898 -0.6506168 -0.4776436 -0.25106078 0.3043252 0.50735813 0.18010819 1.1930375 -0.56797117 0.65030503 -0.26151127 0.47208607 -0.10089497 -0.27818933 0.8310473 0.58070415 -0.67035323 -0.20197093 -1.2225817 -0.3086115
28 0.3443523 -0.28023174 0.15140308 0.23415372 0.7259313 1.1553733 0.5936083 1.1282107 0.19163996 -0.042648897 0.9766604 -0.46439266 0.32145754 0.14538936 -1.1733657 0.14399281 -0.5368533 -0.2001777 0.10188694 0.14248295 0.2934368 -0.40505174 0.20452045 -0.06661821 -0.04045345 -0.49616203 0.42454356 0.43290713 -0.8432433 0.16720785 -0.11259523 0.43200362 0.37489375 1.2364842 -0.14164852 -0.26850304 0.4771753 0.3190884 0.17634536 -0.19121085 -0.23907289 0.23101282 0.0055587296 -0.17944545 -0.30393028 -0.47605535 0.01661866 0.19379896 0.04508056 0.84115815 -0.17500782 1.2877164 -0.20698322 0.40696704 -0.16098665 0.047267422 -0.6051753 0.28329715 1.2670647 0.30016008 -0.6680943 0.6884265 -0.49826872 0.09022236
54 0.2605437 0.16955681 0.60551184 0.0045428094 0.8720176 0.6338153 -0.010883555 -0.18904267 0.02064644 -0.32503185 0.45688173 -0.22331575 0.18679155 -0.20034294 -0.039623756 1.1280504 0.44249073 -0.40300897 -0.13664564 -0.42892143 -0.062703386 -0.63942695 -0.052740697 0.30972734 -0.35697687 0.078177094 0.6150689 0.15525427 0.13989851 0.25508755 -0.33484465 0.18516774 -0.2879268 0.80998635 0.30106673 -0.024246916 0.6676734 -0.15192139 -1.1098133 -0.72194415 0.8850515 0.20668004 -0.11161161 0.37110683 -0.8447461 0.19929641 0.20785683 -0.02663537 0.13591675 0.8136605 0.042745005 0.9477507 -0.4402872 0.93498284 -0.4394023 0.24201827 -0.9429361 1.0243344 1.3843267 0.26514357 -0.5443688 0.01758501 -0.5198334 0.19770117
262 0.33992985 0.37553528 -0.1667429 0.34522405 0.4654917 1.1390389 -0.29019815 0.7734585 0.5858471 -0.34801525 0.24750954 -0.07540318 -0.19069557 0.3934675 -0.86788785 0.5260771 0.8649982 -0.78145695 0.58063096 -0.04320633 -0.40409574 0.18637669 -0.62639403 0.03886335 0.1345497 0.054948583 -0.1502896 0.17813964 -0.037617985 0.23899445 -0.35359606 0.61191815 0.06853034 0.06795529 0.23180059 0.0770384 1.1314641 0.1335762 -0.5286606 -0.38839105 -0.5057961 0.432182 0.48707706 0.8604451 -0.80820173 -0.26808798 -0.009591801 -0.38679788 0.37954164 0.023503266 0.2440821 0.70701796 0.26431444 0.82294357 0.17708589 -0.5392799 -0.12891632 0.405321 1.3191979 0.9428787 -1.2000169 -0.23907635 -0.40778786 -0.40608093
272 0.21242891 0.48300838 0.39179897 -0.1658945 0.95657665 0.9573766 -0.054179728 0.90887576 -0.67377853 -0.17128971 1.1355792 -0.8994631 0.83665043 0.8636808 -0.22640753 0.40649265 0.09342254 0.17134072 0.089905575 -1.0852413 -0.13014683 -0.14445578 0.106253855 -0.04105693 0.7444614 0.18282075 0.45383373 0.111814745 -0.29462835 0.4960397 -0.14292474 0.22827718 0.27517557 0.33991364 0.7183403 -0.4215251 0.92808926 -0.5779216 -0.8565136 -0.795103 0.34397465 0.31766257 0.30082992 0.656536 -0.10014716 -0.4313144 -0.4752441 -0.47311476 0.4489162 0.6184305 0.43121383 0.77831876 0.046636537 0.55792314 0.105235 -0.5305481 -0.5041962 -0.20686951 0.6192595 0.6190715 0.14786069 0.47115237 0.16955848 -0.30100337
55 0.19797933 0.052215382 0.6728985 -0.15203235 0.88825846 0.58543056 -0.16080014 -0.24147089 0.15721132 0.03154966 0.61214626 -0.6112362 0.11183111 -0.21749239 0.053966746 1.2599471 0.36249778 -0.44186467 -0.042396754 -0.3560649 -0.14606749 -0.6831601 -0.18643683 -0.036923558 -0.5671286 -0.0025514897 0.73835903 0.33152494 0.26452538 0.47459558 -0.31068128 0.22559333 -0.25996903 0.7812821 0.44543466 -0.04464605 0.6014136 -0.18233687 -1.1317062 -0.6511035 0.6373659 0.31230006 -0.065787636 0.27464372 -0.70609677 0.12137038 0.31095794 -0.067691125 0.28679964 0.586948 0.02597789 0.9991327 -0.35106415 0.95081264 -0.08337682 0.3140084 -1.0529654 1.0822253 1.0459281 0.16048971 -0.70377266 0.09424569 -0.4361068 -0.01833501
27 0.70488685 -0.33686018 0.07627816 0.11391631 0.7872869 1.3617289 0.6381383 1.2014538 0.30783698 -0.13050541 1.0126581 -0.53372335 0.38621512 0.16240542 -0.98471624 0.26129058 -0.71552896 -0.11872259 0.072806746 0.07967567 0.33753923 -0.43375972 0.18308613 -0.24699613 0.13840336 -0.36200476 0.45740822 0.31606525 -1.1094251 -0.034301616 -0.094923645 0.5703526 0.46674436 1.1894623 -0.32719 -0.41043705 0.09026477 0.15886359 -0.06411227 -0.10358248 -0.2080358 0.018775247 -0.014549453 -0.052477162 -0.4500649 -0.26660368 -0.19695902 0.23176247 0.19835456 0.6827224 -0.05694342 1.1088998 -0.24781217 0.10994077 0.04352701 0.35411125 -0.56301415 0.32376948 1.21145 0.28932455 -0.51365966 0.4020993 -0.5074188 0.009457105
56 0.34845814 0.008864129 0.57099664 -0.05640791 0.6609718 0.5216241 -0.3055659 -0.03564136 0.03910993 -0.046387654 0.41243312 -0.5803732 0.2495302 -0.08313252 0.029029353 1.0634949 0.26164103 -0.32959625 -0.22832878 -0.37350684 -0.33407235 -0.9305279 -0.09003716 0.08523091 -0.5448665 -0.21483628 0.72568506 0.15138446 0.15076022 0.41021243 -0.17576128 0.09541411 -0.2010855 0.7666229 0.4941761 0.072730444 0.90231675 -0.2310205 -1.0916064 -0.5589417 0.7451686 0.26957378 -0.019226266 0.44938385 -0.3581778 0.31131098 0.5216077 -0.018856278 0.3871332 0.66683847 0.021014683 0.9137767 -0.5427259 0.8903847 -0.3329371 0.04536132 -0.75115 1.1972255 1.1670933 0.2235611 -0.8172877 -0.027318625 -0.5187401 0.12339209
261 0.5885983 0.30832842 -0.2570497 0.3531618 0.6019833 1.2076038 -0.34228995 0.7815835 0.5072486 -0.24859579 0.18997009 0.050422054 -0.01761144 0.33080694 -0.8844323 0.65555066 0.9137638 -0.7938997 0.8551145 -0.054604657 -0.3647342 0.31908202 -0.41316575 -0.072485685 -0.24101174 0.08875666 -0.16654766 0.09441665 0.16051403 0.3889494 -0.050230682 0.4269321 -0.04463391 0.101207756 0.12595652 -0.024832174 0.9649539 0.011641566 -0.5143289 -0.33761695 -0.2869645 0.42778334 0.5495852 1.0272268 -0.618577 -0.30248868 -0.23935404 -0.28738642 0.49312887 0.03319329 0.34875312 0.85656965 0.38508123 0.7157306 0.27903003 -0.28763756 -0.07011632 0.48316857 1.139473 0.7767565 -1.0358002 -0.38138834 -0.1370541 -0.38128147
271 0.26700303 0.1997061 0.34147853 -0.23698759 0.78883773 0.6243594 0.06376968 1.059546 -0.81467336 -0.2997619 1.1377753 -0.8324493 0.73854053 0.7499601 -0.055873353 0.5183871 0.19707724 0.3093904 0.4503022 -1.0018846 -0.23372312 -0.27232665 -0.111001246 0.13253176 0.62179303 -0.038290083 0.1689797 0.100898236 -0.14457728 0.4542863 -0.28842548 0.24552721 0.4139828 0.6259707 0.7454084 -0.4710008 0.8409752 -0.52937573 -0.7675589 -0.68573415 0.21573724 0.22584772 0.21843784 0.5301079 -0.27962562 -0.3445279 -0.43521652 -0.39382812 0.5088796 0.54591674 -0.006840068 0.6904283 0.038909227 0.75665224 0.20943 -0.60009235 -0.51394105 -0.3119454 0.67665267 0.6075644 0.13494219 0.5870047 0.22851989 -0.28304505
175 0.5064099 -0.49884057 0.20054123 -0.5475093 0.33640075 0.7218097 0.12924026 0.51836735 -0.10546599 -0.2092313 0.5060414 0.3778158 0.72842896 0.13497071 -0.20057075 0.6275088 -0.2075615 0.0562973 0.23503458 -0.5655565 0.15373704 -0.35319433 0.41741458 -0.3865408 0.48299205 0.13229655 0.0889553 0.49552226 0.5012955 0.6179213 0.23637885 0.23680562 0.267532 -0.14864516 0.9683841 -0.10010829 0.56851536 0.65099066 -0.40016115 -0.5847561 -0.346849 -0.010208632 0.564852 0.23916395 -0.9008479 -0.7780598 -0.52763146 -0.23586161 0.4121438 0.4030566 0.13607417 1.0640469 -0.78164923 0.67105395 -0.26758713 0.4606388 0.0011950468 -0.2528221 1.1695169 0.5724745 -0.6051177 -0.24951269 -1.2366308 -0.2907943
176 0.49341673 -0.48809463 -0.09311329 -0.54687446 0.42607546 0.5522366 -0.002552099 0.6327111 -0.19027981 0.100623064 0.44562623 0.46799877 0.81247336 0.095823176 -0.116358206 0.7102908 -0.388453 -0.02839545 -0.0072202617 -0.3565423 -0.033610106 -0.36181197 0.3751318 -0.21387726 0.5097831 0.18944438 0.112064786 0.53498197 0.27722916 0.34311253 0.45763004 0.28783646 0.176787 -0.073859915 0.8626451 -0.14439245 0.6352909 0.7243894 -0.41153002 -0.7084009 -0.555533 -0.067452244 0.48567873 0.36720896 -0.8931038 -0.77969545 -0.34829497 -0.26473898 0.65919036 0.61230457 0.14032772 1.247172 -0.6365016 0.76447564 -0.10892862 0.3629707 -0.1727818 -0.09580636 0.79146576 0.6625583 -0.4027175 -0.38546333 -1.2121116 -0.44147408
85 0.052973796 0.20879543 0.7281796 -0.5733105 0.7016676 0.6401209 -0.3816509 1.1618894 0.08108351 -0.20123117 0.7833521 -0.54528743 1.2988963 0.30324388 -0.5758036 -0.24015416 -0.13931099 -0.033955466 0.5933335 -0.05263304 0.09668849 -0.20039795 0.3951384 0.20450938 0.22817752 0.7230157 0.26824728 0.1711664 0.34790003 0.027419435 -0.3281804 -0.0705999 0.73036313 -0.22286719 -0.06504243 -0.10729386 0.53661186 -0.017543629 -0.8561842 0.7680007 -0.19108246 0.6896903 0.58024144 0.64189386 -0.40229806 -0.17584893 0.68425584 0.34102806 0.19028516 0.6699599 -0.06549112 0.9875167 -0.05214951 1.2676134 0.23618051 0.4495543 -0.4916694 0.14026618 1.2286901 0.17228128 -0.52891654 -0.49285913 -0.24245381 -0.125365
177 0.78314114 -0.63674885 0.13070124 -0.4080853 0.50264615 0.7185601 -0.0795141 0.6474523 0.07521912 0.014555889 0.37246332 0.5997878 0.8224471 0.23694904 0.031096177 0.59028023 -0.23361582 0.30507463 0.15890415 -0.4587868 -0.38821885 -0.3564978 0.6022906 -0.20331487 0.5865315 0.2412178 0.16726445 0.43700877 0.20091197 0.31743678 0.21479876 0.10337868 0.17444308 -0.14137053 0.7006867 -0.02271879 0.65533996 0.6839418 -0.28649557 -0.6925197 -0.41861087 -0.13288943 0.5204689 0.1198794 -1.0354599 -0.8641044 -0.32950285 -0.30853593 0.42802134 0.38724768 0.095394716 1.3509508 -0.56449175 0.5918137 -0.07293474 0.22510797 -0.26253876 -0.32558617 0.84135014 0.47422507 -0.5525655 -0.31454325 -1.1948959 -0.3827338
26 0.62447476 -0.21730879 0.02835674 0.06782004 0.58161485 1.3035204 0.72309667 0.9548943 0.24042298 -0.33286634 1.213014 -0.3797537 0.56548 0.24273077 -0.69741994 0.2365791 -0.70183945 -0.10060837 0.0156008 0.00070149126 0.26761574 -0.45541283 0.5158705 -0.14554496 -0.04206608 -0.42470792 0.40884146 0.44620097 -0.962655 0.015973412 -0.22158672 0.5865433 0.43028054 1.2525995 -0.50404435 -0.25571337 0.25604045 0.3852498 0.25614655 -0.19052202 -0.43807387 -0.016841672 0.116690256 -0.12389683 -0.2652565 -0.37225565 -0.16543168 -0.02730593 0.10132918 1.0183065 -0.071829215 0.85244066 -0.21438897 0.25041556 -0.053652566 0.34590018 -0.66808873 0.3996273 1.1261945 0.16781288 -0.4483083 0.41706952 -0.3853953 -0.16286922
178 0.492087 -0.38482282 0.12520157 -0.39665836 0.6850554 0.89774257 -0.07411299 0.7340457 -0.015820097 0.19800985 0.1310992 0.49451455 0.80826086 0.306374 -0.08106954 0.5219581 -0.32721588 0.48121765 -0.11627231 -0.45430136 -0.4930505 -0.45267698 0.4696708 -0.29939917 0.24373788 0.35133302 0.29143754 0.5948065 0.061569285 0.5321316 0.41860077 0.27011654 0.06917438 -0.10807879 0.77437574 -0.14682364 0.55139107 0.9153664 -0.26943147 -0.8692926 -0.55336815 -0.06905613 0.56702024 0.41689497 -0.94430894 -0.8513404 -0.10254191 -0.10737991 0.4668863 0.3272132 0.13676041 1.1742525 -0.6597914 0.705139 -0.1297176 0.270201 -0.05424104 -0.123683766 0.73704123 0.4745103 -0.43087566 -0.23295431 -1.0086012 -0.4171546
83 0.12787238 0.44604594 0.8350422 -0.7191159 0.9073489 0.7874753 -0.5414377 1.0379033 -0.32494304 -0.29407364 0.84467965 -0.38531768 1.2290792 0.2839905 -0.6298786 -0.4505042 -0.16065316 -0.24548036 0.6765245 -0.12487816 0.027151465 -0.1595048 0.12794383 0.3474023 0.27497536 0.6122746 0.43870014 0.068923555 0.23527221 0.06045598 -0.5696105 0.017141622 0.46341586 -0.35793415 -0.05453251 -0.114132084 0.5431987 0.25837407 -0.5148022 0.5205575 -0.42768145 0.4488275 0.6443591 0.41956356 -0.6342764 -0.034568857 0.67452776 0.3060089 0.24086148 0.9444079 0.14470464 1.0909933 -0.15560947 1.4276087 0.24571356 0.54678935 -0.60447365 0.18322521 1.0383878 0.22360815 -0.6533853 -0.40593508 -0.07844298 0.09184537
57 0.496978 -0.008910915 0.7284487 0.111790165 0.5542764 0.2561406 -0.34802738 0.060995527 0.07140301 -0.019384729 0.59500915 -0.50576884 0.3478614 -0.021841738 0.016140228 1.1149218 0.2526151 -0.3310163 0.1336931 -0.3473017 -0.57359266 -0.79560494 -0.124846645 0.074390866 -0.54259026 -0.052534 0.61918736 0.111908965 0.38101602 0.56354094 -0.1304481 0.22939041 -0.28245485 0.7417487 0.27246532 0.2616903 0.7128574 0.003657422 -1.2787911 -0.66762406 0.703419 0.14996865 -0.19620508 0.22863664 -0.25723827 0.19387072 0.22521652 -0.14819227 0.18261008 0.2210363 0.044173352 1.0043894 -0.26062497 0.8014932 -0.35597745 0.009959244 -0.90677285 1.1619948 1.0597937 0.18065311 -0.8101146 0.13404697 -0.57936037 0.009203927
25 0.52370197 -0.096687436 -0.03978669 -0.04708595 0.8091545 1.100166 0.4861863 1.004522 0.090813376 -0.44818157 1.0002035 -0.7346282 0.54521567 0.111626185 -0.75045043 0.13450865 -0.7617263 0.05876037 -0.034799293 -0.056895934 0.16708502 -0.34431478 0.5816451 -0.18859407 -0.13283323 -0.25263596 0.29036462 0.38412726 -0.8195948 -0.07578408 -0.03161418 0.7327316 0.4595261 1.1723175 -0.4228568 -0.37682554 0.22580162 0.35453543 0.14243785 -0.14251187 -0.42818016 -0.20634422 -0.007392032 -0.021724878 -0.41847673 -0.35732874 -0.33159828 0.07778507 0.19001454 0.7120003 -0.430726 0.8187707 -0.6325549 -0.085836925 -0.18536112 0.34359467 -0.5789646 0.41895795 1.1389835 0.18098655 -0.43403167 0.453281 -0.37916535 -0.2632901
84 -0.026033381 0.41830912 0.7769304 -0.83299136 0.7899512 0.7152152 -0.35558513 1.089403 -0.042945247 -0.17529754 1.0267001 -0.56297517 1.1765934 0.23075277 -0.6484247 -0.2530678 -0.15072481 -0.18864523 0.5953286 -0.33575016 0.056852683 -0.073199816 0.15346208 0.2590881 0.30591288 0.6961824 0.32786345 0.06620486 0.41441607 0.039013628 -0.43510422 0.068287246 0.35652557 -0.316418 -0.21579497 -0.2583961 0.60207486 0.26806882 -0.65333396 0.6410065 -0.33096352 0.59744453 0.44537064 0.45609418 -0.6321924 -0.19813399 0.74524015 0.32504222 0.34295335 0.5640122 -0.19201225 1.1687529 0.020395238 1.4317709 0.23486185 0.49052042 -0.5215215 0.20031749 0.92022175 0.12377117 -0.6421009 -0.30038765 -0.25210115 -0.11572957
129 0.11751178 -0.082985364 -0.22246198 -0.07958687 0.5678961 0.5072124 0.13352713 0.464519 -0.07927073 -0.65124977 0.47547662 -0.2851469 1.2153856 0.3755594 -0.5536619 0.10649396 0.0885549 0.6010269 0.15800683 -0.1433022 0.1941371 -0.3565459 0.6618557 0.13701805 0.06049184 0.78225374 -0.024124015 0.49090168 0.39108753 0.31436303 -0.3255351 0.2735768 0.18084697 1.0186397 -0.043029208 -1.2244349 0.07181001 -0.023630492 -1.1333065 -0.4046271 -0.1415167 -0.25511563 0.9212541 -0.32681286 -0.58209723 -0.81999743 0.3722551 -0.19535674 0.40595096 0.7825631 0.5378387 0.46709684 -0.7599972 0.3323127 0.107149296 -0.32433045 -0.58707327 0.76665044 0.1219297 0.60381144 -1.348671 -0.11401735 -0.06029479 0.13358825
86 -0.02421076 0.37453198 0.50689524 -0.6316961 0.88185817 0.53858775 -0.3597606 1.1669693 0.24310777 -0.10395146 0.9017632 -0.5381566 1.274596 0.25956067 -0.6065488 -0.28520972 0.26114687 0.023479411 0.58534425 -0.17577787 0.23664483 -0.3670859 0.4591836 0.18922058 0.26834717 0.8667314 0.32077572 0.22049254 0.5028236 0.08824711 -0.18885356 0.042889334 0.6094875 -0.34062397 -0.25045893 0.00055997213 0.6222791 0.21878316 -0.6385029 0.5116035 -0.17243055 0.8571745 0.2320101 0.6604548 -0.38034782 -0.021446614 0.6111194 0.16414355 0.49132156 0.68912 -0.0718647 1.121593 0.21680152 1.2633932 0.04304945 0.3521005 -0.39824137 0.21447024 1.0216535 0.15238264 -0.45230636 -0.40664735 -0.3540976 0.086112894
260 0.5027615 0.61282897 -0.14272097 0.2250802 0.303989 1.2815439 -0.35106814 0.86672467 0.66832787 -0.43311983 0.039592728 0.018093606 0.024081737 0.1478423 -0.61727095 0.70827943 0.8812865 -0.76981026 0.6399614 0.06991992 -0.48693636 0.6481764 -0.45492637 0.04492776 -0.097859904 0.10169197 -0.09746678 0.24504933 0.0765087 0.37410232 -0.17444307 0.47909632 0.17021543 0.1700125 0.28777117 -0.28480607 0.7981617 0.14432666 -0.30244792 -0.21524182 -0.38540512 0.2885954 0.19538122 1.1340364 -0.54435503 -0.12190925 -0.18998867 -0.20578286 0.3697798 0.19949514 0.24680127 0.89471734 0.4166009 0.8113184 0.074581474 -0.312083 -0.19896367 0.4625931 1.1591822 0.94911385 -0.7741627 -0.27307922 -0.3922028 -0.37245902
179 0.6325998 -0.5567765 -0.06581854 -0.3019673 0.33074605 0.8204941 -0.07755255 0.71505 -0.062640734 0.1873227 0.15045106 0.45176977 0.9830433 0.59011 0.081936695 0.6595441 -0.47687635 0.38719115 0.095035486 -0.48264855 -0.50449485 -0.29148576 0.4814145 -0.06341277 0.305481 0.2672772 0.3727932 0.3833176 0.07717416 0.4665664 0.15086791 0.0494367 0.122683264 -0.046811868 0.7036035 -0.07565145 0.42901415 0.90517753 -0.20108312 -0.58184165 -0.4641248 -0.3468796 0.47106826 0.53969365 -0.9009105 -0.9236851 -0.07302882 0.11534152 0.44265345 0.34099555 0.048558082 1.4561217 -0.49821997 0.7136474 -0.22781982 0.25309035 -0.121435195 -0.25653058 0.6693731 0.72620493 -0.3795949 -0.21354525 -0.6741375 -0.39604303
270 0.068529636 0.32046875 0.090782516 -0.36309776 0.8261087 0.7695794 -0.10760812 1.0462415 -0.74211943 -0.38492358 1.2681048 -0.58539015 0.508438 0.7412458 -0.05322752 0.647698 0.003568823 0.41410768 0.29232514 -1.1395944 -0.30025205 -0.39824662 0.033620495 0.0835358 0.64758986 0.08369782 0.2600706 0.17232034 -0.22170429 0.46495584 -0.2908446 0.1556199 0.32483488 0.7227416 0.640691 -0.24000731 0.901302 -0.5217439 -0.971473 -0.5448985 -0.074644715 0.22888559 0.27895993 0.6296575 -0.18037671 -0.47045287 -0.5110763 -0.30486304 -0.008029305 0.3088089 0.22078958 0.6251382 0.063157715 0.592163 0.19636327 -0.5702734 -0.58897734 -0.101002686 0.6499332 0.37653562 0.15216632 0.33538863 0.3093183 -0.17789157
1 -0.39853978 -0.45652837 -0.1503748 0.45931336 0.8823484 0.78632593 0.19308236 -0.0110701015 0.117004625 -0.6207791 0.6922973 -0.37289566 0.9799487 0.36906672 -0.7828995 1.1560785 0.19923875 0.20658742 0.52656865 -0.71807307 0.03494358 -0.07824751 1.0097005 0.042582538 -0.897187 0.21613322 0.46066043 0.22486041 -0.5724623 0.2635613 -0.667251 0.81346595 0.83220416 0.12202903 -0.026627854 -0.50963694 0.37901372 0.23311834 -0.6402553 0.16215205 -0.29700178 -0.024091924 0.25626132 0.72729707 -0.5060457 0.39544216 1.1561109 -0.114163816 0.28209203 0.0809726 0.5007944 1.0033401 -0.103712425 0.7386821 0.078883335 -0.35308206 0.040258117 0.0746508 0.90328276 1.025043 0.13308512 0.73146844 -0.21027939 -0.27929464
148 0.30652174 0.21482635 -0.3049466 -0.7951128 -0.22494617 1.0053465 -0.17798334 0.8711627 0.16697603 -0.13010208 0.96459204 -0.15981331 0.15830046 0.29114997 -0.21918382 0.03400384 -0.16770616 0.04920775 -0.020490129 -0.017127007 0.22188179 -0.39143628 0.7950202 0.116037205 -0.36110574 0.2537611 0.14504108 0.5629822 -0.39394078 0.24698861 -0.8336664 0.8407755 0.20254119 -0.07922066 0.09854909 -0.111008 0.5016883 0.59736603 -0.80260015 -0.5735173 0.42031232 -0.08314353 0.6668702 0.36038348 -0.7084788 0.44272614 -0.30893683 -0.46722254 0.45194134 0.5068839 -0.2273963 0.74162257 -0.7177274 -0.07614276 0.09173982 -0.17791966 -0.6065642 0.8004927 0.50631577 0.4290683 -0.21119769 0.43243596 -0.036542147 -0.81471455
149 0.12399688 0.2239699 -0.48323444 -0.74504685 -0.1813657 0.9279592 -0.4096097 1.0448047 0.4062082 -0.20621239 0.93614084 -0.31799805 0.2004769 0.44135165 -0.2805319 0.025680883 -0.12633474 -0.05368862 -0.0067895646 -0.042497907 -0.043208964 -0.31294474 0.75217843 0.027681213 -0.28581968 0.27848417 0.11885411 0.29126558 -0.20225856 0.31482595 -0.9558262 0.8499323 0.3682612 0.07388204 0.2645944 -0.16894026 0.34256923 0.72295374 -0.74762326 -0.8080978 0.4010365 -0.46413007 1.1488974 0.20304099 -0.7112888 0.4535667 -0.27938533 -0.34494588 0.38593292 0.5198167 -0.31502315 0.9403343 -0.67054754 -0.21561204 -0.18081744 -0.35947424 -0.57316315 0.45783505 0.9120721 0.36398172 -0.13959147 0.5014404 0.036211256 -0.7861091
150 0.5292674 0.12949802 -0.4710765 -0.90382755 -0.35842657 1.0847851 -0.15904857 0.90493643 0.28591716 -0.23911044 1.01749 -0.41288298 0.25459448 0.35494757 -0.3145291 0.16675872 0.024551628 -0.042368207 0.024606943 -0.008411604 -0.35606775 -0.62937415 0.81369215 0.30889082 -0.1989561 0.32750237 0.35225868 0.4951268 -0.34319118 0.2481875 -0.94981873 0.80738145 0.25691915 0.18621396 0.38543433 -0.28814185 0.35612267 0.7864647 -0.7756309 -0.8709523 0.5444333 -0.59323525 1.165401 0.26829228 -0.7861451 0.58268964 -0.29758707 -0.3471277 0.53176683 0.3157719 -0.1038153 0.84619415 -0.47317588 -0.123836294 -0.062614135 -0.15600243 -0.69278204 0.28869283 0.7342675 0.5857436 -0.055052992 0.43466723 -0.09500852 -0.97268665
181 0.40942714 -0.6443421 -0.1257825 -0.15704922 0.30254874 0.88959134 0.28403112 0.511283 0.012479984 -0.09802123 0.09601808 0.1428707 0.8466506 0.4812431 -0.26917455 0.65033805 -0.31358105 0.58777225 0.23403639 -0.5582326 -0.7621003 -0.22250596 0.3615587 -0.06732904 0.106161475 0.5012957 0.3947427 0.21148837 -0.06966253 0.28118935 0.101638846 -0.09475216 0.06722742 0.073312335 1.0274001 0.17910248 0.47044966 0.8626325 -0.22981314 -0.61548674 -0.49536636 -0.6021237 0.38069212 0.6233723 -0.5814991 -0.8218075 0.11575737 0.18049644 0.18279992 0.32025898 0.10759835 1.2155534 -0.4098889 0.88911146 0.057589237 0.6399178 -0.16906 0.06567172 0.6119756 0.46500015 -0.35071054 0.0039714696 -0.5902215 -0.29881045
58 0.5718411 -0.065721035 0.7048711 -0.15838212 0.83892864 0.2515094 -0.13345055 0.2095081 0.09882094 -0.23645651 0.2533303 -0.62504476 0.4393523 -0.054164983 0.02685741 1.090546 0.30348858 -0.2596531 0.03401241 -0.19144997 -0.48159197 -0.8509651 -0.13380261 -0.066818684 -0.67161787 -0.013073006 0.62975556 0.07710796 0.29922566 0.44251627 0.012672021 0.32612622 -0.11321911 0.5899746 0.27690881 0.35507533 0.6403923 0.047607586 -1.0521784 -0.83222467 0.6048898 0.14802827 -0.18807521 0.391525 0.13993475 -0.004202244 0.21459913 -0.2185735 0.52847594 0.22320306 0.022011882 0.5857922 -0.34490982 0.9003598 -0.121043 -0.22130193 -0.76378995 1.2777319 1.2220415 0.100596935 -0.7240084 -0.08887486 -0.47090492 0.021792404
80 0.6244636 0.46808228 0.6040051 0.2979447 1.059923 0.26341373 0.85612357 1.2091799 0.0523438 0.044880264 1.0266746 0.45613045 0.24589182 -0.21656565 -0.20048393 0.30253074 0.1947948 -0.5534997 0.3224304 -0.14332375 -0.7131188 -0.72541773 0.46804228 0.16569921 -0.304468 0.3520498 0.02896377 0.6925968 0.44309288 0.12635466 -0.9212565 0.03604691 0.23765495 0.48106012 0.46963212 -0.35839188 0.75372076 0.768134 -0.622157 -0.2627106 -0.29230005 0.19871488 0.20769022 0.6875977 -0.11130624 -0.41997954 -0.024157174 0.10983844 0.47010893 0.37664574 -0.77610046 0.6291638 -0.51985276 -0.30779085 0.21802308 0.33438018 -0.61941165 0.72470534 0.84071296 0.90955967 -1.2579215 -0.87769496 0.05884587 -0.018917996
87 -0.09728423 0.35713503 0.5302743 -0.5937245 0.51633936 0.2074221 -0.26062888 1.0280484 0.25121886 -0.1681956 1.1509504 -0.58035594 1.5449408 0.17912656 -0.5165729 -0.13458787 0.29859164 0.057137284 0.5491527 -0.09940398 0.115951486 -0.44980985 0.25760883 0.2605065 0.23030008 0.66182166 0.10406779 0.09335978 0.43484658 0.104318544 -0.26589966 0.027700294 0.68055654 -0.18408322 -0.2305225 0.0032597443 0.3169436 0.15097669 -0.7513865 0.39437664 -0.23925145 1.0065845 0.5257618 0.85052764 -0.44650325 -0.120290965 0.5993513 0.19302195 0.2149557 0.52932715 0.027925543 1.1462787 0.23147926 0.9766687 0.2115945 0.31454414 -0.29674748 0.2838236 1.2703928 0.118042044 -0.3982517 -0.39833787 -0.5414521 -0.16264862
24 0.62475514 -0.1400221 -0.26291415 -0.05978203 0.88519824 1.0831575 0.2588142 0.8904557 0.052087333 -0.59460956 1.0291334 -0.28557682 0.5743561 0.45861897 -0.42384607 -0.075868346 -0.58472306 -0.0734999 -0.013305528 0.0064817434 0.17229974 -0.30598095 0.49502885 -0.005202162 -0.011991461 -0.23948058 0.03426164 0.3899726 -0.78983647 -0.26014683 -0.21036932 0.76136297 0.39128116 0.91424656 -0.52058643 -0.21507014 0.017369779 0.2462383 0.3406188 -0.27084258 -0.34554127 -0.17427343 0.07772255 -0.03729138 -0.37447026 -0.41789228 -0.4615911 -0.14550596 0.12865756 0.6359493 -0.293835 0.8764351 -0.53479165 -0.009477445 -0.14512552 0.16149032 -0.783943 0.76665366 1.2254431 0.3091215 -0.48538858 0.37886903 -0.2840493 -0.30543497
234 0.06424676 -0.12399376 -0.09751072 0.18207921 0.4837443 1.238649 0.08427511 0.6500111 0.38160098 0.18406749 0.2761845 -0.19906503 1.416104 0.13800624 -0.7242401 0.33610347 0.038650617 0.6209679 0.10013264 -0.4270855 -1.089758 -0.54857886 -0.13923115 0.46974847 -0.26322544 0.38924727 0.71887094 -0.28960252 -0.6548954 0.3186805 -0.50541306 -0.47229367 -0.18158421 0.5239828 0.22267307 0.03784143 0.27981776 0.5633201 -0.18124638 -0.7054576 -0.32766607 -0.42967796 0.18100724 0.41023898 -0.8273115 -0.6349586 -0.039169032 0.10134077 0.7494326 0.5579205 -0.119603686 0.9907274 -0.62754977 1.1161051 0.32825145 -0.07792658 -0.12091195 -0.13912259 0.6400019 0.24467339 -0.70200944 -0.18655445 0.6045085 -0.6865082
259 0.50601214 0.34803736 -0.36972553 0.0154299475 0.012867828 1.3070095 -0.19786893 0.67073584 0.57330436 -0.3260451 0.18493731 -0.10593872 0.22951195 0.07971607 -0.6959304 0.6820042 0.996536 -0.7029512 0.84971356 -0.05233133 -0.59292406 0.688878 -0.30660406 0.0208024 -0.08912964 0.0029263136 0.03737985 0.14116737 0.17812908 0.33971912 -0.08018845 0.4511331 0.23251379 -0.023592597 0.12215549 -0.4808443 0.90656143 -0.14425825 -0.33537096 -0.39735696 -0.17261338 0.43526858 0.12849917 0.90735847 -0.5730717 -0.15342245 -0.12519175 -0.04636916 0.17797917 -0.033644937 0.24376029 0.97975326 0.30759984 0.6559883 0.26095864 -0.23916607 -0.21470958 0.3632238 0.89619917 0.86264634 -1.1246649 -0.20858167 -0.26916966 -0.31597403
180 0.5406835 -0.35427985 -0.24319983 -0.1048178 0.4912463 0.9201704 0.11001686 0.5940987 0.01718817 0.13055058 0.051660206 0.20067611 0.9566343 0.49872175 -0.23828888 0.7576885 -0.46271852 0.54668295 0.03508603 -0.43494272 -0.6815261 -0.27741534 0.5238085 0.016059715 0.21686846 0.45921716 0.39168987 0.56333005 0.2304653 0.24915795 0.2010785 0.081287004 0.23140799 -0.1623917 0.79637444 0.16163234 0.5460473 0.7758357 -0.094639845 -0.7972359 -0.42925215 -0.38882607 0.45033154 0.37047586 -0.77384216 -0.76340866 -0.11329946 0.27137765 0.32367048 0.15462708 0.14325424 1.3589321 -0.5685751 0.98737484 0.04279758 0.18276083 -0.12172606 -0.15066406 0.57369095 0.36229822 -0.487715 -0.076204 -0.7355731 -0.32799178
257 0.45617288 0.2678922 -0.32535902 -0.048722025 0.1406536 1.2137525 -0.29506683 0.8660199 0.54198426 -0.095784634 -0.18671669 -0.23336354 0.37828124 -0.3168854 -0.21764284 0.37620032 0.72447467 -0.6551415 0.79810834 -0.28678134 -0.6209704 0.680711 -0.25063744 -0.12734412 -0.34779394 0.005852548 0.28553894 0.44423798 0.01601452 0.35338277 0.054024115 0.4765 0.10551126 0.18267924 -0.035126317 -0.72208405 0.85039705 0.24167708 -0.214017 -0.33971062 -0.2806049 0.47348365 0.24320698 0.65285885 -0.7242872 -0.12566738 0.088058665 0.090214275 0.1364998 0.28173673 0.44742644 0.7817487 0.26657143 0.5351579 0.040804263 -0.16484074 -0.19333945 0.5294792 0.55267334 1.0356841 -0.80743754 0.090210825 0.052478436 -0.22610433
258 0.54266447 0.43006146 -0.44286713 0.16793206 0.1808545 1.1958046 -0.23074242 0.92427486 0.5598729 -0.28392115 -0.09045676 -0.27798802 0.29872555 -0.117785715 -0.3754828 0.4403917 0.6626302 -0.64468867 0.8094813 -0.10368885 -0.54633826 0.697606 -0.47788206 0.18069084 -0.2818898 0.0060900464 -0.07108256 0.2609038 0.31665474 0.49991792 0.060161028 0.2926797 0.29774028 0.13697952 0.2481551 -0.669254 0.5285379 0.087687254 -0.27691644 -0.37417287 -0.19420385 0.4615158 0.17183235 0.9447932 -0.7099249 -0.11076997 0.003696292 0.1809642 0.16842273 0.049193624 0.5403348 0.7661237 0.11180318 0.50481474 0.17088938 -0.19644274 -0.15500169 0.5504427 1.0407265 0.91858673 -0.9154516 0.0048847515 -0.20845442 -0.37141865
79 0.56929725 0.5094337 0.50523853 0.16154791 1.1373422 0.2739314 0.81011415 1.285043 0.10159058 0.13953173 1.2891055 0.28571293 0.33192062 -0.12328048 -0.16283815 0.27724597 0.42070463 -0.4548069 0.20489013 -0.1349671 -0.66711694 -0.6459158 0.40774953 -0.16912156 -0.2125181 0.18516572 0.08689006 0.52689606 0.55766886 -0.10763815 -0.87239385 0.030024689 0.15451168 0.44790938 0.46712267 -0.3404718 0.8199616 0.6180656 -0.4583068 -0.3122233 -0.26361507 0.02266861 0.20427024 0.66647774 -0.1856514 -0.2843226 0.3025735 -0.023798205 0.16775854 0.15671547 -0.43864796 0.64518684 -0.62188405 -0.36518976 -0.008294198 0.36960706 -0.5869459 0.7367854 0.6860575 0.88213634 -1.0600001 -0.80409753 0.04294845 -0.011583192
2 -0.13832924 -0.27350768 -0.31452245 0.59604955 1.1099285 0.6052475 0.06964567 0.05792481 0.19922496 -0.48130494 0.6744365 -0.27717856 0.9484259 0.38243657 -0.8377022 1.0749723 0.18906735 0.21640848 0.49932024 -0.66333324 0.058794346 -0.058289934 0.9230982 0.2197094 -0.730706 0.36486524 0.30451062 0.19424032 -0.4678403 -0.01609114 -0.46647173 0.71113974 0.7461306 0.24491264 0.26229405 -0.37280512 0.3391207 0.18895403 -0.53524315 0.12984626 -0.44629148 -0.1901407 0.062484328 0.6478631 -0.53956646 0.6294044 1.0204949 -0.21912476 0.14247358 0.09968637 0.7948581 1.1816258 -0.13263255 0.64918387 0.32571015 -0.32487455 -0.074719526 0.032581188 0.8546915 0.84738576 0.032764047 0.59567034 -0.24635214 -0.25400499
88 -0.017809812 0.27804512 0.5164709 -0.67377484 0.4642849 0.47663537 -0.31851694 1.078153 0.524091 -0.30456367 1.1925015 -0.22675674 1.5901762 0.30820027 -0.47240847 -0.15924935 0.45430475 -0.0019711514 0.35011476 -0.054352462 0.33391595 -0.5759143 0.28257257 0.23942271 0.07008611 0.6422826 -0.036936756 0.08497285 0.38214985 0.29092005 -0.15808398 0.13228075 0.757641 -0.29199907 -0.075132184 -0.045069102 0.310268 -0.031455085 -0.77098644 0.32264647 0.00089425273 1.0203488 0.05981874 0.95940244 -0.27631268 0.014930564 0.5057905 0.12364817 0.33767366 0.40312308 -0.043157447 0.9816266 0.18533063 1.0320773 0.13220869 0.41282976 -0.3561371 0.022152668 1.1790096 0.10446909 -0.620062 -0.34471512 -0.37686706 0.10359096
151 0.34319443 0.12184618 -0.5551556 -0.83461076 -0.5970755 1.1836218 -0.21950139 0.8586917 0.34478122 -0.15376805 0.97508496 -0.3366972 0.064035825 0.29973096 -0.6126482 0.024323408 0.20181687 -0.13753076 0.16113962 -0.14199208 -0.13211787 -0.536295 0.7292932 0.41021693 -0.22776859 0.33118165 0.45432663 0.49457735 -0.3428959 0.19445191 -0.9879469 0.7557885 0.25572023 0.31756476 0.9450735 -0.26317605 0.3921322 0.83131254 -0.8727089 -1.1512103 0.40340784 -0.61418635 1.107069 0.28460556 -0.7456973 0.4907551 -0.065343976 -0.24026479 0.37930024 0.3681666 -0.14281103 1.0444472 -0.41386327 0.017815053 -0.11024785 -0.3403613 -0.6936357 0.39051026 0.86940247 0.50859046 0.0039823307 0.59596926 -0.021424435 -0.8233697
147 0.26531225 0.16960055 -0.0480695 -0.56596154 -0.30616504 0.8014028 -0.29010743 0.9959214 0.15045746 -0.16586751 1.0344526 -0.25832066 0.318284 0.31803012 -0.1231487 -0.2513959 0.09137509 0.37430874 -0.06960181 -0.053500514 0.1396426 -0.17399009 0.73464257 -0.30272868 -0.23671938 0.111566 -0.19617029 0.49902046 -0.36601406 0.25172648 -0.81457734 0.66770196 0.37637547 0.03027964 -0.21795794 0.2049448 0.46445253 0.55120265 -0.789673 -0.507812 0.30557916 -0.3098179 0.6129315 0.1509872 -0.80132514 0.4772454 -0.43696192 -0.34268486 0.27585125 0.5604543 -0.15558651 0.743852 -0.6529193 0.049136035 -0.018063478 -0.12450882 -0.52803683 0.6331668 0.40313086 0.3757692 -0.3539769 0.5401821 -0.20464103 -0.65799314
269 0.11100434 0.34338495 -0.05291442 -0.3120639 0.77658796 0.6624209 0.16543809 1.3418844 -0.8438368 -0.46117014 1.1117992 -0.49584398 0.45584258 0.7018525 -0.010054712 0.7419098 0.0894735 0.26001102 0.30887872 -0.90449333 -0.4421858 -0.44882476 0.046277687 0.22167373 0.46600392 0.23182394 0.26234758 0.056545466 -0.023872549 0.5917402 -0.22455353 0.44709063 0.15701537 0.6735667 0.58602715 -0.12148009 0.6624365 -0.5181561 -0.7542868 -0.4053667 -0.13768439 0.14878748 0.40040633 0.55463004 -0.118191965 -0.327943 -0.50636184 -0.507143 0.365258 0.61582595 0.17522384 0.45707268 -0.079637915 0.65032154 0.2327747 -0.57713366 -0.5503704 -0.3316893 0.8206959 0.28346756 0.32024786 0.38799888 0.22417776 0.0031190722
59 0.6463138 0.023875814 0.37735903 -0.16334741 0.55521804 0.15100881 -0.20907785 0.16030036 0.19471833 -0.003560211 0.20087758 -0.3998563 0.55959606 -0.0073529375 0.17099625 0.98787516 -0.07500606 -0.30524632 0.043207724 0.034534547 -0.7003714 -0.8028111 0.14762968 0.092576884 -0.39978784 -0.020505022 0.7757894 -0.24474093 0.42012134 0.6629747 -0.0986936 0.5808351 -0.031969823 0.55406296 0.20380361 0.2950979 0.47925723 0.18586585 -1.1984942 -0.51321805 0.46224245 -0.013616176 -0.41663495 0.63258606 0.15207347 -0.0063012023 0.06315742 -0.55110914 0.57918555 0.3086672 0.052733988 0.51638967 -0.23452073 0.8032015 -0.22020127 -0.1259959 -0.8161945 1.040038 1.3234501 0.046769716 -0.7155062 0.044065274 -0.5257262 0.08352132
182 0.33253407 -0.43665034 -0.13384736 0.08989736 0.20033443 0.90600663 0.34322244 0.44812852 0.22046599 0.17223161 0.17102711 0.14924814 0.84346926 0.6960254 -0.20626299 0.6571987 -0.25318205 0.51333183 0.38368133 -0.44042414 -0.602979 -0.22432636 0.075239256 -0.033398055 -0.08388027 0.4838341 0.32736728 0.20267467 0.02730197 0.258089 0.15989254 -0.035186935 0.197649 0.14703351 1.058333 0.13753878 0.30557683 0.64791274 -0.19332431 -0.58552164 -0.4855077 -0.6820678 0.21506998 0.4753162 -0.49370742 -0.3829529 -0.028529705 0.11105122 0.39606822 0.3401566 0.34821364 1.4185863 -0.5981833 1.1470567 -0.099079706 0.47399825 0.035885505 -0.16174205 0.45541173 0.2269977 -0.5982989 0.11916899 -0.4991467 -0.16645941
235 0.021982701 -0.19724326 -0.07861545 0.22710662 0.43808135 1.0319022 0.03304373 0.6894287 0.30755875 0.13642329 0.14231235 -0.0043962765 1.4205086 0.23917364 -0.7212899 0.6097219 0.023857284 0.4601908 -0.12386659 -0.5411543 -0.9798056 -0.28370515 -0.27510384 0.31214434 -0.18696848 0.4172851 0.5689192 -0.047377355 -0.74060357 0.096841745 -0.42390275 -0.41391653 -0.11542449 0.44926012 0.3486 0.13670944 0.22685191 0.5391041 -0.49331143 -0.5781127 -0.48713 -0.53229034 0.2348036 0.34862405 -0.6248398 -0.40015975 -0.16669369 0.06363959 0.50250643 0.5402582 -0.047435746 1.2769977 -0.56103295 0.98320735 0.3028058 0.09924712 -0.14616862 -0.05086864 0.5266925 0.0926777 -0.6588187 -0.219742 0.52523863 -0.68707025
249 0.3666576 -0.06094176 -0.31063566 0.3564643 -0.14537112 1.2552875 -0.25894833 0.97488487 0.29066738 -0.2445267 0.014923828 -0.9734553 0.3301522 -0.82247597 0.046954058 0.3653677 0.6172311 -0.5227962 0.6147032 -0.8498618 -0.19184817 0.51460946 0.16323885 -0.06528003 -0.6385986 0.12595582 0.06867018 0.12051097 -0.029271476 0.4740425 0.19451484 -0.08628026 0.30400723 0.17526205 -0.089142546 -0.6419039 0.7026023 0.23050691 0.059730887 -0.14164895 -0.024056701 0.4458596 0.13304554 0.58260304 -0.17714812 -0.42733666 0.3177723 -0.39580527 0.21902587 0.48583886 0.40634716 0.8064659 -0.227086 0.60624737 -0.16101268 0.32645425 -0.6494477 0.03763997 0.7181828 0.8887861 -0.71616447 -0.4001855 -0.17765485 -0.18806662
236 0.04368152 -0.21308985 -0.19190182 0.06626207 0.3706325 1.1468354 0.19086173 0.35674074 0.25433654 0.098536275 0.25207686 -0.028026681 1.1510096 0.305459 -0.53417796 0.6876686 0.10457762 0.5384765 -0.08049517 -0.48701814 -0.6610501 -0.55986315 -0.2583953 0.06358235 -0.20547085 0.19378416 0.560868 -0.28685874 -0.5252549 0.09562697 -0.42375156 -0.44575778 0.016483968 0.24588834 0.4362533 0.027954286 0.39125514 0.613514 -0.3288457 -0.6820148 -0.5305935 -0.470284 -0.10326953 0.27768326 -0.52105075 -0.38001707 0.13047153 -0.016745519 0.4642419 0.499497 0.12241127 1.2554982 -0.50543725 1.0279905 0.34883943 0.28217977 -0.11885608 -0.22481176 0.32420114 0.20192815 -0.92418814 -0.19919555 0.3626783 -0.57668257
128 0.38591892 -0.1172021 -0.16576965 -0.21306492 0.6956099 0.48331705 0.030813381 0.6965942 -0.17490304 -0.8270787 0.34881425 -0.35056525 1.3288963 0.573474 -0.5768401 0.27379185 0.15952738 0.44665912 -0.0033851617 -0.2483278 0.3269432 -0.18819848 0.75733566 0.054622144 0.11479885 0.8912023 0.11027116 0.2362052 0.32307696 0.4153453 -0.50315565 0.30732512 -0.0065411134 0.6622538 -0.18296614 -1.2071391 -0.0022299998 0.040335696 -0.896133 -0.3007117 -0.2571777 -0.5172409 0.7224357 -0.39833447 -0.46750122 -0.77788115 0.07790881 -0.3477108 0.23218302 0.68702495 0.4496432 0.5233109 -0.5620032 -0.07844502 -0.04744875 -0.070951685 -0.78808796 0.76772946 0.18909636 0.64820415 -1.2983476 -0.19419 0.10685751 0.053105593
89 0.08713693 0.41723296 0.43339136 -0.63305396 0.41976961 0.0001012876 -0.288383 1.0236422 0.60284007 -0.30730724 1.1511449 -0.62561065 1.3914021 0.1605124 -0.2817535 -0.011218232 0.3941224 -0.08821652 0.42217112 0.053886205 0.39517203 -0.43339023 0.19446014 0.20708923 0.01765307 0.634633 0.0025236665 -0.08275706 0.07910559 0.22691171 -0.2794346 0.048899457 0.7871392 -0.124265686 -0.11440077 0.15467724 0.3804911 -0.02862728 -0.7897219 0.14535438 -0.25895104 0.93198586 0.116515554 1.0879636 -0.3921824 0.07762027 0.2828669 0.12649941 0.3847576 0.68568456 -0.097770594 1.2798947 0.16635892 0.8278475 0.14632878 0.3031548 -0.26140046 0.04414973 0.92419744 0.045504354 -0.65042514 -0.5785551 -0.59425133 0.16717507
256 0.3570275 0.011042295 -0.43518612 0.17429906 -0.08510892 1.2738868 -0.24829707 1.0083982 0.45190248 -0.036535677 -0.24545704 -0.29231653 0.5397763 -0.3217889 -0.06754861 0.33226344 0.66229177 -0.51562554 0.6229955 -0.03155657 -0.52584857 0.7509724 -0.020061878 -0.018089136 -0.58803827 -0.066942625 -0.0060113706 0.2971645 0.044455007 0.1694782 0.19845411 0.43845108 0.21485147 0.34334698 0.10439412 -0.5832936 0.6935296 -0.080251746 -0.29943871 -0.08651712 -0.025089964 0.3791859 0.3789253 0.50360286 -0.5653201 -0.4271928 0.19158575 2.0601059e-05 -0.03000063 0.27545232 0.5009475 0.45983818 -0.09894424 0.49942443 0.033664078 -0.1163529 -0.42900354 0.31189898 0.8390508 0.84929144 -0.72793454 0.03856034 -0.024596974 -0.1229535
183 0.111413345 -0.51315266 -0.26109326 0.18303272 0.3238513 1.0015416 0.323096 0.30941007 0.09805351 0.06121014 0.09587795 0.12566532 0.7911241 0.51044226 -0.4314326 0.8670152 -0.20812327 0.5185749 0.18651424 -0.5162439 -0.36999515 -0.43722302 -0.13651499 -0.060706243 -0.15211533 0.56301546 0.08814055 -0.042348985 0.13368322 0.2888884 -0.22599503 -0.5006794 0.16808306 0.07773721 0.82357925 -0.034350164 0.32561445 0.6555324 -0.27753377 -0.60426605 -0.4453715 -0.6928906 -0.009691488 0.50610983 -0.2671474 -0.44362372 0.021171162 0.00965329 0.39000985 0.26151484 0.31388593 1.4280972 -0.2711028 0.87298703 0.34799743 0.4534076 -0.11037554 -0.07411794 0.64112693 0.033100557 -0.42821714 -0.09982704 -0.5902648 -0.26883295
167 -0.098997764 0.6860405 -0.22964628 -0.7122241 0.5184371 0.7520418 0.160259 1.4853424 -0.5577018 -0.21548405 0.6502608 -0.21164738 0.3065412 0.12671746 0.08901789 0.84223086 0.02985749 -0.0032293645 0.7115105 -0.9121486 -0.63537997 -0.668658 0.4360909 -0.15636182 0.23192553 0.12659274 0.032804146 -0.3336664 -0.41781685 0.48964882 0.086488575 0.16356257 0.35619602 0.8749821 0.4863925 -0.2875127 0.7308057 -0.42407373 -0.70165235 -0.38780105 -0.14959481 0.18126875 -0.06443198 -0.04532544 -0.24660708 -0.24836165 0.19444509 -0.3638001 0.19121303 0.44338712 0.096485354 0.14760254 0.070026845 0.4598991 0.15626432 -0.5151801 -0.36809406 -0.1711496 0.57363343 0.25460795 -0.11538975 -0.17767447 -0.26510736 0.08723089
268 0.056483634 0.65731347 -0.077452146 -0.54812545 0.9811422 0.55150205 -0.113849826 1.3698943 -0.5273875 -0.3871954 1.0322915 -0.4371085 0.16345163 0.29173833 0.023461606 0.70988005 0.118769296 0.40552282 0.44534287 -0.9116757 -0.4146353 -0.6237921 0.070794396 -0.011443599 0.66876423 0.19692756 0.027306331 -0.11687369 -0.22091605 0.379049 -0.42351276 0.39498582 0.2949371 0.84599364 0.7758616 -0.19760941 0.65667176 -0.5270168 -0.7580209 -0.4086081 -0.2562876 0.12674905 0.0142229535 0.34950954 -0.24416776 -0.4054905 -0.44054604 -0.35891372 0.25054556 0.4199625 0.1813099 0.5523304 -0.122961365 0.6033336 0.24760816 -0.6446124 -0.5792608 -0.25575885 0.64366305 0.20614512 0.08931938 0.16323668 0.028755639 0.013830198
166 -0.05122014 0.5513389 -0.17542857 -0.620764 0.42883936 0.7394453 0.043959007 1.4174451 -0.8701599 -0.39533967 0.5640576 -0.3567624 0.50796634 -0.21653855 0.12167457 0.69913065 0.02847381 -0.312604 0.5626661 -0.9075189 -0.55244863 -0.47649443 0.19737719 0.091085486 0.0056333607 0.17792165 0.14208317 -0.5152662 -0.41726026 0.5957292 0.05281784 0.31796142 0.46683848 0.91683555 0.4457072 -0.23969623 0.39489928 -0.29503998 -0.6343794 -0.44638038 -0.0984279 0.082599856 0.0154498285 -0.11662058 -0.39134422 -0.31059775 -0.01336213 0.037701353 -0.12761395 0.16801672 0.22965145 0.3920867 0.03091299 0.52009344 0.34053034 -0.59793866 -0.40010896 -0.253378 0.60529655 0.5137113 -0.05326006 -0.3027578 -0.38329858 0.0070710084
197 0.39532885 -0.3882065 0.21449424 0.21093181 0.34919807 0.22035043 -0.141313 0.548212 0.50401056 0.21719784 -0.14769585 -0.33566624 1.0345987 0.46659106 -0.0340844 0.80764914 -0.30949253 0.6468507 0.28331915 -0.51001817 -1.0119333 -0.69285285 -0.24371302 0.036096442 -0.36563244 0.15778732 0.57235193 -0.23078889 -0.16361433 0.48961505 -0.30707783 0.37397227 0.5243895 0.43901095 0.2873075 0.6062027 0.37747413 0.427889 -0.5538259 -0.71002173 0.021796752 -0.50391 0.12544501 0.8512948 0.39060757 -0.32953963 0.3300959 -0.110244945 0.22069645 -0.16307953 0.10846573 0.9807394 -0.24843748 0.8408766 0.22780296 -0.042268325 -0.37184435 0.7385713 0.36205012 -0.038355052 -0.71702605 -0.19123574 -0.29566064 -0.19082423
90 0.25647226 0.5338097 0.27031824 -0.72275674 0.3685791 0.16135874 -0.2095793 0.8880326 0.3348751 -0.48733997 1.1564636 -0.45082012 1.3634554 0.24096005 -0.39222962 -0.17079823 0.27205467 -0.18669446 0.44882414 -0.05014671 0.26362967 -0.76421165 -0.014672595 0.1489576 -0.29597864 0.5760148 -0.16504143 0.020635761 0.08749017 0.55741066 -0.3867402 0.0620712 0.67168766 -0.08878145 -0.07776106 0.4710369 0.51714474 0.13409807 -0.9653993 0.107300974 -0.39825383 0.9278979 0.09349275 0.9025636 -0.24217609 -0.10146838 0.26904383 0.03327011 0.26906607 0.61937505 -0.12260276 0.8280469 0.3195908 0.70821995 0.26469493 0.49999124 -0.17083924 0.1187686 0.90102565 -0.12853023 -0.8875605 -0.3596079 -0.58217055 0.09448726
267 -0.07192783 0.55248576 -0.068071544 -0.435357 0.7415251 0.6260841 0.14301828 1.4212682 -0.7477774 -0.43529 0.9283564 -0.18072592 0.041438907 0.13910232 0.06652956 0.6963539 0.038750317 0.23789597 0.46238214 -0.81974167 -0.6374384 -0.8375966 0.30485708 0.10555439 0.32951018 0.2409115 -0.03870468 -0.31219605 -0.23751153 0.47538733 -0.21447764 0.32411224 0.31731138 0.7347017 0.39567754 -0.33036906 0.66248614 -0.49737716 -0.9590031 -0.53406215 -0.23696949 0.16014366 0.1940871 0.3032398 -0.18413869 -0.45947805 -0.3675622 -0.46376106 0.012618613 0.56586665 0.09479086 0.56785876 0.055117577 0.48700523 0.1159888 -0.5563782 -0.20868671 -0.2836036 0.77566856 0.1138195 -0.073559105 0.2714307 0.18114516 0.15314947
3 -0.16655998 -0.24977276 -0.014818708 0.41809547 0.9800118 0.8998686 0.19020747 -0.07428599 0.2249998 -0.31413025 0.52370715 -0.27218437 0.82103306 0.43243736 -0.83859795 1.1351799 0.13976736 0.26583627 0.7220074 -0.68583685 0.11055234 -0.11307116 0.79315746 0.049431954 -0.64468557 0.54032844 0.20103224 0.14221165 -0.3323987 0.06835015 -0.65023804 0.654237 0.5768868 0.08130396 0.29763156 -0.2247925 0.2534457 0.01331483 -0.6522414 0.38636786 -0.57314503 -0.42866454 -0.108918495 0.48764884 -0.34798235 0.27241084 0.8855595 -0.38231492 0.029342698 0.12876484 0.53126013 1.4302905 0.009783863 0.6134944 -0.12755567 -0.39089432 -0.06851075 -0.023154564 0.7098049 0.72451156 -0.109019615 0.53419393 -0.08896991 -0.40812826
78 0.47781357 0.23983255 0.43250233 0.08939493 1.0933926 0.5065066 0.95876503 1.2300565 0.24335478 0.29908717 1.2158133 0.31983095 0.4374666 -0.09405573 -0.22062154 0.38662818 0.11671371 -0.64117503 0.277556 -0.15903382 -0.50443774 -0.71383727 0.3986718 -0.023864795 -0.4333111 0.130214 0.18807034 0.39153358 0.68601453 -0.1633715 -0.8078409 0.14603642 0.1670459 0.36466572 0.52723545 -0.4230185 0.67734206 0.3573384 -0.61337864 -0.41073588 0.021695282 -0.013431061 0.39700255 0.67658377 -0.054714534 -0.3139813 0.26415035 -0.010756804 0.10839453 0.39037585 -0.44721046 0.43659377 -0.54337656 -0.35336164 0.32317305 0.41373593 -0.29046223 0.4839395 0.5856073 0.957855 -0.9244132 -0.6319565 0.28795147 0.21150582
196 0.1778276 -0.4588879 0.40286684 0.54402083 0.2518018 0.678074 -0.071372226 0.6190152 0.33874366 0.015443736 -0.15708202 -0.3838668 0.95049024 0.53120023 -0.013453597 0.9315371 -0.055072524 0.58046126 0.06273794 -0.2837272 -1.0491984 -0.5228256 -0.05487806 -0.048966713 -0.37827355 0.26197404 0.32535377 -0.16258413 0.07279785 0.43714094 -0.33155933 0.053206425 0.36437646 0.5602652 0.4635422 0.614307 0.4659077 0.37087536 -0.62230504 -0.4701636 -0.29133606 -0.45331368 -0.2435848 0.6083949 0.4484223 -0.38526002 0.40407225 -0.16804247 0.45345825 -0.18064818 -0.04109963 1.261051 -0.2329823 0.8325333 0.22580859 0.033493955 -0.0760839 0.5414787 0.24234244 0.17806418 -0.7587117 -0.074120834 -0.40237617 -0.08969093
112 0.30828214 0.5098469 -0.5281719 -0.60628176 0.055367544 1.0012027 -0.026514048 1.2971286 -0.5034749 0.050944433 0.13161112 0.02890658 0.8861185 -0.7945148 0.27515113 1.1275941 0.77669126 -0.095180236 0.93373 -0.7424809 -0.20803943 -0.006399092 0.43208086 0.255121 -0.31382048 0.19764 0.2615787 0.33820015 -0.30630788 0.6280196 -0.11149567 0.5381604 0.1905174 0.44211924 0.24222262 -0.2700161 0.4824622 0.379363 -0.5055172 -0.03870607 -0.28111622 0.2987336 -0.15923811 -0.03239516 0.07952298 -0.029145889 0.13627951 0.6156153 0.046947848 0.19010428 0.22688888 0.74045473 -0.31396356 0.5588234 -0.15755007 -0.300701 -0.32674792 0.06321899 0.97869575 -0.21485047 -0.30317754 -0.15019439 -0.16261093 -0.31133273
91 0.33684856 0.43674597 0.23980911 -0.5579779 0.052256532 0.04066618 -0.28616282 1.065388 0.19646424 -0.7028954 1.079596 -0.49387625 1.2862339 0.17559032 -0.3079508 -0.06763871 0.21559085 -0.34249538 0.34522483 0.120393515 0.33392474 -0.6060632 -0.12758887 0.07192854 -0.3655095 0.61857885 -0.10921104 0.067068264 -0.15236223 0.09476006 -0.504894 0.20438337 0.5101957 -0.13363466 0.030701205 0.5084281 0.6026322 0.32337955 -1.0036131 0.09388493 -0.09809564 0.6212838 0.09370207 0.839841 -0.0071840542 -0.2717613 0.2748196 -0.043200534 0.31486684 0.538201 -0.29250872 1.003437 0.3287395 0.6773485 0.35943425 0.15002626 -0.51640576 -0.10440473 0.86725795 -0.12655063 -0.7940046 -0.21916291 -0.77945167 0.35760862
23 0.3712218 -0.08934451 -0.18045121 -0.14057395 0.51759917 0.8949829 0.41785073 0.74363506 0.08313082 -0.42587525 0.86305475 -0.57748884 0.59659696 0.39879814 -0.52540797 -0.11095279 -0.6191026 0.095184565 0.055003636 -0.33712822 0.16917157 -0.13933177 0.62183 -0.22209987 -0.18818158 -0.013455913 0.21175085 0.70988333 -0.78333604 -0.013036136 -0.2007319 0.58566767 0.14449865 0.74768627 -0.47789013 -0.22036028 0.1738536 0.25302482 0.25332597 -0.5013836 -0.30536976 0.022565195 -0.06954074 -0.18656284 -0.39995277 -0.2975752 -0.70986605 0.018596264 0.21894783 0.5113101 -0.37379706 0.74088156 -0.33624324 -0.19965011 -0.2975224 0.0028556313 -0.943154 0.8549962 1.0115727 0.38151586 -0.5533044 0.34843224 -0.2642087 -0.30715817
127 0.42663217 -0.12261554 -0.35736164 -0.3440133 0.43367934 0.25119567 0.16821712 0.596636 -0.53309584 -0.81730455 0.22329593 -0.29624283 1.3475636 0.57922965 -0.5930952 0.047278345 0.19251288 0.42387143 0.0016837227 -0.54525614 0.16900834 -0.018315395 0.6246464 0.33254117 -0.012276132 0.5023032 0.10500516 0.20323637 0.07709267 0.17996533 -0.34309277 0.6099216 0.11664714 0.7014934 -0.25113443 -1.1142843 0.17754401 -0.008225199 -0.8074215 -0.5134643 -0.17968637 -0.37609574 0.5836476 -0.23662178 -0.49088585 -0.53241193 0.12619667 -0.278451 0.3799885 0.7008501 0.08407051 0.51805556 -0.8811087 -0.008173708 -0.06809623 -0.14490657 -0.66515946 0.8927203 0.111217275 0.7233692 -1.3422123 -0.19306329 -0.124443494 0.0123853665
126 0.47103938 0.07229855 -0.22897801 -0.2043494 0.28496397 0.32135534 0.0038710989 0.5600839 -0.34793195 -0.74363124 0.1603887 -0.5041107 1.1141751 0.4914264 -0.48249996 0.19277087 0.17908107 0.39367175 -0.026144529 -0.33807155 0.20980325 0.1759882 0.6548233 0.25030628 0.11678662 0.57541215 0.009519799 0.31431833 0.013702542 0.38064656 -0.46538517 0.64201266 0.012702975 0.65688926 -0.030433707 -0.93123066 -0.15445654 0.22092883 -0.5362875 -0.23485874 -0.5580312 -0.104206756 0.3780126 -0.13285594 -0.4570955 -0.36580795 -0.24610965 -0.54316205 0.5030294 0.70889974 0.14831226 0.40632087 -0.8370457 -0.027083535 0.2260051 -0.24500172 -0.8025745 0.9928405 0.18514 0.82605106 -1.1856642 -0.21620606 -0.19103445 0.019291341
60 0.6785137 -0.2944347 0.49418068 -0.38059416 0.3972345 -0.004705455 0.0032152333 0.110508226 0.37329575 -0.115931146 0.19943558 -0.21517704 0.80134946 0.046641994 0.29989836 0.6344105 -0.10694948 -0.40606228 0.14937447 -0.3730454 -0.6058699 -0.7016041 -0.216949 0.0071078017 -0.29703256 0.0046957727 0.6722298 -0.15027612 0.37456003 0.33489802 -0.11117284 0.60416275 0.17325889 0.6837879 0.039567344 0.35803294 0.39773136 0.049233258 -1.1438217 -0.66615427 0.35885435 -0.10348993 -0.6098841 0.62073433 0.10840915 -0.17287381 0.00942442 -0.5122896 0.61319345 0.17298886 -0.17177822 0.5099177 -0.42403892 0.8341919 -0.0013785147 -0.33129692 -0.68487626 0.94169956 1.3012027 -0.06558113 -0.63479525 0.084475614 -0.5033419 -0.05520939
