170 64
0 0.3269102 -0.2667009 0.9292227 -0.27898932 -0.64523655 0.7009339 -0.33327186 -0.733164 -1.1345634 -0.18500195 -0.05684489 0.35985017 -0.62737435 -0.21266793 0.10791017 1.0403029 0.06871328 -0.6648698 -0.5484611 1.4144702 -0.75567126 -0.99954647 0.92911553 0.15862717 0.33343765 -0.46342936 -0.22277123 -0.35832468 1.0765316 0.25070608 -0.5339341 0.044148814 0.02910267 0.13229154 1.1266477 -0.50442 0.43605843 -0.07690289 -0.6082893 1.2342039 0.12308325 -0.18290839 -0.028547835 -0.24381971 -0.16539975 0.49659723 -0.2388507 0.5433681 1.4939752 -0.34530583 0.048846003 0.34390408 0.56473476 0.8992451 -0.75384223 0.61533785 -0.092923015 1.0729997 -1.0304636 -0.45104417 -0.06569806 0.4120506 0.0023235623 0.18089196
98 0.073627144 0.08069978 -0.15478934 -0.2694652 0.0016151194 -0.017334867 -0.24422294 0.29837513 0.23361053 -0.2588665 -0.6598912 0.1007614 -0.35571712 -1.2578883 0.27419856 0.4925217 0.52490103 0.12111298 0.0025862334 0.6381351 -0.5768172 -0.781188 0.6616776 -0.19777039 0.11336554 -0.18826534 0.21838474 0.15944988 0.21281378 0.13686599 0.23071967 -0.36264032 -0.1645477 -0.35235918 0.01704911 -0.3510636 -0.022996873 -0.12981662 0.024587406 -0.09018488 -0.07507481 0.3185821 -0.09583812 0.066281326 0.28276688 0.42356533 0.6145246 -0.143466 0.4539361 0.21928622 -0.015476067 0.6873358 -0.12693986 0.6532534 -0.5460076 0.44415784 0.14190881 0.11715474 -0.7005111 -0.14962052 0.6362459 -0.12352778 0.20516017 -0.26699534
162 -0.053501103 -0.53558916 0.245601 -0.539478 0.25577268 0.58404636 0.3085767 -0.29385933 -0.08235861 0.3336153 -0.2090359 -0.007516404 0.38011664 -0.65112084 0.22951055 0.11703073 0.22756472 -0.15070313 -0.19571489 0.39121664 -0.57083017 -0.48268974 0.2611739 0.0194718 -0.2880545 0.09352902 -0.013367376 0.14375123 -0.06175745 0.02922946 -0.19031473 -0.4034834 0.25307348 -0.2354876 0.12116203 -0.2972444 -0.053588405 0.049074806 -0.41346696 0.096308194 -0.038259383 0.22444758 -0.365553 -0.3825221 0.4783425 0.3279347 0.8391138 -0.17358755 0.41765276 0.1681141 -0.44712517 0.39605597 0.20108338 0.06889217 -0.8419667 -0.457891 0.47574174 0.14379974 0.36156848 -0.5280895 0.18734065 0.5438749 0.043186277 0.28396255
142 -0.6540045 0.3680994 -0.7522038 0.33379602 -0.39624366 0.17251222 0.069617696 0.5469098 0.9814474 -0.7316531 -0.9239327 -0.053202447 -0.25371256 -1.872324 -0.5553592 0.5417605 0.9971644 -0.038786903 0.94881636 1.22411 -0.8763627 -0.9778021 0.7851449 -0.16141312 0.6372145 -0.17187145 0.36914855 0.05463812 0.8069291 -0.032521766 0.39677668 -0.79543555 -0.43185344 -0.8901166 -0.29462063 -0.14457531 0.100940116 0.05949386 0.41654563 -0.40921807 -0.48924023 1.0244236 -0.24036811 -0.075232916 0.40340427 0.6101737 0.8023944 0.62788284 1.0667497 0.8495506 -0.18889856 1.2260704 0.16086055 1.8189793 -0.44917762 0.88004905 -0.16460073 0.11952352 -0.93889165 -0.58325905 1.1282396 -0.16276471 0.6124842 0.18317802
106 0.007611559 -0.30796725 -0.6966775 -0.25131705 0.31746906 0.19007625 0.007212881 0.34804186 0.28141683 0.48510993 -0.032227583 0.18621357 -0.46465924 -1.3410634 -0.10876767 0.39579245 0.58309555 0.38450304 -0.5074247 0.46509078 -0.33133447 -0.58824825 1.0792341 0.058073964 -0.06932946 -0.19349921 0.061241776 -0.43822986 -0.11820823 -0.35012695 0.060188174 -0.12563777 0.24058287 -0.39091662 0.6430355 0.1835436 0.5209397 -0.4785977 -0.4348112 -0.13292913 -0.24700478 0.004956555 -0.57535946 0.06210445 -0.28675053 0.30385464 -0.50958514 0.35937214 0.38875213 0.008092792 -0.47751096 0.030469611 -0.07129192 0.3039775 -0.7715093 0.49714494 0.43507123 -0.29492214 -0.045138635 -0.4846622 0.14151043 0.3629863 -0.15636046 0.32688484
141 0.9707968 -0.23474146 -0.71937215 0.25388953 0.06280016 0.16942641 0.5546008 0.67253846 0.5806657 -0.2603221 -0.8500273 0.20019472 -0.7835788 -0.9932799 -0.41245484 0.47854435 0.3130044 0.16211371 0.26882264 1.0000898 -0.11046468 -0.81683975 1.0142676 0.10118832 0.29935953 -0.0340998 0.118008964 0.3674342 0.933624 0.16463606 0.6693738 -0.3823988 0.28343216 -0.9196287 0.09141698 0.10087059 0.07672697 -0.038149208 0.0859314 0.30642298 0.0732447 0.68791115 0.19049759 -0.5487284 0.01632148 1.610734 0.7489624 0.030570585 0.24838197 0.35967132 -0.307092 1.3174907 -0.28326365 0.87589425 -0.027234921 0.69825053 0.08865457 0.32299513 -0.6861215 -0.13092124 0.7491583 -0.13886489 -0.36467656 -0.43382198
40 0.013333711 -0.3334861 -0.04852474 -0.5632155 0.11622713 0.50388026 0.33378857 -0.23498443 -0.19541295 0.48907408 -0.5195489 0.11125713 0.124445274 -0.7110611 0.057857342 -0.12034664 0.3847548 -0.08173688 -0.08677021 0.34978577 -0.5421467 -0.42616808 0.20834222 0.34998962 -0.3688266 0.21989644 -0.20004709 0.37901002 -0.10062833 0.18867326 -0.10298501 -0.33951342 0.29109535 -0.060935505 0.26835185 -0.8013933 0.09390135 0.06168007 -0.65764016 0.21898971 -0.09632643 0.07088988 -0.5927331 -0.25961125 0.363015 0.5372656 0.7594727 0.10007137 0.093289025 0.25048825 -0.6262933 0.4802336 -0.39721367 0.18242198 -0.98770684 -0.3949671 0.15174372 0.05620875 0.073980235 -0.24194735 -0.17793521 0.43572885 0.1619338 0.18785428
122 0.28992614 0.0055655153 0.32162127 -0.42583635 -0.77216613 -0.32111344 -0.28247842 0.6738046 0.17852852 -0.19704363 -1.1478838 -0.1815183 -0.28095403 -1.2521769 -0.15353316 -0.32513413 0.25825006 0.6450808 0.49334297 0.62478507 -0.14396335 -0.75926054 1.2699529 -0.041076258 0.9533876 0.15676592 0.5544827 0.38931885 0.560898 -0.026951175 -0.57892394 -0.75831515 0.3048992 -0.49431214 0.16456668 -0.11844514 0.3835005 0.3052743 0.09081283 -0.24337304 -0.20470208 0.9770014 0.15128197 0.034915 -0.30723962 0.5082522 0.30687872 -0.08227257 0.77948046 0.36406487 0.09075507 0.098413415 -0.18328957 1.0488514 -0.82663816 0.31177583 0.024309054 0.08673321 -1.0619348 -0.3293525 1.1294243 -0.2211905 -0.07146422 -0.28574958
120 -0.13463253 -0.5686053 -0.4593127 -0.030123493 0.1644441 -0.044199895 -0.14453998 0.24064413 -0.0069168312 -0.6361717 -1.8383648 -0.36956105 -0.36800417 -1.3290037 -0.2300177 0.17242005 0.82246715 -0.5907946 -0.45982262 0.46979252 -0.8630744 -0.3912324 0.47590926 -0.4744738 0.35960948 -0.6009016 0.4117076 0.182218 0.7763229 0.11583788 0.08842109 -0.75809044 0.15354422 -0.9142404 0.43220788 -0.64697593 0.07939925 0.13894565 0.17365249 0.27656344 -0.07781858 0.317948 -0.2770094 0.37981734 0.093108274 0.5032678 0.60762054 0.38404942 0.32705352 -0.004239272 -0.15870503 0.6676641 0.2800067 0.38831246 -0.06556203 0.5421735 0.31746933 -0.28188753 -0.757655 -0.67395735 0.71755093 -0.40341434 0.14049332 0.27381822
144 -0.091323785 -0.03501227 -0.31751516 -0.3852647 0.18965955 0.050136037 -0.011770039 0.47648668 -0.0541947 -0.26256236 -0.68770576 0.115115814 -0.22062588 -1.5644346 0.023911143 0.20213985 0.5677419 -0.0037150187 -0.0053181676 0.6738323 -0.54930574 -0.77775925 0.73192126 -0.16514288 0.27423534 -0.23375587 0.0042948793 0.1449043 0.30236053 0.1462099 -0.027916806 -0.4338418 0.0010891272 0.10173932 -0.038599495 -0.38865292 0.04847781 0.02150943 -0.22778472 -0.06502206 0.051800646 0.452195 -0.059239417 0.073601104 -0.007533706 0.8468723 0.8241824 0.08957947 0.45600423 0.5496802 -0.12007419 0.52471936 0.13113031 0.6702813 -0.13019635 0.2855476 -0.013351524 0.12112356 -0.5081373 -0.20105925 0.62734866 0.12978919 0.012469733 0.025240606
63 -0.948762 0.78198755 1.0850407 1.862048 -0.7573466 -0.13190314 -0.09967179 -0.35520482 1.7303885 0.13064502 -1.0058513 -0.25074184 -0.25137508 0.39853564 0.015384789 0.17884377 0.4419332 -0.7774121 0.4604738 -0.07104149 0.3085321 -0.57480884 0.27488294 1.6447761 1.2985142 -1.074065 0.9479248 0.1637548 0.4448464 0.28595942 -0.67466253 0.7760505 -0.89428186 -0.95241636 -0.31139582 0.3391134 -0.24151418 -0.24708296 -0.46666378 0.72538817 -0.46233633 1.291318 -0.7342885 -0.99322826 0.05134121 0.27992326 -0.03010892 1.2946013 1.7625979 -0.22970827 -0.009552945 0.42267582 0.03043387 0.65281993 0.33822656 -0.17312072 -0.03515494 1.1222683 -0.27663398 0.5254141 0.629222 0.15047687 0.71841705 0.18116824
119 0.4740027 0.15131812 -0.05705671 -0.10215571 0.5553632 -0.0046890853 -0.094978206 -0.4496044 0.1632818 -0.42233875 -0.49100423 0.5518977 -0.05359471 -1.725931 -0.06748581 0.076811224 0.55078745 0.033385184 0.6209098 0.15246241 -0.5211756 -0.7035544 0.5982427 0.10332855 0.44314334 -0.21110332 0.55785793 -0.12326032 0.18629548 -0.13727762 0.19621524 -0.25127837 -0.069590315 -1.1322011 0.405778 -0.4953847 0.15311079 0.004096153 -0.401769 -0.110931724 -0.13086134 0.42186275 0.50429153 0.32204336 -0.2571208 0.2873795 0.5670033 -0.28688008 0.4089959 0.7188916 -0.27481326 0.79328233 0.28017256 0.8318001 -0.07386028 0.41055778 -0.4616706 0.47557744 -0.708327 -0.24569838 0.29719317 -0.040224567 0.6325532 -0.05582109
64 0.6557879 -0.32125267 0.7757443 1.028887 0.029415667 -0.59340936 0.126836 -0.0007222598 1.0582825 0.25349146 -0.6706893 0.15848716 -0.6469793 0.23095654 0.17025329 0.20102242 0.038814556 -0.060324363 -0.6075006 0.45909417 0.51567984 -0.39594787 0.36307895 1.078912 0.62971 -0.9727289 0.51572734 -0.22736157 0.7685668 0.2639506 -0.3020912 0.34926254 -0.39064723 -0.46675214 0.2438137 0.83496004 -0.5705885 -0.36447683 -0.95244944 0.79097223 -0.3153508 0.8031292 -0.90856844 -0.7821243 -0.33677012 0.80268776 0.5790886 1.0864487 1.0863463 -0.26365167 0.3205998 0.5547792 0.46190298 0.26470727 0.43709746 0.09457864 -0.19244601 0.56419164 0.44439402 0.061930057 1.1387501 0.39824587 0.20879152 -0.21196285
61 -0.24643384 -0.11917572 1.3738178 0.9070124 -0.6278962 -0.36640292 -0.42572078 -0.5102931 0.9772474 0.3259009 -0.10857289 -0.10083718 -0.7130358 0.37053394 0.076319166 -0.14167033 0.1692914 -0.83470833 0.020860352 0.13129184 0.07691569 -0.3937099 0.47459698 1.3540475 0.92718124 -1.0187645 0.440659 -0.082728095 -0.03319104 0.00058620836 -0.11371899 -0.14258999 0.7056726 -0.7268511 -0.1880146 0.03414936 -0.33966967 -0.334286 -0.9268582 0.8504951 -0.11746707 1.160084 -0.6761006 -0.061721288 -0.051528044 1.0433413 -0.12482677 0.16898555 0.4692556 -0.34358037 -0.117661856 0.8190358 -0.1555262 0.51086843 0.6598361 0.20420906 0.040931884 0.7481931 -0.51329625 0.49267715 0.32122838 -0.45006767 0.20220853 -0.089227214
93 -0.33988592 -0.74894905 -0.4725437 -0.18947983 0.6621436 0.3544071 -0.055376776 0.1482059 0.06267623 0.03526898 0.005974921 -0.32512498 -0.26593348 -1.2619231 0.04828047 0.54919386 0.7082471 0.11657539 -0.22399378 0.25833097 -0.12644385 -0.8297147 1.2809099 -0.085404284 -0.11157557 -0.005775723 0.18113624 -0.056145016 0.31062418 -0.15328763 0.14226072 -0.18960321 0.53178114 -0.08152109 0.39000118 -0.10860907 0.14097187 -0.38801062 -0.39862168 -0.21173337 -0.27280295 0.12084283 -0.5328267 -0.3611224 0.104149505 0.49521777 -0.68557185 -0.1656925 0.46856213 0.12824534 -0.36102152 0.07723307 -0.14545907 0.64483064 -0.62437767 0.39793032 0.2156176 -0.29391703 -0.59925103 -0.33698288 -0.054133337 0.3897771 -0.06883389 0.35090134
151 -0.26303884 -0.7744745 0.40839827 -0.59037447 0.06287529 0.61775005 0.84292775 -0.14091578 -0.27522922 0.46435773 -0.605784 0.5842117 0.07854663 -0.45680302 0.170997 0.07635927 0.68058145 0.17006017 -0.45488018 0.41033053 0.016340584 -0.06234203 0.7365656 -0.0068465355 -0.092917405 0.044581503 -0.12530537 -0.27528208 -0.13491037 0.4257474 -0.052919447 -0.3756326 -0.10645094 0.1800094 0.0053460556 -0.5433358 -0.029450359 -0.40936887 -0.38511196 -0.08608236 0.21536036 0.22967538 -0.44610482 0.12692156 0.07963502 0.015357102 0.20727733 -0.2161524 0.72174454 0.11048673 -0.20900992 0.58218205 0.044891674 0.29199803 -0.5756201 -0.038462598 0.03709199 -0.21697402 -0.2525573 -0.17101401 -0.38934013 0.60763955 0.08773263 0.031122213
108 -0.2526352 0.030969819 -0.03191615 -0.24944022 -0.0026042303 0.22980177 0.6324158 -0.054387625 -0.24405266 0.13424702 0.047052015 0.1647985 0.26834607 -0.9173968 -0.11611607 0.72496295 0.27209184 -0.017453361 -0.055030175 0.2560052 -0.05884073 -0.36441854 0.59377193 0.33816123 -0.2752528 -0.3051606 0.42295188 -0.3788485 0.10832412 -0.040278845 0.35925373 -0.23835193 0.525168 -0.5432691 0.010851984 -0.96401125 0.51937103 0.007835822 -0.18637042 0.04360017 -0.18097305 -0.30491725 -0.5273019 -0.35814655 0.32018897 0.25776544 0.76056737 0.078623354 0.5185591 0.30934307 -0.2691988 -0.49935845 -0.013821896 0.7268986 -0.852828 -0.30972505 0.90509343 -0.5652469 0.04831444 -0.5808969 -0.80008274 0.20742728 -0.38755023 -0.059324395
22 0.09161699 0.11708497 0.10509201 -0.3057531 0.28457776 0.27770197 -0.18225594 -0.22308826 -0.1748914 0.4763449 -0.15207875 0.028688105 -0.045190997 -0.1494843 0.14619093 0.4252742 -0.10299287 0.29992485 -0.09698215 0.26036718 -0.04586363 0.22271228 0.15401109 0.15370283 0.17660803 -0.2786227 0.14012375 0.32611933 0.49198332 -0.27413014 -0.6355269 -0.24536324 -0.054287314 0.26273832 -0.22144483 -0.33570123 -0.1794592 0.5380836 -0.28063717 -0.023784515 -0.16318773 0.5761905 0.0501684 0.092171416 0.10225333 0.33597285 -0.0010378412 0.13585235 0.25700012 -0.53063494 -0.1582971 0.77456963 -0.3237174 -0.22356084 -1.0567479 -0.3236982 0.58768743 -0.31989998 -0.035738707 -0.4904652 -0.4506223 0.24091083 0.73814356 -0.033413842
71 -0.5161518 0.6883873 0.65354097 0.9815345 -0.5357615 -0.32662657 0.5805235 -0.023104321 0.90801126 0.5539455 -0.84156156 0.22995773 0.28595504 0.05160529 0.1216017 0.004797725 -0.053448536 -0.70896405 -0.43351826 -0.049160138 0.3457492 -0.4991306 -0.05304083 1.2312139 0.48067182 -0.72357976 1.349814 -0.102336444 1.0882019 0.38014027 -0.12125393 -0.12440926 -0.18462771 -0.2930903 -0.49651352 0.20811053 0.42341867 -0.29748103 -0.8797671 0.92232853 -0.07818706 1.1282977 -0.6291458 -0.6197425 -0.053904027 1.101266 0.24308579 -0.24799453 0.8261774 0.039422497 0.49255663 -0.14245534 0.23965624 0.8683415 0.42515248 -0.6134128 0.07948003 0.34699133 -0.58779913 0.0026888787 0.41008145 0.6251076 0.05494901 0.11174706
128 0.3510215 0.59235364 0.16574132 -0.21021236 -0.14619109 -0.36230457 0.06483249 -0.07907242 0.52606064 0.69872683 -0.50582296 0.015202983 -0.04621096 -0.23374157 0.09989587 0.5108605 -0.12975031 -0.8472199 0.23144257 -0.027477413 0.056427304 0.2846187 0.21777059 0.17050031 0.14209843 0.2697869 0.69553095 -0.43256602 0.7525562 -0.2983686 -0.24890396 -0.21480411 -0.08087064 0.17999664 -0.19091035 -0.06242551 -0.40322343 0.646866 -0.2871668 0.25299168 0.3110367 1.2044041 -0.08103633 -0.30607438 0.7530034 0.6590161 -0.8129373 0.99479294 0.32132027 -0.063398086 0.066409886 0.35983765 0.30887994 -0.21593203 -0.95433307 0.050793204 -0.5971 0.28156188 0.2443005 0.3624839 -0.33668044 0.40542778 0.03621348 -0.27197787
13 -0.2563228 -0.43581563 0.19123109 -0.7808142 0.3361463 0.7394407 0.29324752 -0.70235157 -0.16301215 0.20301123 -0.54071355 0.2928035 -0.16152795 -0.9115461 0.58878124 -0.14965956 0.6228549 -0.37193403 -0.43633074 0.19474728 -0.5916145 -0.19370198 0.6957463 -0.14950791 -0.006464297 0.19568269 0.20095168 0.42694902 0.033459317 0.09953205 0.19256188 -0.3752549 -0.04429224 0.3914944 -0.09204052 -0.24999544 0.066777535 0.22331628 -0.27141753 0.16028716 -0.441066 0.65611535 -0.22289506 -0.2886345 0.3456572 0.22741748 0.72508836 0.18008223 0.40464693 0.2021551 -0.13325931 0.18272994 -0.3618306 0.17120042 -0.51622295 -0.675854 0.4761552 0.2742943 0.047567297 0.058115896 0.056525487 0.40295243 -0.0492482 0.11350343
18 0.45146003 0.8347626 -0.2398716 -0.23163925 0.50276405 0.6337685 0.2586653 -0.35099033 0.012884592 -0.001842852 -0.47581226 0.29216656 -0.38620362 -0.105118714 -0.37534797 0.24992059 0.057065565 -0.24250054 -0.05378545 0.49143425 0.14764293 0.23608316 0.35231018 0.037800346 0.6963121 0.35848835 0.41494012 0.027799793 0.39489162 -0.45368806 -0.07541015 -0.45963505 -0.27099794 0.1164569 -0.21759583 -0.52851874 -0.56249243 0.37708545 -0.31855017 0.23652986 0.10357405 0.49855044 -0.61679655 0.1574593 -0.018474566 0.489264 0.08859731 -0.064550914 0.112368904 -0.38539433 -0.1861238 0.4319053 -0.038100068 -0.9034658 -0.9508032 -0.6772998 -0.1604578 -0.058899224 0.18326078 0.01209089 -0.14983074 0.15803577 0.44095802 0.21248718
131 -0.40329632 0.022605238 -0.7634326 -0.24385016 -0.51069814 1.2669777 0.19849202 -0.14829656 0.73548657 0.29221705 0.15375032 0.085898735 0.5513195 -1.1176695 -1.3580198 0.6164227 -0.524922 0.25498506 0.11730619 -0.3014176 -0.03594891 -0.39144933 1.1508621 -0.4777002 0.3666914 -0.7953663 0.47176272 -0.7137242 0.09315542 -0.088973 -0.098730974 0.31904146 0.4031264 -0.7372487 0.27440393 -0.83201426 0.34607998 -0.8474619 -0.40135306 -0.5255654 -0.6191456 0.08471051 -0.7026436 -0.31510895 0.17056532 0.559822 -0.5964387 0.7033805 0.54003716 0.024729747 -0.5697241 0.4621638 -0.31438228 0.07314516 -2.2224288 0.38927057 0.36519712 -0.10316049 -0.3861622 -0.3987961 0.17453109 0.029917493 0.22144815 1.2910413
7 0.036980815 -0.14256366 0.15261261 -0.5411001 -0.1899206 0.4459008 0.51001996 -0.18541795 -0.5363153 0.2762476 -0.21384105 -0.14227982 -0.46615246 -1.2985511 0.3507643 0.11606056 0.6064178 -0.6644762 -0.26467538 0.3103459 -0.9724325 -0.75082314 0.3934285 -0.044610355 -0.41777128 0.17855662 -0.024627415 0.4345899 -0.4034282 -0.15512829 -0.3677375 -0.7816736 -0.14679524 0.10621116 -0.41568205 -0.78542536 -0.32531926 0.22104461 -0.2698858 -0.34278068 -0.0037267548 0.1917268 -0.13147992 -0.28367275 -0.40484428 0.34328967 0.7103708 -0.1431204 0.0510758 0.08780457 -0.0713673 0.62943214 -0.051708344 0.27458352 -0.58960176 0.0039785635 0.43073595 -0.06300381 -0.24093534 0.24810912 -0.09417068 0.4898351 0.051206168 0.30729008
95 0.57797146 -0.31280994 -0.18775244 0.07943231 -0.09896837 0.7776805 0.18315706 -0.0055141156 0.3036344 -0.7475045 -0.10920105 0.35758176 -0.6988026 -1.5679842 0.7808344 0.28600064 0.6515582 0.39404944 -0.70142424 0.5096767 -0.68460625 -0.44952294 0.7879004 -0.16732399 0.06247125 -0.44597483 0.04753549 -0.06419401 0.8236015 -0.43221816 0.4247752 0.43250057 0.37593135 -0.3592443 0.5101344 -0.22186247 -0.69431496 -0.61982584 -0.31898442 -0.36298716 -0.50911015 0.7877683 -0.72399366 -0.54624766 -0.39170232 0.5643118 -0.62295395 -0.26325896 0.8489281 0.41588107 0.46418464 -0.0299497 -0.45988286 0.96643996 -0.53751004 0.19586706 0.3050284 -0.8025962 -0.65973514 -0.92000294 0.51693946 -0.020703923 0.18127547 0.5180961
169 -0.23570746 -0.17897137 0.27975127 -0.7747518 -0.3190132 0.27308515 0.068684034 -0.42114112 -0.2448444 -0.1291788 -0.68966275 0.20773254 -0.41950014 -0.74377805 0.51493615 -0.09324262 0.4663466 -0.28397328 -0.08822017 0.4704629 -0.12897058 -0.16922104 0.70384365 -0.30282173 -0.046643727 0.11121784 -0.60925424 0.4416211 -0.3545366 -0.080718085 -0.46582392 -0.53355896 0.0049468065 -0.063086346 0.095411904 -0.8920885 -0.09292007 -0.3156908 -0.6942125 0.08014868 -0.40940663 0.41484523 -0.35657072 -0.6927023 0.51483524 0.15037161 0.7122367 -0.03952173 -0.13003753 0.14710581 -0.36522397 0.5732838 -0.030508874 0.2224532 -0.38750428 -0.10052157 -0.11238049 -0.12667866 0.5353636 -0.11986029 -0.054729804 0.6563205 0.42770746 0.340024
79 0.72700095 -0.14048871 -0.18631521 0.037870426 0.58809596 0.65710574 -0.25074545 0.2614437 0.37650236 -0.6492282 0.22663721 -0.09468448 -0.5257044 -1.2409966 0.04240017 -0.33788836 1.0667856 0.3270442 -0.279741 1.213843 0.07144222 -1.1800867 0.8098037 -0.6148704 0.8950099 0.103899226 0.40196702 -0.4454096 0.16815318 -0.19848856 0.36588052 -0.27620006 0.047199327 -0.3504541 0.66856396 -0.90478915 0.03752228 -0.71850234 0.24695991 -0.28251326 -0.29874194 -0.060585223 -1.0708923 0.039388373 0.29588613 0.6394128 -0.6156537 -0.050947294 0.7613806 0.22764677 -0.019776661 0.17416185 -0.3715101 0.39889193 -0.46643782 0.21815051 0.98332083 0.016996415 -0.52022815 -0.064092554 0.16495514 0.69066715 0.049394332 0.61942714
130 0.06510602 -0.52580017 -0.17072858 -0.53615546 0.23295857 -0.01404178 -0.21570455 0.21729192 0.5594555 0.4815849 0.39873087 -0.35165262 -0.79992867 -1.050935 -0.30985627 0.69629455 0.08084224 0.24454795 -0.9458044 0.17714576 -0.67348635 -0.41050503 1.1261092 0.13701195 0.19103812 0.11417945 -0.11558257 -0.2971058 0.27734575 0.06514465 0.63521504 -0.33815905 0.6624558 0.13500692 0.110295385 -0.38344547 0.09447112 -1.0230553 -0.67279565 0.1833806 -0.040238876 0.22743933 -0.13960196 -0.22761638 -0.09111566 -0.13351326 -0.51012105 -0.15642577 1.0211979 0.26695433 -1.5641282 -0.22314115 0.089136206 0.5347724 -0.3108279 0.13541251 1.1781771 -0.29221907 -0.7091872 0.108230315 -0.042526558 -0.24015915 0.76554024 0.45573974
150 0.02684725 0.41081676 0.7772404 0.60465586 -0.42441925 -0.61497486 -0.23119155 0.61926275 0.92469287 -0.016232738 -0.41048285 -1.236538 -0.7288268 -0.53012663 -0.2587768 0.4289944 -0.4507331 -0.07397666 0.5407967 0.72534376 -0.6509442 -1.0588001 0.46872887 0.9384943 0.42724788 -0.9721812 0.85560995 1.0064944 0.60998 0.72752655 -0.39525688 0.99187696 0.7446862 -0.30387586 0.29936436 0.07679451 -1.0022869 0.09003255 0.053853765 1.1358633 1.1513402 0.34151044 -0.65846294 -0.75433534 -0.85868233 0.33936605 0.31497112 0.4320492 1.1427827 0.14924963 -0.38495165 0.026123932 0.5435545 -0.47362676 0.34154475 -0.965269 0.23377064 0.25738123 -0.6465918 -0.44909903 -0.03907651 -0.22441432 0.1727788 -0.48286605
109 0.022466652 -0.06683787 -0.23229915 -0.337305 0.28330868 0.73596483 -0.3869957 0.16692564 0.044534944 0.14566325 -0.6988996 0.05514312 -0.26482743 -0.38207456 -0.2404445 0.5052895 0.25353482 -0.28688914 0.2215786 0.0056771813 -0.34062004 0.650038 0.066260606 0.2091596 0.13288693 -0.21859731 0.1382548 0.050922506 0.21380083 -0.5257095 -0.5453773 -0.2151426 -0.27725944 0.21428724 0.12650871 -0.4993961 -0.219149 0.056879207 -0.13347402 0.82860714 0.017582927 0.5444565 -0.560238 0.31061772 0.6330275 0.4236943 0.18080068 0.34785786 0.16115865 -0.21217348 -0.09296009 0.44873857 0.38930497 -0.53032446 -0.6233762 -0.5500107 0.14326829 -0.5087147 -0.13213944 0.011263641 -0.6282361 0.52361 0.17549026 0.09476258
34 0.44323224 0.69828963 0.066940986 -0.030890614 0.40657297 -0.4361122 0.19250949 -0.19318232 0.28451106 0.37130055 0.0029049497 -0.5331758 -0.3734987 -0.24937516 0.12915452 0.557038 0.459817 -0.99907464 0.21145765 0.2472713 0.13692129 0.46206737 0.8680792 0.34680912 0.49467993 -0.54998416 -0.1566464 0.4804603 -0.020825349 -0.080827035 -0.1318919 -0.41211504 -0.12147871 -0.26479262 0.2918758 0.5585595 -0.23832259 0.09518789 0.13277942 0.62787867 0.12044812 1.1854595 0.1049459 0.16002841 0.0027816507 0.6152093 -0.63209945 1.3643928 0.57603484 -0.16974406 -0.08385502 0.60459167 0.66130376 -0.14153539 -0.90830815 -1.0538664 -0.57171506 -0.22232455 0.01602928 -0.6523469 -0.59594935 0.4995695 -0.6499151 -0.25488463
92 -0.7469133 -0.5773622 0.053662375 -0.3944303 -0.16879202 0.6689132 0.041193344 -0.075505935 0.3712344 0.41224882 0.05240032 0.4119112 -0.83168805 -0.6490911 -0.181592 0.48347622 -0.41919705 0.40670508 -0.17767927 0.28553197 -0.123634376 -0.39204544 0.522738 0.19806035 -0.2519685 0.083141096 0.62280273 0.20373625 0.31223845 0.05505881 0.11778514 -0.53240013 -0.32260898 0.39816657 0.21131545 -0.5803203 0.2846681 -0.6214136 -0.38626775 0.19480006 0.2715517 -0.2627239 -0.07869487 0.1697996 -0.11464001 0.37722236 0.16063851 -0.016420664 0.15587057 -0.023376236 -0.6895857 0.3623282 -0.20128824 0.3280633 -0.4452444 -0.13730466 0.39583573 -0.2019968 0.08467804 -0.7164214 -0.21790223 0.45775118 0.24568857 0.7581707
41 -0.43503296 -0.51828426 0.10704396 -1.0017142 0.046915274 0.7026473 0.18902667 -0.401049 -0.18804999 0.22673912 -0.83624476 -0.042466674 -0.43847287 -1.1959814 0.6467872 -0.11542406 0.47857803 0.062507875 -0.21164459 -0.1301698 0.07030394 -0.8085875 0.7759858 -0.24558263 0.12650256 0.017984116 -0.79723376 0.7198168 0.30810857 0.16240309 -0.037307218 -0.004691048 -0.40592927 -0.06898075 0.20383884 -0.42267904 -0.6334906 0.04659116 -0.19046184 0.45584586 -0.5197164 0.19252902 -0.1372519 -0.20280635 0.13045192 0.019860333 0.64236003 0.099587634 0.5865883 -0.055836387 0.082593046 0.15297852 -0.09290639 0.14838341 -0.45791367 -0.68488526 -0.05515353 -0.058518294 0.66978115 0.4986204 -0.13414387 0.6371444 0.57842886 0.16498557
80 0.53293115 -0.82989204 0.018233523 -0.361299 0.6949173 0.33359098 -0.13560066 0.30059 -0.46265242 -0.06363243 -0.16994265 -0.04127548 -0.6644371 -1.4366755 -0.40312874 0.9259516 0.29849377 0.5058244 -0.54025996 -0.15090255 -0.36375466 -0.95218545 1.0171262 0.005161883 -0.0400244 -0.17424011 0.15341847 -0.2538114 -0.1495778 0.16922791 0.3745337 0.1294636 0.07377519 0.15123497 0.8850847 -0.69790995 0.5712339 -0.6973901 0.78762084 -0.43195307 -0.78001064 0.5004099 -0.6726821 -0.8547712 0.14720568 0.34824315 -0.20936066 0.16380544 0.60251784 0.51544833 0.57434386 0.65062827 0.15283 0.85020554 -0.6843947 0.23447639 0.3200506 -0.3095593 -0.5749667 -0.12637463 0.39805803 0.2802613 0.13985918 0.8644966
37 -0.4233612 -0.78456193 -0.5410237 -0.30332935 0.24164987 0.2142382 0.2333851 1.045403 0.40074176 0.460219 0.6933259 -0.498914 -0.038274202 -1.1153568 -0.038919903 0.6605487 -0.23244853 -0.08378051 -0.50380117 0.97653455 -0.3066119 0.33891854 1.1705319 0.19563715 -0.05264037 0.30692875 0.44182214 -0.8652787 0.9499054 -0.28818497 0.10126831 -0.11137108 -0.32354495 -0.19611548 0.6038769 -0.7325752 0.26957694 -0.71026653 -0.50327855 -0.16650735 -0.6453447 0.026686665 -0.21450514 -0.07506489 -0.1857156 -0.20768718 -0.34630457 0.48018596 -0.02400907 0.17517258 -0.44881526 0.24355468 -0.78531617 0.14038104 -0.4487576 0.06949069 0.21675047 0.16494471 -0.36081123 -0.38931686 0.35005337 0.23230252 0.29743233 0.1633476
53 0.024576288 0.2886742 0.11990074 0.66029 -0.86713445 -0.93710214 -0.26567712 0.5612897 0.35683867 -0.1002902 -0.43305752 -0.62788856 -0.7643619 -0.5186029 -0.10013813 0.25030473 -0.044595495 0.13394025 0.46594474 0.9930347 -0.06997652 -0.014201513 0.36413345 0.8327701 0.9049765 -1.3024644 1.4589779 0.9336581 0.45649153 -0.12862565 -0.6430416 0.3051899 0.44291604 -0.22313738 0.07815887 -0.96725047 -0.63769376 -0.30703458 -0.7168883 0.22274333 0.09869115 0.2959697 -0.5890655 -1.1899035 -0.47265372 0.06256264 0.34308684 0.53647125 0.5786433 -0.16177864 0.10745524 0.4028966 0.21493754 -0.9064494 0.86935395 -0.15257758 0.5464451 1.2819573 -0.7539668 -0.52777725 -0.18054193 0.62779737 0.022507576 -0.1419867
155 0.60139555 0.2528006 -0.21768074 -0.1909372 0.3711223 -0.27796808 0.0014974207 0.6034779 0.47505614 0.8418883 0.005901383 -0.5474957 0.15328963 0.01972297 -0.058481626 0.06121391 0.61909217 -0.8233124 0.19790807 0.7094691 -0.07105377 0.2723988 0.8269147 -0.26678866 0.893394 -0.4258936 0.33914727 0.19309987 0.55245394 -0.7870004 -0.16782868 0.14986129 -0.42866272 -0.07711311 -0.058861844 -0.4998368 -0.17305563 0.37134984 -0.4078155 0.64978683 0.07202643 0.88630265 0.717018 -0.28506142 0.33726552 0.552342 -0.45744696 1.3130074 0.97361094 0.40772054 -0.5211885 0.40476492 0.21541172 -0.5733201 -0.0042741997 -0.5565434 -0.10956691 -0.0010097099 0.07008486 0.2198088 -0.7649604 1.2944891 -0.19581495 -0.22634518
45 -0.36081597 -0.9068556 -0.36726215 -0.65273726 0.4941607 0.72516 0.38829365 0.23763253 0.40866965 0.49133673 0.4194734 -0.51583403 0.061524928 -1.3785156 0.3447247 -0.2658967 -0.75991493 -0.3619965 -0.7313305 0.76501155 -0.33342883 -0.6151704 1.2770076 0.91483706 0.6306369 0.12798464 -0.5974429 -0.3437912 -0.22270273 -0.20948975 0.26505825 -0.4534701 0.564869 -0.21735553 0.32997358 -0.9795359 0.022238385 0.11563791 0.37342536 0.6294443 0.17082423 1.0352848 0.056802336 -0.20738663 0.41353297 0.10377599 -0.51476115 0.118832186 0.64485407 0.4592729 -0.47607222 -0.033780117 -0.30632383 0.19598739 0.09837771 0.9652678 0.15803778 -0.45592713 -0.5813871 -0.27654675 0.013106677 0.12428297 0.3648694 0.10257425
153 1.1789294 0.31860298 0.27404553 0.331552 0.11603 -0.19418992 0.031219056 -0.04228934 -0.033625856 0.44723356 -1.0764755 0.1762488 -0.34028843 -0.17843185 -0.07575313 0.5810297 -0.01492982 -0.32033235 -0.364537 -0.11419037 0.4565372 -0.07208995 0.30065772 0.0047816904 -0.16495706 0.09255599 0.4063589 -0.06750356 -0.24356587 0.17577007 -0.7806411 0.4223961 -0.50565577 0.40594074 0.0063809636 -1.0346775 -0.4359948 0.79240894 -0.12590346 0.17313518 -0.12066166 1.3369745 0.32036036 -0.05860819 0.35188663 0.093432315 -0.09266145 0.649048 0.26163524 -0.15940529 -0.27341315 0.52635837 0.34971628 -0.3484764 -0.9493161 -0.8010915 -0.17118488 0.5361831 0.011410975 -0.010403093 0.09984626 -0.20421037 0.076538935 0.52194506
136 -0.28661716 0.5788301 -0.11018956 0.20125782 -0.1989617 0.79738635 0.43094373 -0.60827273 1.1652228 0.06964908 0.4277043 0.50954795 -0.4359874 0.7366128 -0.0016757613 1.5441381 -1.1616304 -0.26744717 1.36521 -0.9143035 -1.167542 0.17981124 0.05135908 0.15179028 0.9528491 0.47430027 0.6789518 -1.3933377 0.8643685 -0.07456318 -0.524267 -0.118836574 -0.8755091 -1.0675066 0.35869756 -1.6113924 -0.4135222 -0.9633693 0.5285092 -0.50953084 -0.015845131 0.030822957 -0.40275326 -0.25671223 -0.6867804 -0.60784185 0.45569625 1.7449294 0.987608 -0.04055228 -1.3305361 0.6433977 -0.57319933 0.22875535 -2.0604262 -0.3567159 0.5681793 -0.4826646 -0.32471922 -0.034823928 -0.4191592 0.48954308 0.57698435 0.70705813
55 0.7153542 0.7931202 0.80008566 0.13493936 -0.7008609 0.39308792 -0.5185355 0.24161233 0.11238511 -0.4849542 -0.49541909 -0.8228711 -0.7387239 -0.1443674 0.46647814 0.25381863 0.2666925 -0.2990792 0.5111331 0.4143829 0.29375675 -1.1929913 0.2738021 1.2768539 0.43354765 -0.44157615 1.8312296 0.44648233 0.25325415 -0.14481004 -0.44462422 0.4393396 0.3245073 0.21564132 -0.14254604 -0.7749803 -0.1138503 -0.22742322 0.12580206 0.58413833 0.704248 0.62772197 -1.2372177 -0.5755454 -0.5222385 -0.064399205 0.5182748 0.8972638 0.704719 0.37237385 0.49236554 0.5158586 0.8792124 -0.9939889 0.32120356 -0.30719873 0.31456846 0.36476988 -0.6716418 -0.21129236 0.2756506 -0.15457265 0.047902845 -0.49644208
5 0.11614712 0.40527716 0.035972193 -0.1089277 0.3684279 0.112993345 -0.039838262 0.2454091 -0.5314683 -0.033101548 -0.8078275 0.30202767 -0.66382784 -0.35246015 -0.30563936 0.6439712 -0.42251214 -0.09790661 0.6179293 0.34644893 0.098444104 0.34681863 0.19029498 -0.32989568 -0.22389944 0.35353762 0.1234124 -0.3056999 0.12558076 -0.598582 -0.088559434 0.32875228 0.058504928 0.41868183 0.25399804 -0.57075465 -0.031784356 0.33185107 -0.25378323 0.32033047 0.47969693 1.5573653 -0.49705246 -0.04933684 -0.1384506 0.75179756 0.1679313 0.16868013 0.35786316 -0.58266807 0.13990912 1.0252061 -0.40920064 -0.3418947 -0.87678653 -0.8519814 0.39433482 0.031582285 0.41284162 0.14368537 -0.27803227 0.32108554 0.47268102 0.1328083
30 0.24426515 -0.0031696388 0.12648718 -0.20756128 0.70149714 0.4181469 0.012544984 -0.5281181 -0.3340497 0.44797873 -0.19286448 0.56752205 -0.23436536 -0.5799643 -0.36255327 0.43534917 -0.35457566 -0.059660915 0.60425127 -0.6282572 0.09265975 -0.06527737 0.28840503 0.38702947 0.039170723 -0.27950355 0.33743727 -0.6844807 0.47282225 -0.43096814 -0.60273504 -0.022299575 -0.21648617 -0.1050289 0.3020913 -0.14596029 -0.06567009 -0.26782802 -0.61366785 0.12583618 0.37458566 0.3834323 -0.18503238 0.46203443 0.28639048 -0.0366415 0.25037816 -0.040625498 0.06755274 0.009917748 -0.71272707 0.5355216 -0.26743624 -0.4263961 -0.5544131 -0.12649126 0.2727004 -0.10048943 -0.5511058 -0.89015865 -0.8380265 0.38289136 0.6520001 0.12203512
167 -0.24203022 0.06325835 0.32805613 0.045045417 0.38066804 -0.12974879 -0.17964703 -0.4257386 0.21711951 -0.16006641 -0.44125172 -0.7943885 -0.05862924 -0.084220864 0.1770096 0.6707489 0.29114977 -0.5994841 0.16662449 0.053301748 0.12045739 -0.14592554 0.036538944 0.40787128 -0.056586914 0.18698983 0.38950425 0.008585936 0.15211943 0.7154891 -0.95503515 0.22333571 -0.5436654 0.6580882 0.07928764 -0.88999814 -0.493634 0.052749746 -0.12004448 -0.18405528 -0.034402896 0.49304545 0.13446133 -0.50879997 0.69300455 0.49879932 -0.45458376 0.67478377 0.63213027 0.37726146 0.30029282 0.58289546 0.08180367 -0.6050897 -0.6556298 -0.75949234 -0.4140252 0.4577373 -0.34489706 0.17546587 0.08135884 0.54820603 0.2063907 -0.21356127
146 -0.10988756 -0.96592635 0.31224886 -0.6127539 -0.14998329 0.6777074 0.014153174 0.46509397 0.19270264 0.20217632 0.13181229 0.46196556 -0.37615323 -0.17768307 0.26354054 -0.04834661 -0.27636403 0.046755105 0.15596104 -0.25931603 -0.8774861 -0.92876077 0.97863173 0.09529952 -0.35760313 -0.05310322 0.5259569 -0.33842108 0.1833643 0.036553107 -0.054160647 -0.6277871 0.35462976 -0.33398014 0.37442046 -1.2584338 0.3880854 0.088950194 -0.72334826 0.15688126 -0.28844982 0.23500915 -0.8868477 0.31552964 -0.013097211 0.31425014 0.31131825 -0.021496546 0.42215526 0.27510273 -0.6732514 0.14316478 0.08836545 0.21844383 -0.8593811 -0.072706476 0.16859914 -0.343175 0.115815766 -0.47277603 -0.09491274 -0.17589976 -0.31595397 0.017168697
134 -0.13721056 0.12063786 -0.32588258 0.15114063 0.5680635 0.09583932 0.5261079 -0.22621319 0.6404623 0.3229995 -0.24844408 0.56050354 -0.8109334 0.7059944 0.69467634 1.5429777 -0.15937276 -0.07174254 0.09255133 -0.79830664 -1.2422599 0.27864748 0.4629065 0.62154895 0.20088764 0.25085726 0.27523604 -0.80504346 0.7903058 -0.2056416 -0.9399755 -0.25375497 -0.27063087 -0.67216307 0.7726164 -0.6007782 -0.228895 -0.62669367 -0.43728423 -0.31679448 0.10317302 -0.039703164 -0.44249797 -0.35119155 -1.4625266 0.18284738 0.11205368 1.4972736 0.71793556 0.16798316 -1.0255282 -0.123994514 -0.35205874 0.21202798 -0.87397397 -0.26902512 -0.008538888 -0.687612 0.32707742 -0.73839897 0.18892308 0.8971486 -0.28864783 0.4244966
160 1.3564065 0.17785662 0.33683482 -0.6170766 0.0147348475 -0.23103291 0.09041476 -0.34399453 0.36402372 0.69562966 0.07639784 -1.3167355 -1.0518007 -0.503507 -0.17760754 -0.054283977 0.31462523 -0.68979216 0.25800472 0.2578977 0.24117726 0.67142266 0.22604741 0.1385347 0.54618967 -0.4061916 0.7110741 0.023522073 0.6071874 -0.32782638 -0.20003518 0.3964219 0.035854664 0.21684034 -0.13171735 -0.34217992 0.26483616 -0.07141175 0.04785325 0.82181966 -0.6383487 0.5446196 -0.2357039 -0.14055231 0.6334991 1.0007304 -0.33805877 1.017518 0.84129906 0.3599701 0.28225043 0.48810944 0.6578589 -0.44236568 -0.61171246 -0.36153233 -0.06497878 -0.48068827 0.2545039 -0.117518745 -0.47923 1.2225885 -0.23958671 -0.40688285
66 0.21906362 0.42258236 0.31807837 0.33763862 -0.27490216 -0.1478454 -0.30426466 -0.15891424 -0.019760802 0.48705545 -0.83488417 -0.70750004 -0.8110152 -0.78864783 -0.32205486 -0.18069139 0.17974053 0.4064488 0.6870586 0.35874307 -0.75925785 -1.2564054 -0.24478298 0.69378877 0.44326794 -1.0619607 1.2002696 0.070578404 0.06966825 0.15238382 -0.4575545 0.44906047 -0.45057854 0.55758363 0.15610917 -0.27258125 -1.0023125 -0.6111798 -0.40860546 0.65829635 0.3800071 1.1073879 -0.9468981 -0.31978607 -0.8597655 0.38492465 -0.040987242 0.773601 0.62172914 -0.13956237 0.8027337 0.604008 -0.04136395 -0.7551522 0.45737755 -0.50996614 -0.5733597 0.811205 -0.85262126 0.101973884 -0.703424 0.29697108 -0.24549064 -0.15301782
44 -0.4136635 -0.4943369 0.36926317 -0.38499975 0.2914078 0.465031 0.13179773 -0.78136426 0.48650295 0.14088862 -0.7388981 0.8669609 -0.5480773 -0.5404294 0.38625905 -0.042375658 0.22262679 -0.36082965 -0.80700856 0.2748431 -0.41818568 -0.39774323 0.79484195 -0.13860206 -0.12656488 0.24207157 -0.6670263 0.30482295 -0.031533603 -0.11697323 -0.55862904 -0.4072694 0.12282281 0.24657227 0.2554114 -0.5163332 0.00968813 -0.1923509 -0.23348287 -0.2146286 -0.16607393 0.17479852 0.054157194 -0.03660801 0.5618064 0.44137073 -0.060881335 0.36250442 0.657467 0.35893443 0.34401262 0.12289639 -0.09261144 0.14646178 -0.6027051 -0.62777406 0.33272576 -0.16357052 -0.029169356 0.48523688 0.09999829 0.62865615 0.6811707 -0.3533041
10 0.41357204 1.7707684 0.110079825 0.008618319 -0.543158 -0.034164272 1.1116538 -0.39741525 0.62760687 -0.38376117 -0.10553818 -0.70814747 -0.2739761 -0.2174366 -1.8154324 -0.48724744 0.18896249 -0.9325212 1.9269474 0.7852781 -0.51357543 0.7703582 -0.08846189 0.6590049 0.945864 0.39945564 0.7153363 -0.45376742 0.22655992 -0.83675313 -0.84172803 0.3977819 -0.50528705 -0.5225478 0.33687654 -0.1715843 -0.19632411 0.023087364 1.1860732 0.5801568 -0.29702696 1.8694953 0.23532258 -0.2024806 0.91130006 -0.74799716 -0.5810485 1.8645536 1.2197503 0.58896977 -0.38028893 0.7638536 -0.3498497 -0.5528971 -1.0746491 0.45664167 -0.06853526 0.29508948 0.4461491 0.26897538 -0.70275784 0.9162738 0.65337354 -0.4206617
85 -0.70192766 -0.43421978 0.5177063 0.001827528 0.27605566 0.72860336 0.22182961 -0.10300289 0.4621284 -0.014365032 0.8158095 -0.2877137 -0.99171215 -0.4063742 -0.13665155 0.29409453 -0.13120258 0.289089 -0.09760529 0.3461788 -0.637475 -0.5721018 0.8906525 0.7610832 -0.43436056 -0.3314879 -0.3470266 -0.38179904 -0.15310267 0.10750444 0.1717728 -0.95287406 0.52084917 -0.31903335 0.35634542 -0.9169966 -0.06568788 -0.9353031 0.17559262 0.38599223 -0.16922323 0.21110277 -0.109219626 0.7139303 -0.50832844 0.31297657 -0.12436893 0.38851127 0.10304111 0.14161226 -0.7480615 0.46400446 -0.46487796 0.5316907 -0.9855391 -0.5116182 0.21606992 0.14869772 0.0015799666 -0.9605092 -0.021627277 -0.4233857 -0.4032523 0.18649884
132 0.08081541 0.21676518 0.18156055 0.15718009 0.6310231 0.26262292 0.22684425 0.05439156 0.76724833 0.50462884 0.70392704 0.001615578 -0.5421472 0.701103 0.5713833 0.7161093 -0.18999465 0.41382638 0.6957632 0.021839077 -0.68390363 -0.3558157 0.49724644 -0.22862871 0.7425419 0.23516846 0.43185803 -0.76525277 0.33957845 -0.2828542 -0.84685314 -0.08555263 -0.12287737 -0.5013907 0.39699367 -1.4607357 -0.27336067 -0.61279106 -0.36309016 -0.021813914 0.15013175 -0.51368487 -0.09773913 0.42165813 -0.5265002 0.23583746 0.22508326 1.4574442 0.78434694 0.33387014 -1.1493971 0.33809784 -0.5732299 0.3645718 -0.3800402 -0.28541607 0.8763359 0.14984468 0.1586126 0.58711106 -0.20828143 1.2532622 -0.16543709 0.74766517
117 -0.19414464 -0.7199793 0.134163 -0.9527543 0.07005338 0.7165472 0.10823496 -0.24139912 -0.52663517 0.5217002 -0.12612827 0.0040755463 -0.4351458 -0.74133784 0.099582784 0.07826072 0.42965007 -0.19835413 -0.25070092 0.054506842 -0.19786091 0.11316622 0.34122655 0.09329768 -0.0060287444 -0.19088565 0.25348026 0.71736467 -0.12661906 -0.44453168 -0.027321666 -0.22658823 0.25647974 -0.034949064 0.25486457 -0.76807284 0.059072528 -0.043666754 -0.26723483 0.06940998 0.1531509 1.0116428 -0.23169957 -0.3608031 0.39720514 0.3300485 0.838277 0.13963172 0.12236749 -0.20285776 -0.4715075 -0.43906856 0.14894845 -0.07830204 -0.9926138 -0.82034844 0.23410194 0.1700755 -0.7137761 0.10160859 0.304602 1.0669758 -0.027900653 -0.08289995
67 -0.19930947 -0.07599907 0.43385094 0.35265929 -0.40164268 0.17023028 -0.031116474 -0.08874168 -0.028604537 -0.19646268 -0.58386254 -0.6381878 -0.55652076 -0.5994104 -0.3995713 0.51502717 -0.45672214 -0.35976613 0.10700204 -0.07375409 -0.678324 -0.75927955 0.11438652 1.097335 0.87317383 -0.8175158 1.1774226 0.38493288 0.12719977 0.045641486 -0.29287386 0.080619425 0.17916328 1.2051407 0.15646951 -0.7436369 -0.4158771 -0.2487401 -0.13364686 0.9413439 -0.19489922 1.2959118 -0.2746491 -1.1999512 -0.2621017 0.13673653 -0.36770642 0.72583234 0.9090488 0.24726418 0.123083636 0.6774491 0.5870652 -1.0264096 0.94675475 -0.5777462 -0.7279729 0.28519508 0.07393489 -0.92480826 0.36884457 0.20443095 0.6823409 0.029842902
158 -0.21866605 -0.23617269 -0.77572155 0.091550544 0.25461727 0.6633678 0.3991663 0.002913392 -0.068036675 0.982068 0.021915412 0.52051806 -0.90192884 -0.2519105 -0.57468396 0.4074446 0.3476821 -0.18865152 -0.062991634 -0.0635197 0.35096243 -0.9402131 0.19166863 -0.20902015 0.2516514 0.8029244 -0.27676916 -0.34722355 0.048574116 -0.009268842 -0.62411785 -0.5121274 0.50400823 -0.05698411 -0.30680293 -0.37481543 0.14138077 0.06912629 -0.72190225 0.71441996 -0.024885513 0.3818589 -0.33203053 0.0700018 0.16846423 -0.6042726 0.2831464 -0.076531656 0.687363 0.02334352 0.68061644 1.0809879 -0.5050121 0.19835299 -0.36942843 -0.39211923 0.31521973 -0.71511585 -0.87284523 -0.9553969 0.21134365 0.8106657 0.76370674 0.08713626
152 -0.3987453 -0.52184916 0.4923097 -0.54037607 0.041376334 0.55567783 -0.14415714 -0.034780897 0.17779133 0.22592705 -0.27185777 0.35103965 0.37672666 -0.5246167 0.49123064 0.025856307 0.19810438 -0.12896594 -0.79926074 0.32932228 -0.4695002 -0.10612527 0.29438013 -0.1038667 -0.31980205 0.20560497 0.074941166 0.2509534 -0.23237516 0.26481628 0.42333847 -0.52376014 0.148969 0.04240259 0.6799345 -0.18023203 0.113919154 -0.444362 -0.48026964 0.42223585 -0.1275033 0.30078152 -0.34719136 -0.2213698 -0.21686888 0.62595636 0.76268643 -0.27957866 0.55080885 0.39502656 -0.31410608 0.8442114 -0.25167453 -0.2700998 -1.1428217 -0.46322674 0.3019446 0.16067211 0.009707168 0.06842533 -0.30161476 1.030632 -0.07908012 0.18307802
58 -0.22160208 0.4013291 0.11480442 0.39360276 -0.25330478 -0.34953544 0.30876574 -0.00902876 0.20419058 -0.0030771745 -0.7742106 -0.5721888 -0.38173345 0.21922077 -0.4908227 -0.03625955 -0.12175311 0.021529425 0.030153584 0.38192195 -0.49792218 -0.6885129 0.4923736 0.8201274 0.50088024 -1.0438613 0.8866584 0.12287243 0.14243415 0.27610344 -0.39316732 0.8123187 -0.03227929 0.68007135 0.14701979 -0.91752505 -0.461401 -0.7940308 -0.6294742 0.98133856 -0.37331218 1.1879898 -0.62749845 -0.8828347 0.7034031 0.0070014736 0.50256157 0.9960034 0.6097648 0.063851014 0.47924915 0.34737608 0.39030877 -1.0062271 -0.11781131 -0.33598775 -0.33697686 -0.32793412 -0.7379232 -0.2724924 -0.42225465 -0.41670746 0.19741963 -1.5171925
29 -0.09584748 -0.33385783 -0.25035667 -0.76888067 0.15774865 0.8741837 0.28674948 0.22752243 0.110838555 0.20599243 0.18150851 -0.25699222 -0.9404302 0.3606518 -0.44495952 0.7855195 -0.60666203 0.42799935 0.06598958 0.03011442 -0.032362178 -0.08529462 0.22593299 0.3569215 0.082649164 -0.0063374215 1.0345001 -0.32057 0.6370121 0.49248996 -0.77004045 -0.43275815 -0.5241213 -0.5353007 0.259042 -0.2283749 0.6138553 -0.36729634 -0.46023536 0.4270292 0.7091692 0.6772014 -0.3589035 0.3272981 -0.3323994 0.13869327 -0.036519136 -0.044940323 -0.28317386 0.5015858 -0.575238 0.5951099 0.23421799 0.08253532 -0.71852505 -0.11854658 0.83570653 -0.5438654 -0.15772846 -0.31153172 -1.2304164 -0.21891646 0.1709684 -0.03794597
39 0.18498045 0.23869604 0.31523398 -0.69172966 0.40717995 0.9736067 0.048243154 -0.49170533 -0.025817608 0.5210329 -0.1688708 -0.08031792 -0.25619692 0.02620932 -0.51446646 0.38324878 -0.06967932 -0.017992418 -0.36523438 -0.34844294 -0.09735455 -0.046708073 0.5504934 0.4682454 0.055686582 -0.7473767 0.5215484 0.30077434 0.1974768 0.17235965 -0.7984529 -0.032128487 0.10094598 0.39459467 0.012081341 -0.5775986 -0.56504345 0.17909513 -0.44697064 -0.07044761 -0.092799805 0.9428613 0.5610237 -0.37993655 0.29966474 0.8023046 0.22754799 0.6030101 0.24174754 0.42664713 0.16168943 0.38598022 0.25468093 -0.454686 -0.59445757 -0.5058308 -0.2623332 -0.25963274 -0.14450693 0.24434677 -0.38419297 0.42797157 -0.33501467 0.053864166
166 -0.24226822 1.1601716 0.18035668 0.19669022 -0.6749161 0.87958497 0.57386893 -0.2498744 0.5396766 -0.3048186 0.9342931 -0.38423064 -0.05812736 -0.5337571 -1.2520223 1.2861768 -0.9444729 -0.7386741 0.86836886 -0.6307423 0.22931375 0.011020102 0.52285117 0.14318523 0.64444494 1.1955159 0.6747935 0.14157964 0.17980428 0.4448217 -0.8462891 0.10965053 -1.7864145 -1.3855746 0.9610398 -0.2508031 0.13315059 -0.54648614 -0.27905533 -0.67026323 0.50291705 0.78190947 -0.6687462 0.0288851 0.49715954 -0.2879273 0.20463976 1.6647197 1.4534639 -0.64177626 -0.10154843 0.2541468 -0.49212506 -0.93473065 -1.5101899 1.3241478 0.9927539 -0.22424576 -0.5698506 -0.24870415 -1.5709704 -0.35108882 1.4035935 1.1616215
36 0.049803 -0.2932668 -0.37961707 0.15578243 -0.26495218 0.5588797 1.3633054 -0.46947223 0.5210868 -0.0110168485 -0.4080972 -0.39461124 -0.53070635 -0.17747328 -0.1655221 0.3813071 0.19938849 0.6266358 -0.1586648 -0.20468748 0.18288752 -0.9046939 0.55380875 0.4041083 -0.03476745 0.27393582 -0.646452 -0.5811009 0.5263963 -0.91164106 -0.58581686 -0.41490307 -0.027392223 0.69995344 0.6631017 -0.29996392 0.8231682 0.43555635 -0.48693964 -0.074633665 0.29795125 0.3623427 -0.3007481 0.087813675 0.36836854 -0.2926758 0.4848958 -0.2627432 0.44663846 -0.4496314 -0.2125227 1.2023305 -0.07451091 -0.22938074 -0.36504653 -0.40615776 0.3466148 -0.6212349 -1.1439073 -0.32252982 -0.24450767 0.72546923 0.6118402 0.16987348
14 -0.19510685 -0.2847093 0.4301849 -0.7020938 0.34223008 0.5071343 0.0055331853 -0.16173673 0.3608036 0.49957153 -0.09943239 -0.10006118 -0.42682838 -0.4263982 -0.1685784 0.13076504 0.35695395 -0.21320985 -0.4478279 0.07458528 0.23594077 0.11093731 0.083337456 -0.20528042 0.14750226 -0.4928368 0.057211846 -0.4231945 0.13565636 0.07800929 -1.1959217 -0.12078045 0.3062624 0.30561742 0.5957669 -0.3774674 -0.2852516 0.57879233 -0.08329457 0.061404686 0.3515015 0.20836107 0.31880626 -0.3572032 0.32580158 0.46468377 0.3232977 0.4722231 0.17730498 -0.38619423 -0.23536457 0.30410463 -0.2800985 -0.17815907 -0.72748786 -0.33751893 -0.049272228 -0.3675232 -0.30732268 -0.32597557 -0.32307836 0.35244787 0.77534705 -0.3798165
148 -0.07699924 -0.41407856 -0.29501122 -0.79750395 0.31744978 0.377249 0.36066172 0.0025433477 0.36525673 0.22839667 0.41326815 0.28300098 0.31252167 -0.35884574 0.17327406 0.7101737 -0.56749284 -0.2937463 0.25259158 0.23701175 -0.471645 -0.18044376 0.8398299 0.60147524 -0.13629487 -0.48508692 0.77366215 0.33335093 -0.30097973 0.81817913 -0.118365645 -0.17832346 0.7638937 -0.34337658 1.0708758 -0.62007934 -0.07599782 -0.22251709 -0.38182893 0.011960272 0.2000386 0.14690112 -0.7405678 0.3628949 0.28286278 0.18865557 0.40287012 0.07017424 0.25105774 -0.32540113 -0.61215127 0.05241731 -0.05082822 0.45327163 -0.8599905 -0.586486 0.3262168 -0.415275 -0.29834273 -0.22466514 -0.32048985 0.15912162 -0.2694388 0.66880834
73 0.28213957 -0.37492108 0.48876598 0.9320202 -0.538848 -0.24707842 0.7152143 0.2959676 0.94572103 0.25022537 -1.3841196 -1.2471784 -0.14988035 0.4378933 -0.65300685 0.182081 -0.28574416 -0.8375941 0.6386982 0.124204904 0.012229252 -1.0268956 0.3108614 0.6788152 0.82654893 -1.0278912 -0.62790936 0.050840426 0.0049769618 -0.025160922 -0.5636807 -0.07705632 -0.85882276 -0.5589071 0.15397123 0.08512139 0.48839876 -0.64561707 -0.44867152 1.40461 0.00016399517 0.196098 -0.98887813 0.22614388 -0.43880868 0.86364704 0.3075836 -0.8237626 1.2389625 0.043010637 -0.63160884 0.005598032 0.31010732 0.45824185 -0.8957764 -0.20967351 0.1590884 0.23510128 0.32012343 0.43025106 1.1352954 0.47666568 1.3075479 0.07946823
59 0.5034826 0.2950031 0.14176218 0.735431 0.14581078 -0.05369758 0.59867096 -0.12636809 -0.68445325 -0.044646315 -0.99552417 -0.33400866 -0.81176436 0.09580805 -0.51539063 0.47613165 0.80194 -0.013388487 0.37995622 -0.31124288 -0.35535133 -0.6456439 -0.13252743 1.3252497 0.51792663 -0.8746841 1.0043006 1.0101786 0.22639856 0.65379894 -0.7855037 0.24928737 0.40967667 1.2003891 0.6032367 -0.8281596 -0.23147653 0.13533191 -0.7180545 0.7648458 -0.09251902 0.6970252 -0.53195816 -1.093123 0.014585036 0.8783242 -0.34561524 1.3316748 0.34460807 0.30505404 -0.061336145 0.37309963 -0.07754543 -0.90809405 -0.15605597 -0.75625396 -0.22181524 -0.2582052 -0.49058235 0.39025775 -0.30690125 0.48233882 0.8479803 -0.4983715
116 -0.0030403843 0.9480297 -0.24503936 0.18654941 -0.13343717 -0.3552742 0.4793349 -0.20478238 -0.25646657 -0.51416224 -0.5529467 -0.22953725 -0.21844576 -1.8793702 0.4704275 0.6406153 0.07281808 -1.0028836 -0.58345073 -0.27150416 -1.005108 -0.9394605 1.0865942 -0.0948117 0.36959648 0.3679756 -0.6494756 0.4180521 0.7700711 0.47040245 -0.5568119 -0.48934913 0.009072201 -0.27531582 -1.081365 -0.8962718 0.2456423 -0.3630121 0.44466063 -0.16513129 -0.6704418 1.0995198 0.23038577 -0.1656554 -1.0024006 1.0282131 0.2652199 0.113302715 1.0021975 0.22421485 -0.27322716 0.20489654 -0.20556675 -0.034465875 0.17867635 0.84993523 -0.31641403 -0.30967283 0.19153051 -0.10389439 0.4003475 0.5335831 -0.70204765 -0.901833
52 -0.17635043 0.38105258 -0.14892861 -0.17758195 0.302099 0.56579894 0.2388181 0.23053229 0.4379898 0.6019345 -0.055528447 -0.07358756 -0.29444656 -0.0065344325 -0.20669852 0.9467992 -0.57168335 -0.16329856 0.16700368 0.15384722 -0.041171886 -0.12342233 0.16207105 -0.08466789 0.2032924 -0.40499207 -0.006122115 -0.12396906 0.18627444 -0.5567249 -0.6090974 0.6821102 -0.07259039 0.30928135 -0.3989156 0.16528945 0.07752645 -0.44218892 -0.38396546 0.24283502 0.55838656 0.17431876 -0.6141003 0.34593228 0.48221168 -0.07797055 0.48249805 0.39263758 0.22401749 -0.04061436 -0.6603669 0.40582567 -0.535636 -0.18445791 -1.4971528 0.3311936 0.1237791 -0.35626677 -0.16166553 -0.48145664 -0.7029528 0.0046884613 -0.0330984 0.057302397
149 0.4777455 0.24195217 0.14525765 -0.59171575 0.4291192 0.6539898 0.05870148 -0.71782196 0.26597995 0.18821982 -0.5476637 -0.5578602 -0.56299424 -0.54488504 0.00021379473 0.40570492 0.39020497 -0.4528301 -0.44175825 0.25066537 -0.1369625 -0.016280225 0.10614334 -0.51826966 -0.124488614 0.13155542 -0.1530767 0.11517882 -0.25059307 0.5937139 -0.79529953 -0.66887295 -0.116820775 1.1009111 0.019969787 -0.38959354 -0.42575684 0.007174486 -0.9124953 0.22311161 -0.109585725 0.8347395 0.47703496 -0.79776925 0.25515673 0.41751084 0.21206167 -0.053232025 0.92655617 -0.1547685 -0.5617364 0.17013657 0.037893374 0.41156855 -0.16415828 -0.762787 0.15835118 -0.55407745 -0.117721766 0.48985794 -0.14913434 0.19026944 0.59823936 -0.4642678
24 -0.20086168 0.5271898 -0.14227894 0.033777233 0.07736577 0.124275446 0.6731281 0.16960417 0.36332506 0.015276928 0.15203385 0.030619971 -0.15505652 -0.21065864 -0.64596844 1.6947087 -0.4394751 -0.76845527 -0.442287 -0.5028918 -0.17625254 0.34916505 0.9326005 0.9601209 -0.104312345 0.8131785 0.1301082 0.3145156 0.08963621 0.22323288 -1.0775101 -0.30474487 -1.2633765 -0.84340733 1.2075703 0.31142318 0.27992785 -0.17011341 -0.9609586 -0.3658801 0.3803478 0.77388334 -0.62428045 -0.3180083 -0.41586047 0.32543766 -0.16167797 1.5415709 1.0472875 -0.25317788 -0.04734163 -0.47701225 -0.4540613 -0.79102594 -0.46699366 1.1026995 0.11468574 -0.52572334 0.12230037 -1.0445335 -0.7637817 -0.17159948 0.61135375 0.75174946
76 -0.113905914 -0.55763227 -0.2441202 0.21421626 0.43276843 1.0269879 0.77041495 0.0014914434 -0.29688632 0.60747993 -0.75739616 0.16716403 -0.7880625 -0.22465102 0.33544755 -0.16016084 0.23318532 0.18800038 0.4842376 0.69147635 0.35647085 -0.57170594 0.3364185 0.35809764 -0.21052608 0.7925614 -0.04657437 -0.63505477 0.4628891 -0.2183155 -1.0866268 -0.3821828 0.5379991 0.17376187 0.0047131088 -0.09658494 0.56433874 -0.66738075 -0.22258006 0.29297838 0.031739507 0.28896213 0.46079338 -0.38098198 0.120498694 0.13509393 0.655777 0.32252833 0.64224064 -0.4138371 -0.04977045 0.37662855 0.11916541 -0.6113033 -0.9423692 -0.24492906 0.0773698 -0.9733726 -1.0175606 -0.23553336 -0.4894476 0.022413949 1.1855656 0.6857089
51 -0.17392705 -0.7033939 0.31042683 1.1423175 -0.25853047 -0.4997333 0.4379504 0.04073069 0.14852728 0.25419003 -0.54818964 -0.4737479 -0.0337212 -0.21966635 0.37511188 -0.36022595 -0.15612577 -0.7258925 0.85444087 0.525835 0.34285405 -0.7789754 0.022651894 1.470174 0.6050695 -0.5939035 -0.017580004 0.3052454 0.36387256 0.33822814 -0.19956788 0.48599604 -1.072595 -1.0561897 0.29578686 -0.6501779 0.66417307 -0.094615884 -0.48754582 0.91271585 -1.2272285 0.12818281 -0.6825577 -0.09884993 -0.6615905 1.5979998 0.1462979 -0.04088013 0.5255984 -0.3944145 -0.26944384 0.25734693 -0.007935946 0.50127393 -1.0112255 0.123511486 -0.110916026 0.0019696741 -0.09826849 0.21122938 1.0146773 0.40012237 1.9382272 -0.009806549
70 0.18344145 0.53727335 0.72154844 0.5609948 0.004316765 0.1938013 0.94196016 -0.13920794 -0.42867896 -0.30447674 -0.30388686 -1.1285564 -0.45131811 -0.39533386 -0.007967963 0.50255716 0.6133054 -0.10553983 0.029588537 0.18617615 -0.77738434 -0.82102275 0.33542195 -0.11531273 0.5915833 -1.0319049 1.2791969 0.1939685 -0.34952405 0.31007513 -1.0329595 0.3239049 0.15588923 0.5949869 0.10296848 -0.110911615 -0.58982676 -0.26256165 -0.5520079 0.63871944 -0.18431012 1.298639 0.03158245 -0.93129104 0.65109104 0.13652076 -0.34035403 0.7783509 0.40922734 -0.19587567 0.57297724 0.052867163 0.51271915 -1.0326073 -0.1960181 -0.48407236 0.21752894 -0.30415243 0.06407969 0.38497636 0.23725174 0.72914195 0.63701123 -0.11927609
113 0.117410995 0.8569592 -0.39727876 -0.4613513 0.30992183 -0.7971104 0.7632868 -0.3680988 -0.24360387 -0.42390135 -0.24934542 -0.28913113 0.008959376 -1.7029688 0.9078933 0.4891014 -0.71937346 -1.013799 -0.14574596 0.5900613 -0.34759086 -0.6897926 1.0699142 -0.34527925 0.69111294 0.05521846 -0.077731736 1.2253319 -0.0025187144 0.65769213 -0.54646045 -0.43256006 0.15338364 -0.032607365 -0.34201536 -0.49780953 -0.09535322 -0.16857582 0.5431681 0.27807853 -0.2032901 0.47378635 -0.13732895 0.4508709 -0.30945304 0.6779496 0.50266165 0.5618841 0.594978 0.42214295 -0.14167687 0.8945163 0.20189667 0.71451867 0.07938998 0.24904181 0.13762717 -0.8198738 -0.40935233 0.8180407 0.35037822 0.79336065 -0.50079143 -0.06684728
127 0.19717075 -0.032520007 0.29063702 -0.4527847 0.12201706 0.71202564 0.18214577 -0.19475521 0.12186853 -0.09166063 0.5270049 0.41257682 -0.18465793 -0.48156232 -0.05729995 0.6295316 -0.06338859 -0.0589365 0.22446126 0.10679474 -0.4271483 0.1525651 0.17501745 0.2538671 -0.35910416 -0.38892576 0.09381047 0.35132483 -0.08545501 0.26072568 -0.29429117 0.40303466 -0.23576313 0.29077753 -0.18632415 -0.528901 -0.4701063 0.5309023 -0.66699374 0.29258522 -0.41249177 1.0097771 0.07435779 -0.2165333 0.2341682 1.0175995 0.3316126 0.46574926 0.32901767 0.078345105 -0.26306006 0.10464611 0.29883555 -0.39848348 -0.7818658 -0.8376033 -0.34593087 -0.6990043 -0.74772847 0.17552726 -0.36496922 0.8821177 0.2685091 -0.033078775
154 0.04307068 0.5296993 -0.04162148 0.04284108 -0.53191334 0.14755021 0.26518366 0.059685312 0.11473975 -0.20128825 -0.4918054 0.16980511 -0.4077812 -0.33982766 -0.40949082 0.22092658 -0.33634418 -0.23247264 0.64242935 0.08711145 -0.113924794 0.66802335 0.5083806 -0.22083475 -0.081570566 -0.08897329 0.66560656 -0.21030226 0.27775025 -0.07951884 -1.2147794 -0.09300526 0.08848834 0.51488584 -0.15921454 -0.5759978 -0.7017798 0.68926907 -0.26992947 0.40787837 0.03196145 0.7208285 -0.45177615 0.44513735 -0.028253138 0.75989765 -0.33614758 0.6733048 0.58201087 0.17396815 -0.27683082 0.08822663 -0.053028993 -0.8477058 -1.0861917 -0.6606588 0.27158424 0.06334367 0.090494156 -0.083991125 -0.23376228 0.2561164 -0.058842484 -0.013434294
102 0.11353112 0.5097652 0.28571346 0.035995238 0.28165177 0.27575594 0.39360768 0.42444864 0.50069463 0.22182173 0.9660483 -0.29133537 0.118791156 -0.093749754 -0.61693424 0.88110375 -0.22324531 -0.276636 0.1024041 0.29566854 0.1692146 -0.33381444 0.9616868 -0.0027568636 0.41485122 0.7495313 0.35086793 0.31689242 -0.2562168 0.009323823 -1.0532756 -0.20347072 -1.0586241 -0.5558593 0.8060063 -0.43795902 0.19535269 -0.105409876 -1.032738 -0.07025846 0.5090031 0.23082282 -0.2777777 0.5382097 0.3475697 0.6001845 -0.11570077 1.5133847 1.128142 -0.0056197504 -0.15928924 -0.12909721 -0.69173115 -0.47263992 0.19161274 1.0300052 1.0336903 0.16325895 0.028454827 0.35874626 -1.0995111 0.4161432 0.52043164 1.030997
62 0.657413 -0.3126509 -0.5098424 -0.4281469 -0.6812045 0.39462176 0.4022092 -0.83016133 0.46144906 -0.31088907 -1.2413508 -0.7214404 -0.49916092 -0.11369187 0.75968605 -0.000357002 0.501759 -0.34907424 -0.38744944 0.12589025 -0.1975784 -0.7184171 -0.21851237 -0.29458976 0.515694 -0.3513741 0.3179455 0.15876003 -0.02551472 1.1053663 -0.710996 0.46974063 -0.2067558 -0.06663548 0.00951651 -0.9586737 -0.0735548 -0.09379188 -0.73905617 -0.11412309 0.56546474 1.4804033 0.7974956 -1.1214674 0.38569117 0.437855 -0.38616428 0.47842062 -0.37293002 0.7195544 0.5950132 0.55171824 0.11189212 -0.46891433 -0.631565 -1.3509834 0.072291404 0.435695 -0.29215705 -0.30164593 0.14791739 0.03904871 0.8658419 -0.057644732
75 -0.17091794 -0.6951502 -0.10469968 0.36365774 -0.4370022 0.16326526 0.6056394 0.27400804 0.3967302 0.33653364 -1.2938055 -0.22689709 -0.21913745 -0.9478489 0.24170975 0.32650626 -0.7465577 -1.6107665 0.54118246 0.3276898 0.5572846 -0.27728054 -0.03218185 1.3786284 0.96977854 -0.79049337 -0.47378767 -0.22425874 -0.043066334 -0.23953962 -0.42672595 0.5903414 -0.7550201 -1.2789402 -0.065518886 -0.77405316 0.5288619 -0.48891893 -0.32262635 0.66499776 -0.23268598 -0.4112804 -1.0634528 -0.482507 -0.5183259 1.2482842 0.3839106 -0.47601226 0.7547116 -0.12479234 0.3301985 0.17737363 -0.2166758 0.13782519 -0.6358531 -0.18132661 0.52404773 0.8156902 0.0803989 0.9516511 1.0920058 0.32145694 0.46012825 -0.044800293
90 0.6549254 -0.11819942 0.5365598 -0.5129625 0.20226547 0.19825707 0.2798799 -0.64328784 0.78801745 0.5692241 0.24829207 -0.45184636 -1.1786186 0.012499253 0.7618458 1.1662518 -0.83875304 0.14816351 0.060523763 -0.65861 -0.7494826 0.46840453 -0.012924518 0.25469726 0.1373545 0.414232 0.5692079 -1.0347457 0.7969502 0.44716477 -0.46004298 0.104847856 0.37830073 -0.31506136 0.2590987 -1.2917287 -0.24172843 -0.8313021 -0.07473689 -0.07516383 -0.5350228 -0.57526994 -0.96892786 0.12819192 -0.38135755 0.5003081 0.15628096 0.740698 0.5256849 0.0051445174 -0.31606728 0.60098404 -0.23185964 0.26603028 -1.1219624 -0.14196058 0.18437022 -0.22767611 0.091806404 0.06459946 0.5169931 0.76981187 -0.0033835552 0.49361193
17 -0.37465978 -0.044631198 0.044579733 -0.26123336 0.6718424 -0.39150882 0.122036055 -0.12150355 -0.026639424 -0.7690685 -0.7868425 0.26161364 -0.5239812 -0.24529918 -0.17285675 0.43557426 -0.012178357 -0.1381101 0.14532734 -0.32523537 0.1458503 -0.064716525 0.39532548 0.61556584 0.22597006 0.6460032 1.0236127 -0.3127398 0.059959833 -0.032326423 -0.75692654 0.77473 0.086335 0.2862032 -0.6344872 -0.7707026 -0.77940494 0.91077554 -0.9135365 0.3690381 0.14478366 1.0482708 0.289142 0.29720995 0.3325107 1.3723555 -0.4318737 0.17789008 0.4937746 -0.6834461 -0.44473776 0.66201055 0.29390293 -0.43828562 -1.1980044 -0.4195371 0.3492158 0.376091 0.15161763 -0.09935062 0.046691533 -0.05226092 -0.5914385 0.22641553
124 -0.12429138 -0.4921945 -0.019468866 -0.49604335 -0.30061218 0.9184346 0.1599805 -0.68296194 -0.55705255 -0.006049643 -0.51964736 0.03783677 -0.23452537 -0.907379 0.7449567 0.6364994 0.7016739 -0.45964825 -0.038638785 0.2852691 0.20834681 -0.5625755 0.21508823 -0.18523172 0.5649179 0.20226291 -0.254416 0.25740016 -0.037562326 -0.17521472 -0.22155774 -0.49522159 -0.19306862 0.71585983 0.3526968 -0.5815952 0.19018784 -0.35644594 -0.6640881 0.11350592 -0.09082753 0.32185683 0.2858186 0.31022224 0.12931848 0.25459433 0.38387623 0.1566209 0.65321195 0.34529987 0.031738956 0.7925187 -0.543825 -0.10291968 -0.45084313 -0.20877497 0.26792294 -0.7608068 0.6119367 0.17286223 0.48983082 0.066620536 0.48667833 -0.2674086
110 0.66003555 -0.21727975 -0.28433692 -0.6712948 0.0036247799 0.33544967 -0.010671956 -0.3336057 0.16820283 0.86895186 -0.16177554 -0.97364205 -0.65431786 -0.16344872 -0.2263458 -0.25991413 0.406459 -1.3775985 0.46442226 0.28396147 -0.8633826 0.36142534 0.663194 0.8056668 0.004083679 -0.40789688 0.61298126 0.008470156 0.19695567 -0.9046871 -0.92049026 0.433316 -0.7156532 -0.2656564 -0.42334783 0.009035311 -0.3938765 0.156101 -0.13173142 0.31934145 -0.376263 1.0546243 -0.29932496 -0.3132797 -0.34829995 0.37889543 -0.5542128 0.4095094 0.5806299 0.10351441 -0.13269846 0.36558998 0.044321377 -0.51571065 -0.34435052 0.27217436 -0.37111926 -0.5302639 -0.025969239 0.04466009 -0.7220835 0.973766 -0.31450593 -0.65939116
114 0.68208796 0.7308984 0.6353846 -0.7717154 -0.03730478 -0.29274136 0.43317452 -0.5109501 -0.0962015 -0.26982814 -0.13154243 -0.6908502 -0.93834347 -1.9492747 0.57517815 0.4308844 0.1783204 -0.33460322 -0.6922212 0.27008334 -0.2433769 -0.22817847 0.2982107 -0.54683447 0.41322067 0.45586088 -0.476264 0.6288594 0.4658823 0.2716668 -0.3010315 -0.21843797 0.18550366 0.36721608 -0.75387925 -1.4399812 -0.0062760203 -0.25949493 0.22261147 0.118494846 -0.77815956 0.28070015 0.008062228 0.56969434 0.056692384 1.3392776 0.87591183 0.3838394 1.0917392 0.81520796 0.61078864 0.5516938 0.19224116 0.11211082 0.1275962 0.561916 0.5039176 -0.33196574 -0.034119893 0.4065904 0.30900788 0.880369 -0.034721553 0.05878566
137 0.71842104 0.29828188 0.75280553 -0.83952606 -0.1485842 0.44286108 0.4299181 -0.37443218 0.31977245 0.26102504 0.6333394 -0.9861172 -0.81731737 -0.66760993 -0.4139611 1.088901 -0.60271263 -0.37511015 -0.42525035 -0.34490076 0.30122042 0.5254877 0.22544886 0.34752953 -0.068628676 0.66937184 0.35948122 0.09509078 0.2105419 0.6511157 -0.7839153 0.18563691 -0.5268643 -0.3413338 0.7354198 -0.545476 -0.013433357 -0.47690013 -0.52445036 -0.008860459 -0.22474754 0.23183002 -0.9936056 0.3912618 0.43575105 0.89363456 0.16440886 0.7569839 1.0606635 -0.17597248 0.41564423 0.28020397 -0.33495742 -0.5527891 -0.4087936 1.0132661 0.44183 -0.43689921 0.0024450638 -0.3074341 -0.44582626 0.07562234 0.43682483 1.062136
4 0.33330762 -0.37648913 -0.23543276 -0.47232822 0.34685257 0.8859458 0.2884554 0.1870035 0.12922087 0.38343784 -0.36996898 0.12666981 -0.78239936 -0.0681529 -0.22106905 0.6654859 -0.05247735 -0.13072595 0.26051033 0.097186506 0.38941547 -0.041760735 0.3485854 0.3386805 -0.43030375 -0.5805843 -0.14877132 -0.44385406 0.25676116 -0.010747684 -0.5949975 -0.3691701 0.0075558154 0.4510701 0.1750195 -0.14775996 -0.5286005 0.026007062 -0.52584064 0.0679194 0.6407592 0.1917024 0.13433087 -0.14833678 0.8724534 0.27089512 0.37419537 0.08209947 0.50351036 -0.26182163 -0.13190337 0.38422802 -0.48166433 -0.6259212 -0.88698214 -0.44516408 0.45709783 -0.26301563 -0.48457417 -0.40244097 -0.02108513 0.4168715 0.35762647 0.0053090127
165 0.014026841 0.042480517 0.1417745 -0.32839024 0.16605473 0.62439054 -0.7124147 0.6679686 0.054953735 0.29030538 -0.025001332 -0.036857262 -0.31302258 -0.26456884 -0.80392647 0.34249914 -0.47305205 0.3126857 0.2075628 -0.024968794 0.11275207 0.06915208 0.47073522 0.74262655 0.177289 -0.102904916 0.16014534 -0.29014242 0.98452646 0.16806287 -0.55255747 -0.273177 0.019094545 0.2857142 0.10226499 -0.06791257 0.07913032 -0.032746743 -0.69972277 -0.090959564 0.5770949 0.31351104 -0.23480931 0.2921529 -0.10161612 -0.16888921 0.23622729 -0.009250441 0.38807023 -0.13496506 -0.20112453 0.4568313 0.08435738 -0.085985795 -0.98430073 -0.47511613 0.4257922 -0.8479578 -0.14526162 -0.29324296 -0.7347658 0.41685238 -0.008910856 0.07270002
42 -0.43907595 -0.738275 0.31642678 -0.16105093 -0.0955994 0.8422908 -0.28546694 -0.7952755 -0.2620989 0.25012627 -0.4712332 0.4188613 -0.6893902 -0.7436297 0.39324698 -0.41309732 0.5295216 -0.16693375 -0.6728951 0.35234404 -0.553526 0.24215809 0.79674476 0.27570388 0.18646054 -0.01573097 -0.1812355 0.3038306 -0.05814856 0.42627245 -0.21222202 -0.10818727 0.362694 0.06885586 0.10642403 -0.3886721 0.1802798 0.20888396 -0.4617212 -0.30574173 0.0485211 0.37526584 -0.0910068 -0.3049014 0.8849746 0.14653453 0.6088017 0.0020309684 0.66097677 0.24062972 -0.17310858 0.4512346 -0.23464833 -0.23923008 -0.6292113 -0.83230954 0.13974126 -0.2086965 0.061974335 0.4028793 0.2159535 0.8977009 -0.039146658 0.09801037
88 -0.47776622 -0.24755912 0.99268514 0.43796718 0.28451964 0.019598454 -0.087425426 -0.15863647 0.040702146 -0.0022095705 -1.0935115 -0.3506869 -0.40132004 -0.35055858 0.15126632 -0.33196867 -0.87617725 -0.62667835 0.45456454 0.103090085 0.8577364 -1.0769801 0.35474938 1.228895 0.72380555 -0.5773587 -0.2769953 -0.0038919882 -0.4010371 -0.1280987 -0.37257418 -0.13559781 -1.2226645 -0.99023163 0.1831247 -0.9461053 0.9264769 -0.16457188 -1.0342255 0.79836684 -0.38272318 0.36857775 -0.9340118 0.5001718 -0.6976721 1.0030296 0.1689309 -0.40244138 1.2467356 0.6364922 0.19003636 -0.45639974 -0.09328622 0.33436674 -1.0193753 0.05791707 -0.10958897 0.065211415 0.1585324 0.20223826 1.0094494 0.6323786 0.063729405 -0.08260538
161 -0.07292385 -0.27320772 -0.20713095 -0.3259122 -0.28874123 0.6075683 0.17882796 -0.75985175 0.7456231 0.7277231 -0.39455748 -0.55821884 -0.7434155 -0.6110221 -0.38732097 -0.14715704 -0.30660635 -0.71863455 0.6724604 0.74490446 -0.2809211 0.35323063 0.6269191 0.29532492 0.34705922 -0.29756057 1.0792853 0.630977 -0.22092573 -0.7215676 -0.34438956 0.1389274 -0.6518687 0.621945 -0.27629477 -0.19365191 0.3803494 -0.16874853 0.21475081 0.90244263 -0.01904487 0.6004219 0.35762295 -0.48904586 0.5420583 0.5919388 -0.42972836 0.6037718 0.6847397 -0.07935637 -0.44464585 0.056438737 -0.118323654 -0.18752092 -0.2920247 -0.055982284 -0.79600656 -0.58806765 0.4905973 -0.86396134 -0.6718961 1.3305863 0.142777 -0.22863257
87 -0.53685844 -0.56317323 0.1961486 1.0113404 -0.94800425 0.46629128 0.2882021 0.08424183 0.29082936 0.6748354 -0.37762076 0.17764893 0.065245844 -0.7961422 0.8523768 -0.12448142 -0.61196446 -0.9164389 0.581618 -0.35562682 0.42941225 -1.0442747 1.2106519 -0.0091951275 0.505943 -1.2963977 -0.48596755 0.16770487 0.12055416 0.010753695 -0.4852383 0.1380231 -0.36915657 -0.22269417 -0.19012594 -0.90437835 0.54304343 -0.015511624 -1.2828728 0.7550697 -0.8251466 0.07326867 -1.1647729 -0.0010076476 -0.43877754 1.5864983 0.31504163 -0.044501185 1.0296386 0.43142328 -0.016421303 -0.33064413 -0.011388787 -0.28011963 -0.8120561 -0.106890194 -0.056389935 0.37734953 0.46060786 0.63497716 0.9262057 0.6175562 0.4649803 -0.055850387
101 -0.12930778 -0.4371471 0.2949881 -0.5645089 0.69638824 0.7057624 -0.3527207 -0.39949828 1.1206726 0.057102002 0.11345267 0.072601445 -0.34166378 0.067917295 -0.49741802 1.0026908 -0.1185484 -0.34834537 0.3164145 0.34292138 -0.30178246 -0.016087983 0.045442324 0.32536894 -0.70054144 -0.76930463 0.31349826 0.09962884 0.15658739 0.54948056 0.13784337 -0.23763987 0.517828 -0.55465955 0.8310173 -0.9699826 0.26157928 0.35511452 -0.9097932 -0.31730866 0.210166 0.7065571 -0.43165785 0.65688074 -0.16907516 -0.08439885 0.6350156 0.18448263 0.7960835 -0.18557669 0.123697385 -0.5519488 -0.08113663 -0.096714236 -0.88971865 0.62777865 -0.2948417 0.021085963 0.2534884 -0.03584216 -0.73341453 0.48372668 -0.006523863 0.6747554
77 0.21466859 -0.4816712 0.715015 -0.9744953 0.54912007 0.72791076 -0.028122405 0.24929962 0.8204321 -0.6684197 -0.11462858 0.45678517 -0.24322347 -0.62808526 -0.29228845 0.5087313 -0.40163425 -0.25405428 -0.5480881 -0.02157672 0.46882105 -0.2866413 -0.36586803 0.37131378 0.2307457 -0.093986034 0.08348524 0.2573098 -0.2289805 -0.17850943 -0.6792584 -0.15040414 0.30131647 -0.32687962 0.35670447 -0.5262973 -0.2773482 0.22097489 -0.6723004 0.37454113 -0.19750628 0.11660698 0.552607 -0.46658838 -0.25655797 0.4443845 0.11521864 0.573309 0.15580325 -0.5559674 -0.3189342 0.15982315 -0.09835643 -0.21909077 -1.259762 0.062496338 0.3300296 -0.21628426 -0.37806422 0.0076649226 -0.42755497 0.6893391 -0.7277216 -0.21994157
6 0.30995923 0.30625987 -0.24489531 0.08774622 0.27768365 0.9417111 0.03279177 -0.17864971 -0.07428217 0.33688432 -0.89744943 -0.017504603 -0.28574347 -0.69384754 0.2521288 0.7264318 -0.11194114 0.035214785 0.19481137 0.29983944 0.18255721 0.6969611 0.12735975 0.23920272 -0.11933768 -0.047411803 -0.101346426 0.19785129 0.355487 -0.15436983 -0.38089734 -0.38664898 0.08034243 0.2288402 -0.19997859 -0.6697786 -0.5990388 0.25672248 -0.78448427 0.27767512 -0.15273155 0.7083501 0.28967348 0.16151388 0.32384023 0.1752276 -0.21579656 0.132521 0.14014515 -0.59565693 -0.026911743 0.9007762 0.10403235 -0.30139664 -0.63945615 -0.53693646 0.7288181 0.14404261 -0.046876956 -0.016724622 -0.097288385 0.32188168 0.16007668 -0.18916352
147 -0.8208944 -0.4207076 0.30333063 -0.5940388 -0.09559061 -0.009903245 0.5322895 0.19553946 0.22362025 -0.08170242 0.13042383 0.40886456 -0.5202832 -0.2718472 -0.4428177 0.42560166 0.25174192 0.17604533 -0.29534984 0.02459827 -0.436512 -0.35983586 0.416231 0.24121612 -0.06572876 0.20582819 0.06180491 -0.353781 0.3645488 0.34323904 -0.23205753 -0.62932765 0.11199629 0.09539327 0.53472024 0.21942759 -0.076448694 -0.7024388 -0.6962465 0.1872716 -0.2981663 0.23256393 -0.09202235 0.57066935 0.4236734 0.23940653 0.36111623 0.011937806 0.08213401 0.15373231 -0.044104047 0.15242176 -0.18232301 0.09605529 -0.9451892 0.17738748 0.53355175 -0.14193283 0.008363277 -0.03308695 -0.2552379 0.3655381 0.40207866 0.6303613
19 -0.08634846 0.15201186 -0.14282884 -0.9051416 -0.026301002 0.7834291 -0.15566301 -0.014547469 0.9048956 0.3934837 0.077596165 0.071180254 -0.36450735 -0.09520223 0.011596394 1.1826464 0.1932205 0.2044893 -0.065774985 0.0064936643 0.60526764 0.18156764 0.54668903 0.19730373 -0.60965526 -0.34717956 0.297075 0.16897957 -0.30080134 0.031104641 -0.82103914 -0.6073516 0.22932772 -0.37749162 0.719245 -0.39846063 -0.10733872 0.15365918 -0.39381206 0.5401063 0.040694002 0.3621874 0.15646346 -0.23598392 0.041368194 0.38813022 0.3458898 -0.17355953 0.52410126 -0.029267095 0.099392354 0.30984715 -0.239522 -0.6768967 -0.69597304 0.29415572 -0.0025413746 -0.16411887 -0.5660911 0.19406177 -0.66713125 0.417778 0.45306963 0.013599547
83 -0.6777982 -0.21355335 -0.18981649 0.30267027 0.24272849 0.04766172 0.5058016 -0.6120857 -0.15397112 0.32935062 -0.923243 -0.30684152 0.31497136 -0.62615526 0.8786119 0.038398102 -0.9483514 -1.266675 -0.16705377 -0.30138355 0.2977253 -0.5156554 1.1284275 0.6525952 0.7713373 -1.5627446 -0.4290052 1.0400476 -0.41853723 0.41571605 -0.66750443 0.34100667 -0.16684556 -0.49094883 0.68186194 -0.5246525 0.2008252 -0.6585823 -0.6547122 0.9974315 -0.3708152 0.36820132 -1.1609979 0.31593743 -0.4261936 1.0906832 0.27463636 -0.11082177 0.78020304 0.0446054 0.12871994 0.12875664 0.026154744 0.5093858 -0.7406326 -0.6056514 -0.051800497 -0.9124771 0.07537532 0.4821783 0.9165336 0.48315358 0.20377757 0.55609006
38 -0.44532305 -0.42630723 -0.04538267 -0.6207031 0.018997556 0.4665723 0.18569355 0.3620169 -0.04512339 0.35513204 0.3830607 0.17843579 -0.8255835 0.10220838 -0.6300382 0.21497393 0.08970706 0.021688256 -0.088401735 0.30574766 0.11360048 -0.40776953 0.9425936 0.51212233 -0.26015508 0.31816074 0.31669202 -0.087258995 1.0440048 -0.5803071 -0.17359866 0.01916865 -0.0033160853 0.38481048 0.5084525 -0.4081069 -0.11593443 -0.980433 -0.69725394 0.029026587 -0.41562626 0.0644825 -0.12500997 0.30588898 -0.30434632 0.04151048 0.88077736 0.2093118 -0.009648053 -0.033983264 -0.5672555 1.090863 0.7717946 -0.20956892 -0.5349852 0.14045376 1.0018383 -0.7621627 -0.26512474 -0.51743525 -0.4514007 -0.15671879 0.4906786 -0.18388762
60 0.31384563 0.08317521 -0.7339561 1.0090314 0.5439825 -0.24882337 -0.6779475 -0.9149594 0.5467661 -0.012497203 -0.8034423 -0.47853455 -0.37551105 -0.1490631 -0.1965834 0.64080185 0.12213689 -0.83234674 0.19343598 0.29725266 0.54866195 0.2391055 1.1399293 -0.01300308 -0.31016675 -0.58072966 0.39638776 -0.94179195 0.4186792 0.6827212 -0.022964742 -0.09246873 0.29081264 0.74676484 -0.35635266 -1.0716851 -0.77724314 1.022824 -0.19274612 0.33286119 0.68767744 1.3552152 -0.06770071 0.35379386 -0.4408827 1.1932913 0.48074415 0.56087756 0.29098108 -0.7141673 0.03324195 0.39197236 0.4349513 -0.13044837 -0.7545389 0.20406994 0.28521287 -0.052054416 0.47617346 0.047848422 -0.36199042 0.14650075 0.28675365 0.48755327
28 0.12566118 0.37122524 -0.5827911 -0.48167884 -0.9506284 0.23702168 -0.41057533 -0.19135104 -0.056131165 1.0911 -0.79681176 -0.0880237 -0.019969545 -0.58002883 -0.18703865 0.01732438 0.7751408 -1.3030503 0.046148002 0.50479454 -0.010896021 -1.3346273 -0.31468117 -0.3345827 -0.051209453 1.2729406 -0.2299333 0.2740315 -0.24100769 0.139888 -0.27507457 -0.023484658 0.2959145 -0.022722488 0.14085895 -0.7662034 -0.83862793 -0.32772872 -0.9793039 0.70439655 -0.4398896 1.1826054 -0.28374675 -0.11338775 0.376683 0.12984784 0.46103764 0.41145685 -0.8134879 0.72777605 0.15531419 0.7261951 -0.022161614 1.0722003 -0.3109523 -0.70441765 0.34771442 -0.03674593 0.5388186 -1.2407805 0.12650844 0.7201852 0.26547316 0.3740091
125 -0.14184316 -0.2558265 0.0671037 -0.2121253 0.17969058 0.52485186 -0.021875834 -0.88178945 -0.41362965 0.16447602 -0.414629 0.251153 -0.26455113 -0.48304445 -0.60408074 0.5020929 -0.098548636 -0.88881737 -0.3145418 0.0075363307 -0.3231379 -0.25518337 0.36710033 -0.17939164 -0.024897669 -0.73152465 0.09618328 0.34897125 0.2645075 0.5548064 0.35880524 0.09126488 0.33784023 -0.41439134 -0.31058395 -1.1204778 -0.14297652 0.47017995 0.2419765 0.14014436 -0.59585464 1.2530035 -0.42742845 -0.10308149 0.1830168 1.2960887 0.17240985 0.8533236 0.20164788 -0.9976017 -0.9017721 -0.012968062 0.32096133 -1.1892014 -0.5113462 -0.68645275 0.65758276 -0.34962422 -0.26163 0.58899707 -0.32004377 1.1551092 -0.5434629 0.036850054
16 -0.22626948 0.36956266 -0.27666456 -0.08580974 -0.808733 1.21079 0.8023287 -0.8768026 1.1922526 -0.42121086 0.95668304 -0.06396718 -0.28943217 -0.8701116 -1.2134764 0.23889278 -0.5756149 -1.5632393 0.82536495 -0.106080264 -0.08204978 0.38261077 -0.40851036 -0.19560772 2.0283723 0.22428732 -0.4248479 -0.4235303 -0.18711221 -0.9392251 -1.0364939 0.6956087 -0.15052722 -0.24749975 -0.5315264 0.09209673 0.4671719 -0.6675325 -0.1560446 -0.5294512 -0.060891774 0.5217268 -0.1263355 -0.05987913 -0.43712854 -0.24867819 0.13318993 1.7704762 1.0512596 0.5149527 -0.38265747 1.8187319 0.33711675 -0.7128729 -1.7464259 0.21530487 0.4769769 0.620131 0.20594183 0.76789844 -1.9007121 -0.41344446 1.7057822 0.11448785
100 -0.6083396 0.090715975 0.2318511 0.67443496 -0.14401262 0.51809704 0.41427308 -0.2624469 -0.037249938 0.453404 -0.31561098 -0.12350893 -0.39467558 -0.9649931 0.7298478 0.55099845 0.47563723 -0.62212867 -0.5285315 -0.5198125 0.09769237 -0.46335283 0.7591324 1.0003029 0.61438334 -0.9684509 -1.4458442 0.6589835 -0.12742016 0.29248238 -0.54738724 0.33964208 -0.6257055 -0.4699046 0.124484286 -1.2189567 0.6394261 -1.0828334 -0.32751447 0.7963204 -0.59608275 0.87782276 -0.67546976 0.035230093 -0.25704834 1.636202 0.47661284 -0.5969244 1.0409905 -0.008274871 0.20440575 -0.76090336 -0.23214827 -0.11710609 -0.5510006 -0.7556647 0.07704516 -0.07529055 0.7003984 -0.18698806 0.3887446 0.5035425 0.53168064 -0.27291122
164 0.08877384 0.24675421 -0.12355785 -0.72516376 -0.1658575 0.081299104 -0.31623417 -0.52793425 0.48781154 0.60263944 -0.24915664 -0.039713748 -0.49015185 -0.7110175 0.3907703 0.5648391 0.12583508 -0.001882629 -0.7531662 -0.09024849 -0.62749773 -0.32128072 0.12042721 1.1640252 0.41809398 -0.515243 0.16898973 -0.134503 -0.7499398 0.9701544 -0.8296413 -0.001617933 -0.5299666 0.7899252 -0.09640769 -0.52317727 -0.21819563 0.2694831 -0.7613025 -0.05814484 -0.13706023 0.68085575 0.5281025 -0.18359374 0.17175944 0.6715898 0.1829833 1.3643819 0.8037046 0.18955764 0.09599737 0.100546576 0.79664904 -0.97928244 -0.2624384 -0.44011956 0.03371069 -0.14809252 -0.07789896 0.31936833 0.10558107 0.60771906 0.04476521 -0.17824791
69 0.6534932 0.3694682 -0.7118384 0.71397865 -0.02810084 -0.6201465 -0.3818402 0.021269485 0.5132559 0.4831557 -0.050632253 -0.08154695 -0.4294596 -0.58195823 -0.17819247 0.9471 0.8052602 -0.48426366 0.40161714 -0.18755421 0.6523202 0.67571396 1.398643 0.54151356 0.58117133 0.08768629 0.19986372 -0.5261941 0.31532446 0.22485873 -0.83600646 -0.1768492 0.05712774 0.9535592 -0.18898073 -1.3357043 -0.5860002 -0.16517495 0.534982 0.47027048 1.2526535 1.632529 0.10208301 -0.27665946 -0.38318232 1.6006842 0.3459394 -0.15113558 0.3440239 -1.2074598 0.10191676 0.001725159 0.36465257 0.15129884 -0.9908574 -0.30620676 0.38781452 0.7595186 0.48007825 -0.05098476 -0.096721 -0.08820919 -0.0827306 -0.15593748
97 0.18372247 -0.09897271 -0.025595825 -0.5927077 0.01658849 1.0293077 -0.101962544 0.22895089 0.930804 0.32001784 0.6673277 0.58641416 0.09464185 -0.21307787 -0.12592544 1.1482074 0.21872078 -0.1469984 0.2806362 -0.30090865 -0.77891815 -0.056718726 0.4485095 0.64440626 -0.09219334 -0.041964233 0.2521117 0.06834157 0.047250744 0.774623 -0.679193 -0.0126001835 0.46753854 -0.4818638 0.62726486 -0.8794161 0.19294031 -0.2990789 0.0418117 -0.27280915 0.046515226 0.8216045 -0.5259069 0.20891017 0.44972074 0.95605874 0.4169048 -0.36035252 0.8303711 -0.69492674 -0.45239848 -0.5053597 -0.46050403 -0.08349772 -0.72050554 0.04085911 -0.019946655 0.4175895 0.33684918 -0.40279078 -0.8654327 0.30774546 -0.4995149 0.21816812
11 0.4422906 0.427031 -0.10428575 -0.43872097 -1.4891542 0.18126185 0.6726347 -0.8263392 0.6211087 0.061484464 -1.2800645 -1.0479782 0.33865744 -0.49085167 0.25608504 -0.045938607 0.8074424 -0.5034466 -0.082283564 0.34295824 -0.29738054 -1.3038678 0.22577104 0.24012735 -0.26353544 0.71984714 -0.61064476 0.06550579 0.21133432 -0.72301483 -0.14132704 0.04364066 -0.25673133 0.8762556 1.2525092 -0.73653436 -0.14756514 0.16462629 -0.9006641 -0.1156668 -0.13146971 1.2375172 -0.18643816 -0.13383815 0.62384117 0.37214816 0.64075166 0.15812203 -0.92851216 0.2017698 -0.6277926 0.83785856 0.340215 0.6091036 -0.25151262 -0.8391392 0.39044172 -0.0084044505 0.28805935 -0.5411649 -0.12527478 0.6199084 0.039685387 0.3697874
126 -0.110436454 -0.12844265 -0.8523118 -0.1493288 0.15285808 0.76754487 0.46369132 -1.0984535 0.15136378 0.42121372 -0.3942864 -0.45380527 -0.4608917 -0.9300194 -0.0011464874 -0.4021416 0.049973786 -0.1546218 -0.11866763 0.6736962 -0.37101844 -0.5842559 0.09757622 -0.6484072 0.29531127 0.38521072 -0.05974349 -0.05273119 0.017763022 -0.2622439 -0.64749897 -1.0384852 -0.7802417 0.86736697 0.2866409 -0.55805194 0.32213032 -0.8255043 -1.3776793 0.01790564 -0.6192239 0.805338 0.3497801 -0.20962033 0.08420847 0.29672444 0.9153609 0.34589538 0.45852894 -0.47778103 0.7367431 0.8198137 -0.14251292 0.4580896 -0.28582484 -0.76610607 0.22477034 -0.43628287 0.2681252 0.09949918 -0.15824798 -0.07188926 0.09642635 -0.58158207
3 -0.3264565 -0.091407396 -0.6581461 -0.25980484 -0.2313572 0.52942765 0.782137 -0.2739992 0.8563024 0.047570746 0.077786915 -0.47253227 -0.25023228 -1.1824745 -0.8674293 1.0307168 -0.5654718 -1.3565164 -0.054288816 -0.08681459 -0.20868924 0.7753899 -0.17574523 0.29826304 1.1719534 0.28811193 -0.08123251 -0.23054248 0.48149484 -0.6208239 -1.3626608 0.5297956 0.09143381 0.39403835 -0.29670691 0.40182027 0.69919467 -0.2572176 -0.4856365 -0.38082388 -0.34775987 0.35035267 -0.010079147 -0.7843779 -1.0972925 0.30316323 -0.4855872 1.2975359 0.4497516 0.96211284 -0.40391746 0.6854408 0.19504309 -0.6310543 -0.7900733 0.1471604 -0.49753106 0.45167902 0.3414547 -0.10965019 -1.0989904 0.16563182 0.8577523 0.6084404
8 -0.00032086982 -1.4314536 -0.124379195 -0.65482485 -0.5061284 0.13743356 -0.15747188 -0.8211318 -0.3156245 -0.3802927 -0.32129255 0.677214 -0.22529429 -0.8167972 0.4516319 0.23949236 0.41705447 -0.103453256 -0.8125363 0.49550852 0.11718603 -0.6222545 0.33442113 0.13526042 -0.12350003 -0.0059902677 -0.14153782 0.47143686 0.09823846 -0.40628934 -0.48355722 -0.47062895 0.21610051 0.15913518 -0.12099947 -0.43063307 -0.2158938 -0.57786256 -0.00030328822 0.19595668 -0.19931109 0.7451698 -0.3045059 0.22356337 0.6555653 0.32425895 0.59965646 0.14107226 0.830924 0.3171546 -0.204984 0.11867146 -0.55268896 -0.21536177 -0.54781383 -0.8485602 -0.1291144 -0.22025385 0.11419106 0.64864314 0.024544759 0.86164385 0.30407614 0.32689148
43 -0.5293373 -0.048915338 0.17718038 0.22977412 0.27053928 0.3283234 0.34278238 0.07156248 0.021348134 0.56057596 -0.6019783 -0.21680215 0.469716 -0.47942364 0.7074383 -0.061814643 0.09721855 -0.69973356 -0.46638137 0.23098403 0.058323972 -0.48734754 0.6657049 0.06851004 0.9698987 -0.91234547 -0.80875236 0.43385696 -0.2054593 -0.2983531 -0.7702026 0.53984797 -0.7435715 -0.34362578 0.20256773 -1.8394336 0.011641245 -0.37367877 -1.2501565 0.68602425 -0.2707186 0.32474405 -0.04362386 0.17274055 0.04802041 1.042228 0.51542354 0.029096264 1.1865829 0.56941843 -0.069433354 -0.3786394 -0.6130377 -0.12415004 0.13797782 -0.33228964 0.7269097 -0.24909839 0.24226724 0.9777068 0.4315733 1.2906067 0.8584721 0.68754566
84 -0.24656217 -0.694274 -0.034915436 -0.41941667 0.20574112 0.5662776 -0.6038838 -1.1575997 0.2696283 1.0672078 0.27726194 0.64459985 0.17112324 -0.95391387 -0.9793785 0.25859562 1.0773244 -0.44570324 -0.135876 0.54491657 -0.6206243 -0.30235758 0.17949694 -0.517478 0.24978791 1.1395767 0.064603634 1.007237 0.067495346 0.29349032 -0.12194341 -0.07038347 0.26820108 0.12950827 -0.33123928 -0.41957143 -0.18485318 0.14381082 -0.73573035 1.4123666 -0.24097832 0.9754151 -0.8656385 -0.49087313 -0.5073028 -0.20772196 0.6918313 0.23364079 0.032753326 0.36592457 0.32580066 0.49233145 -0.45378786 0.34344158 -0.3646246 -0.62864834 0.77184993 -0.35374957 -0.17648676 -0.4305744 1.182132 0.6446194 -0.41248915 -0.20499109
143 -0.29848942 1.0057856 0.20046896 -0.20828071 -0.0020325247 -0.062183157 0.60231227 -0.17645675 0.63120705 -0.13061057 -0.58837354 -0.51913 -0.3462644 -0.5761637 -0.36943752 0.4752971 0.03392574 -0.5679572 -0.1245995 0.9397311 -0.25876257 0.7601851 -0.48863852 0.92287856 -0.021192592 -0.06665352 0.3524171 -0.60997134 -0.011457526 -0.3190574 -1.0236578 0.6705964 -0.27458566 -0.09789833 -0.29871166 -0.5244057 -0.46920642 0.30650088 0.6536666 0.6115109 0.61050856 0.9065618 0.07990062 -0.04503482 0.30210447 0.63433963 -0.41107497 0.8789361 0.8933487 0.8458419 0.07643301 -0.04248411 -0.4840569 -0.3967317 -0.3917981 -0.015283771 -0.13893853 0.104229756 0.031369843 -0.30593967 -0.27458662 0.47462994 -0.06994543 -0.26556972
68 0.4735596 0.4789728 -0.74017084 -0.011920423 0.51871336 -0.8587911 -0.49607918 -0.34086445 0.5253922 0.34714618 -0.5892449 -0.2821498 0.13055104 -0.6682206 0.16392478 0.44301078 -0.3352423 -1.1132172 0.24550523 0.2798942 0.8363452 1.0330423 2.0505917 0.7779053 0.5951714 -0.29796237 0.99440163 -0.30430412 -0.23557313 0.32019123 -0.5086321 0.117346235 0.04907839 0.9083134 0.41379303 -0.5012813 -1.2003604 0.39300483 0.33623388 1.0562185 1.2676476 1.1606 -0.072415985 -0.12037736 -0.6777529 1.1992067 0.1836455 0.47004175 0.26528102 -0.6734785 0.15597744 1.129712 0.4012335 0.47181755 -1.1305571 -0.6846263 0.830373 -0.40755296 -0.29192737 0.27083218 -0.10503655 0.12286597 -0.08880537 0.5172015
78 -0.12322776 -1.0302219 0.19382277 0.17647582 -0.6340283 0.77435565 0.67919976 -0.45245588 0.75225896 0.031657357 -0.543311 -0.18716778 0.07903795 -0.50245464 -0.25838304 0.91208607 -0.15590005 0.16195172 -0.739125 0.13201867 -0.588175 -0.5781592 0.10902897 0.24197033 0.5007359 0.403704 0.2821619 0.47998866 0.15165149 -0.56884414 -0.037785675 -0.07636706 0.33664238 0.6978374 1.9661093 0.17066202 0.1106337 0.2695269 -0.41056797 -0.06855991 -0.8194451 0.36734858 -0.5737466 0.4591274 -0.10692409 0.3127849 1.3045533 -0.6997931 0.28677127 0.29038775 -0.81262195 0.6614478 -0.2510987 0.25278375 -0.8679032 -0.19423923 1.1261661 0.049193695 -0.13098793 -0.0075657303 -0.6644431 0.80054444 -0.16529416 -0.39160478
35 0.1546792 -0.372462 0.42396513 0.32645193 0.84426665 0.9431675 -0.57954043 -0.36466393 0.6433839 -0.24481194 -0.041467976 0.22442186 0.09558371 -0.6462942 0.01738099 0.28933996 -0.6943226 -0.5980723 -0.5682708 0.22086003 0.37009478 -0.4308286 -0.17443761 -0.28559023 -0.39783135 -0.8703897 -0.006953291 0.3028785 0.40218285 0.26815444 0.19496234 -0.428872 0.43522358 -0.020497326 0.36562422 -0.63403606 0.042298328 0.5488079 -0.24964486 0.15767246 -0.16099048 1.001221 -0.5328222 0.10346378 -0.64850086 -0.07200291 0.69428265 0.939605 0.048766404 0.20117404 -0.54599047 -0.27778012 0.48014012 -0.306588 -1.7148638 0.7946095 0.07245438 0.054842588 -0.045022238 0.17519574 -0.47661775 1.5026877 -0.012650677 -0.22113802
46 -0.32500577 -0.7424458 -0.4835148 0.24012968 0.1254785 1.0177763 -0.12772807 0.07291313 -0.042183474 0.94977677 0.047567215 0.5165482 -0.29861304 -0.46821055 -0.46989018 0.77974224 0.09361014 -0.49030504 -0.76894283 0.16318925 -0.17072764 -0.47802398 -0.5431238 -0.25728303 0.83033884 0.6833698 0.67500377 0.4453709 -0.24900693 0.33410993 -0.27556723 -0.340334 0.95855296 0.17276226 0.65256983 0.17818415 -0.46593273 0.20766881 -0.5191402 0.5927864 -1.1319793 0.6143793 -0.5510883 0.22030056 -0.05378207 -0.14761892 0.79903203 -0.18692484 0.28643134 0.7764677 -0.20285188 0.57399017 -0.6049081 0.71699035 -0.7770714 -0.17023607 0.90823305 0.07469604 0.019753769 -0.52002543 0.04410525 0.80160946 0.019129373 -0.5637933
111 0.42284602 0.12139672 0.11016837 -0.24884935 -0.69432896 0.5989185 0.26902217 -0.3934863 -0.3636452 0.58435667 -1.608502 -0.5409088 0.12882546 -0.47096732 0.993894 -0.6496099 0.9910395 -0.91448575 0.47241512 1.245472 -0.123516716 -0.9763354 0.14497486 0.16208464 -0.35851964 1.2610679 0.1023312 0.08423568 0.12587728 0.053137224 -0.5401721 0.050557625 0.38610005 0.37799788 0.6247632 -0.58540195 -0.3436625 -0.8655413 -0.68466294 0.15036148 -0.5037064 1.2510388 0.6970991 -0.63453436 0.37818265 0.77454114 0.7505177 0.73614866 -0.4505018 0.0693953 -0.36989102 0.043346316 0.52955514 0.026979681 -0.8162385 -0.6291177 0.22885571 -0.37048286 0.31176588 -0.34333187 -0.25597817 -0.22634159 0.7473158 0.73528767
99 0.010961355 -0.5884433 0.30613574 -0.31711555 -0.4160589 0.4434157 0.43275347 -1.7907456 0.8082837 0.094176434 -0.09010948 -0.27605253 0.613771 -0.8947133 -0.5969206 0.1199164 1.0515578 0.26688057 -0.15063898 0.3495327 -0.8554669 -0.35703138 0.6482934 0.17243658 0.035118602 0.79500735 -0.40019196 0.8676414 0.665944 -0.56208473 0.06848296 -0.046624973 -0.25899044 0.78402084 0.6639103 -0.29200155 0.64547426 0.6415036 -0.7159801 0.6759325 -0.057622578 1.0826168 -0.9921216 -0.55309844 -0.38607273 0.0035375524 0.98357356 0.119952954 -0.108926564 -0.030328127 -0.52123165 0.7408522 0.019793365 -0.11649316 -0.25830084 -0.5939816 1.0456592 -0.23577012 -0.52058554 0.11625517 1.0169349 0.5894449 -0.6746138 -0.14379647
57 -0.030095812 0.23110732 -0.21665576 0.25271806 0.1922552 -0.49011144 -0.906472 0.091460586 0.43555406 0.52486855 -0.9190201 -0.89400476 -0.9622873 -0.68693113 -0.31349555 0.2282644 1.0781158 -0.31885564 -0.07245352 -0.22359958 0.5474942 1.1213263 2.19822 0.7025206 0.82985646 0.032212462 0.86613244 -0.4142474 -0.3252315 -0.2798666 0.4420948 0.2669401 -0.13827033 1.0781815 0.2618055 -1.0249625 -0.98401624 0.71487916 -0.36366853 1.2016138 1.2788545 1.5384879 0.48384038 0.17488684 -1.0024604 1.2052774 0.5280578 0.21614425 0.9350007 0.1299872 0.58203775 0.2437659 0.27171817 -0.15455581 -1.5945312 0.0053262715 0.79898256 0.71338254 0.19893102 0.056898177 -0.55080676 0.3007586 0.3202165 0.2880178
86 -0.41976702 -1.1516492 0.24550577 0.2853492 -0.17093669 1.0079474 0.0795297 -0.07715499 0.11609828 0.77349514 -0.743478 0.42924142 -0.07943034 -0.5983415 0.04716042 0.35612717 -0.3151257 -0.19117646 -0.16219239 1.0016423 -0.50786656 -0.54190344 -0.24011336 0.41077623 0.30951703 1.0280579 0.77637947 0.44436082 0.16751243 -0.007557174 -0.41348648 -0.05532579 0.9147875 0.007630167 1.2514307 0.48146176 -0.029953772 -0.86176515 -0.26236984 0.040346824 -1.1382217 0.29810897 -0.0499273 0.097415924 -0.39476553 0.670293 1.658282 -0.06820767 0.72784626 0.26227623 -0.61653864 -0.08601624 -0.0014599093 -0.088912815 -1.39045 0.020694427 0.84287953 -0.14557672 -0.17396498 0.17009921 -0.931046 0.20616977 0.10534081 0.1683825
157 0.48484907 0.042702407 0.2017284 0.40704542 0.1482864 1.2193054 -0.39473838 0.245277 0.61508304 0.046775978 0.6705877 0.84709674 0.54729956 -1.0112077 0.32296327 0.39309725 -0.2621148 -0.40820065 -0.54061764 -0.53013784 -0.011104498 -0.5264004 0.08905095 0.06718021 0.34519884 -0.14611138 -0.24293835 0.4530425 0.44994256 0.513694 -0.6565036 -0.18255855 0.30727568 -0.027823783 0.26335022 -0.53046596 0.11372624 -0.36199206 0.65875715 0.22753297 -0.27215245 1.0807021 -0.68230635 -0.48593384 -0.1296567 1.0142212 0.38996938 0.28030857 0.108478114 -0.48922008 -1.0541965 -0.19941898 0.1875531 -0.33175212 -1.6253017 0.16074307 0.19974773 0.4787643 0.2207554 -0.05344175 -0.6281346 1.3285325 -0.5507291 -0.82920074
21 -0.42591095 -0.033314623 0.8149992 -0.2908877 0.038401756 0.8499593 0.287972 -0.49093896 0.6336168 0.15661485 0.706197 0.16643041 -1.4359757 0.40574905 0.13180381 1.017326 -0.5670747 -0.50792634 0.37528184 -0.09717461 -0.2722188 0.082562074 0.44360512 0.42458975 0.14371233 0.4737684 0.3020273 -0.10862426 0.57803786 -0.97780097 -0.93199927 -0.548525 -0.29173693 0.27473235 0.4278933 -0.8660469 -0.80934703 -0.46814495 0.655917 0.1917923 -0.3912327 0.10169248 -0.55752444 0.060472462 -0.8096266 0.10700939 0.59594154 1.0828512 0.9660407 0.23280771 -0.6710908 0.8477257 -0.25995424 0.27509066 -0.03894134 0.4851793 0.10920698 -0.86337054 0.3679453 -0.47721153 -1.0182434 0.2162734 -0.3759942 0.31927833
168 -0.8588908 0.12065033 -0.32174602 0.8645509 0.757307 -0.23987484 0.37788445 -1.0020136 0.047101896 -0.21796772 -0.025577486 0.24411985 -0.97350556 -0.51107174 -0.10680248 0.119633615 -0.04685453 -0.5190579 -0.40936223 0.356435 -0.44729024 0.15102713 0.2420616 0.1298062 -0.92632073 -0.5960392 0.8246421 0.23254938 0.42862865 0.48231283 -0.10893089 0.8375094 0.5218904 -0.03841314 0.054080244 -1.0676649 0.027831845 1.0006543 -0.39185694 -0.1888794 0.32047397 1.3547347 -0.33545077 0.63264793 0.107417345 0.30230835 -0.08000524 0.71085316 0.95156825 0.59795845 -0.41896334 0.0036418429 0.8911005 -0.94532627 -1.1118455 0.038100783 -0.14489235 0.6034792 0.4968751 0.59230626 0.44249633 0.5892805 0.14259072 -0.0020729392
81 0.035130385 -0.8923373 0.41001028 -0.12921984 0.097449 0.87207484 -0.06289712 -1.4360408 -0.039285492 0.73481137 -0.49239534 0.17339498 0.45512456 -0.91900855 -0.008828109 -0.26859635 1.0803006 -0.20185766 0.5154095 1.2688276 -0.6873145 -0.18483792 0.4833006 0.17906375 -0.06578708 1.4466738 0.18838984 0.8788146 0.6235183 0.1023674 -0.32599837 0.046291552 0.4364302 0.072148845 -0.108295724 0.012032732 0.5621922 -0.45129192 -0.4863798 1.0019363 -0.417402 1.022528 -0.3520834 -0.9584014 -0.8042644 0.3533255 1.2169474 0.73133814 0.2866598 0.07112553 -0.28358778 -0.004550784 0.22081424 -0.61483365 -0.71710336 -0.38378248 0.9955797 -0.5165233 -0.49149802 0.3225689 0.92308253 -0.21710402 -0.27233827 0.29845163
56 0.59274244 -0.2052556 -0.83420837 0.29681864 0.3066783 -1.0807712 -0.5794066 -0.15394177 0.06791847 -0.6671495 -0.5471135 -0.1796145 -0.8438077 -1.3131964 0.05388565 -0.1437404 0.39921415 -0.024640648 0.05839137 0.34071058 1.0922236 0.968731 1.7920386 1.0325862 0.34758314 0.05863559 0.91093147 -0.9740107 1.0669001 -0.22599944 -1.0010468 0.35031694 -0.6205853 1.316992 -0.0939641 -1.1578423 -1.272539 0.15354033 -0.3166154 1.0434198 1.0523415 2.244446 -0.11255912 -0.38884047 -1.1349779 1.079421 0.2306437 0.49759445 1.1487708 0.46257237 0.30490962 0.58309805 0.7238682 0.27433014 -1.1104572 0.030759072 0.1515014 -0.24703379 1.0711108 -0.68790394 0.66828555 0.89597714 -0.112512745 0.26991516
94 -0.48576227 -1.2845682 -0.025762577 -0.34771046 -0.5446176 0.6954158 0.13145018 0.045300655 0.3959996 0.55188024 -0.2786839 0.6490247 -0.24404916 -0.74405 -0.43657303 0.83579355 -0.6619096 -0.2105485 -0.36585304 0.617723 -0.27219877 -0.81307095 -0.0617985 0.597866 0.44947195 0.12628005 0.23018314 0.040675472 -0.00069438014 0.32479766 -0.24397308 -0.91532314 0.74625605 0.4285187 1.1983696 0.68200487 -0.32794455 0.18420354 -0.7812988 -0.8231188 -0.61101615 0.20113742 -0.97208464 -0.3393332 -0.18615137 0.7169806 1.3370243 0.0049748947 1.2090915 1.2068694 -0.7670505 -0.014797044 -0.6505258 -0.11865959 -1.3552569 -0.6033362 1.2978896 0.51434183 -0.39841866 -0.026985647 -0.35080022 0.83861583 -0.4472957 -0.40643188
139 -0.42832506 0.625369 -0.48887283 0.9222804 0.09633811 0.14434618 0.6074362 -0.24508016 0.054161005 0.19466284 0.77528954 0.7443682 -0.61212885 -1.0467212 0.05616713 0.045783393 0.4012418 -0.3227077 -0.5374961 -0.15148804 -0.80951905 0.18069172 0.43483648 0.49773255 -0.38592994 0.00809519 0.6101339 0.17058341 0.40213215 0.6510994 -0.9635159 1.1073248 0.48134702 -0.10302241 0.09862504 -0.8850749 0.33910248 0.12453262 0.71755457 -0.12966268 0.24784754 1.3628092 -0.29468572 -0.16023149 0.75110024 1.1602591 -0.36912894 0.11420727 1.0956825 0.06896628 -0.8544043 0.097680256 0.29766956 -0.9757338 -0.9902284 -0.67173034 0.09211941 0.95880705 0.524989 0.3112808 0.3585195 0.49964276 -0.42714095 -0.7169807
107 -0.5901375 -1.4607171 -0.23984511 0.21404296 -0.30612198 0.043969527 0.39471173 -0.4553318 0.13040943 0.79104125 -0.20620352 0.44201648 -0.11719103 -0.61378366 -0.07775157 0.8046402 -0.79308975 0.29732275 -1.0687561 0.4940606 -0.3879847 -1.2539343 -0.5938146 0.2376892 0.3958495 0.010072541 0.45686853 0.13314849 0.22391175 0.01391281 -0.2745055 -0.34724137 0.40837884 -0.1306634 1.1146096 -0.09734688 -0.42009458 -0.72204036 -0.8863697 -0.5456912 -0.6031667 0.040369824 -0.54940975 0.4644578 0.31769872 0.7887882 1.3833433 -0.29859868 0.8586824 0.18329756 -0.17803274 0.46045345 0.06954196 -0.065464035 -0.8156355 -0.23502456 0.7713595 0.41330767 -0.49167454 -0.38478863 -1.1629596 0.4775027 -0.18113282 -0.27752772
82 0.48727012 -1.3228942 0.23464815 -0.52562195 0.010383705 -0.19551213 0.41972327 -1.8193305 -0.07923923 0.29103667 -0.3563217 0.060900625 0.23799151 -1.1921113 -0.39354965 -0.06019263 0.5611764 0.15512997 0.44225854 0.43924287 -0.97826743 -0.55519134 0.10884849 -0.30525506 0.35796776 0.68772197 -0.1084489 0.19295558 0.659023 0.6386259 -0.27788177 -0.52869624 -0.20787628 -0.5410554 -0.37037933 0.013724654 0.5058938 -0.14914107 -1.0565413 0.9745104 0.5190837 1.701586 -1.095919 -0.83773714 -0.1814473 0.27044442 0.67091656 0.6915742 -0.20545392 0.35079846 0.37428296 0.09487375 -0.6835767 -0.30741844 -0.58582854 -0.63993686 1.081218 0.17663106 -0.47755986 0.13701266 0.704948 0.5641512 -0.3432237 -0.09492544
15 -0.34968615 -0.16876887 0.28642064 -0.5174035 -0.044274125 0.5428627 -0.062923126 -0.14295502 0.6883463 0.65783244 -0.3184958 0.5978912 -0.81291807 -0.31456307 -0.29564348 0.2689155 0.18098894 -0.28966236 -0.9453443 0.59916407 0.11976531 -0.5161019 0.18076642 -0.119159155 -0.8909948 -0.014033842 -0.35820922 0.06548468 0.28090027 0.37594178 -1.0658737 -0.462825 -0.11032443 -0.124392785 0.9093727 0.060711768 0.22264798 -0.46903598 -0.26953715 -0.064765856 -1.0096728 0.11565689 0.16880187 0.48386738 0.37812927 -0.24749161 0.28376678 -0.18061917 0.84034646 0.7557775 -0.67631936 0.36197966 -0.1565062 -0.14706932 -0.55439585 -0.63153094 0.272908 -0.046650317 -0.7098506 0.26667428 0.26615006 0.64101267 0.14822899 0.20103975
54 0.97321874 -0.21974088 -0.95038104 0.53967977 -0.41668922 -0.9594588 -0.7594216 -0.8696513 0.5066628 0.41371757 -0.33372867 -0.47768047 -0.3976138 -0.7694059 -0.7697466 0.4876662 0.71125495 -0.1320329 0.18482348 0.10959465 0.47097406 0.3680034 2.2178464 1.1511444 -0.26271716 0.50718385 0.9330105 -1.4468348 -0.054599334 0.024479369 -0.48279682 0.60888547 -0.4073718 0.15044434 -0.01349466 -1.3169451 -1.245676 0.19888365 -0.7331303 1.7813662 0.75739074 1.5619811 -0.12689435 -0.7978256 -0.9392028 1.6605293 0.3310332 0.24475801 1.4465464 -0.016632687 0.6602634 1.217131 -0.26473257 -0.45722678 -0.8307813 -0.36476156 0.3065166 -0.18767327 1.2651769 -0.30711955 0.11939916 -0.6806111 -0.54650366 0.328738
96 0.26205194 -1.6402454 -0.34426567 0.5911882 -0.3548568 0.23321033 0.5337007 -0.4220836 0.51553416 0.3022978 -0.487073 0.6007912 -0.017734695 -0.46403337 -0.14893447 0.45876566 -0.1439443 -0.49516535 -0.82939094 -0.034787267 -0.6444749 -0.6613255 0.5985043 0.051276878 0.93093455 0.06756539 0.51537746 0.712966 -0.08165611 0.09995965 -0.2788707 -0.75242275 0.6739546 -0.58997744 1.2651057 0.013678372 -0.77297837 -0.35350433 -0.65599495 0.029879779 -1.13426 -0.20500168 -0.6268504 -0.18200627 -0.02324869 0.2056403 1.3714787 -0.2972476 1.0569634 1.209527 -0.6103968 -0.07646381 -0.034300897 -0.7528684 -1.6691319 -0.2742271 0.6152044 0.818725 -0.28014058 -0.6635446 -0.6172619 0.5995222 0.11444515 -0.14836186
20 -0.051312596 0.26358372 0.20647125 -1.308121 0.7212192 0.48837602 -0.5418519 0.3036358 1.2534596 0.16013044 -0.12634079 0.92833924 -0.5280205 0.15222666 -0.15790944 0.56592953 0.08368627 -0.68736345 0.62555325 -0.13032289 0.42568615 -0.18803552 0.8109535 0.069054164 0.09711539 -1.2830373 0.07919756 -0.4923891 0.83247054 0.8879501 -0.7204714 -0.28399393 0.5564562 0.29088113 0.85007304 -0.16078334 0.99839306 -0.067748666 -0.47946095 0.56653184 -0.23569834 0.7520524 -0.19899061 -0.7110387 -0.26343235 0.3734636 0.19522569 -0.18707156 0.11139231 -1.3701384 -0.12610628 0.9559944 -1.1027188 -0.23160475 -0.38212293 0.63173157 0.8297167 -0.370215 -0.2723579 -0.48131877 -0.8786661 0.2373417 -0.30215847 0.66364086
32 0.050200306 0.6373365 0.2888369 0.19404311 -1.2627872 -0.63840276 0.044653393 0.21506934 0.4547883 0.8370022 0.0148778455 -0.42176268 -1.6573688 -0.6644592 0.36646667 0.57303596 0.9932835 -1.3011553 0.7538968 0.7563823 0.9639716 -0.5940077 -0.52119863 -0.17179157 -0.21606497 -0.3274619 0.9138445 -0.5533258 0.056509223 -0.8668271 -0.14425136 -0.3211565 -1.317581 -0.9450004 1.0853539 -0.8648684 -0.64823925 0.7637557 -0.3283772 1.2193556 0.29901373 1.1101269 0.7599292 -0.44957247 0.13150431 0.7779732 -1.1701907 0.7169077 1.0695782 0.09894409 -0.39582032 1.711101 0.82047325 -0.0025965886 -0.941675 -0.29231197 -0.69782406 -0.3556342 -0.16244698 0.4475086 -0.7713242 -0.45092845 -1.03339 0.19017756
104 -0.51305354 -0.88170636 0.24238914 -0.2201646 -0.43090808 -0.1975165 -0.020102616 0.53749806 0.54848224 0.889896 -0.12312117 0.61461556 -0.16295724 0.1307086 -1.0346972 1.2641753 -0.5388931 -0.38300878 -0.06582485 0.6173728 -0.6465147 -1.0377467 0.11724487 -0.3651228 0.3951986 0.7468098 0.5719965 0.019350708 -0.1310284 0.46416774 0.12176929 -0.018388888 1.0815868 -0.6547156 1.144602 0.38454545 -0.7799944 -0.609191 -0.49211183 -0.08830253 -0.8899483 0.41339102 -0.3043094 0.69145596 -0.34990466 0.028170608 0.6752414 -1.0502837 1.06405 0.07828918 0.58327127 0.41059327 -0.14593244 0.42897823 -0.3766018 -0.05828158 1.1608676 0.05592146 0.168899 -1.3778558 -0.62094957 1.1693317 0.15497299 -0.08032942
12 -0.6940791 0.44882783 -0.66912884 0.25791645 0.6963534 -0.2927409 0.6796319 -0.8249537 -0.043830805 -0.034613226 0.39005423 0.4506844 -0.22060984 -1.2380946 0.43304244 -0.5102756 -0.74214256 -0.87782633 -0.7129353 0.5289727 -0.53645325 0.572375 0.67047775 0.6406794 -0.28234044 -0.48065698 0.972957 0.62895864 -0.08255929 0.6840688 -0.8763052 1.1344663 0.74058676 -0.13660263 0.86269325 -0.41693947 -0.17942165 0.26246798 0.36153597 0.12977958 0.39919487 0.8872475 -0.42216504 0.11740528 0.60789126 0.43857297 -0.42847744 0.5715158 0.99839586 0.43973193 -0.6705223 0.8577322 0.32807085 -0.30854827 -1.0563492 -1.0869596 0.23926724 -0.22810835 -0.25288603 0.8130133 0.82820624 0.6976388 -0.37961954 -0.010031116
118 -0.2623939 -1.0959483 0.5861185 -0.5803763 -0.42336124 0.7113636 0.62998027 -0.730128 0.14698233 0.19667688 -0.59583855 -0.13925138 -0.47122362 -0.7380779 -0.014452062 0.59952426 -0.28678897 -0.27645594 -1.3125877 0.35354388 -0.8349737 -1.4537644 -0.003139092 -0.35308757 0.99464035 -0.017337997 0.6431222 0.5257497 0.058685943 0.02624438 -0.38904104 0.17746896 1.1992022 -1.1920401 0.23836613 0.78601366 0.38600105 -0.055969194 -0.6128408 -0.7047957 -0.50228804 0.47215396 -0.8463674 -0.21406734 -0.7726563 0.63996935 0.96764135 0.11876153 1.0464966 0.6329958 -0.82945424 -0.12774062 -0.4938994 -0.37646025 -0.5769752 -1.1769911 -0.18564835 0.5426585 -0.68038017 0.3642398 -0.6823778 0.72411734 0.72754246 -0.2791386
74 0.5403453 -1.2457752 1.0983956 -0.5367578 -0.15997149 0.67477185 0.067347854 -1.9632827 0.41429624 0.7394012 -1.1485176 0.02006426 0.103431106 -0.96284413 -0.2709284 1.293239 0.68652195 -0.2858066 0.9284592 0.6742309 -0.27225623 -0.54540443 0.64888906 -0.33648655 -0.25313136 0.90429026 -0.033401113 0.7522538 0.09888298 0.3110287 -0.281461 0.0716904 -0.33948028 -0.20991434 -0.5605126 -0.31008762 0.5239146 0.24549167 -0.16904473 1.1439137 0.5512566 0.7907518 -1.126696 -0.96858096 -0.49424115 0.084360324 0.32284865 0.7044353 0.17438266 1.1694796 -0.8683072 0.260894 -0.61299217 -0.3867443 -0.2501577 -0.48662427 1.1436025 0.09012856 -0.55062205 -0.2520571 1.3192136 0.61285585 -0.49085146 -0.36852682
